{
  "InputNeurons":784,
  "HiddenNeurons":30,
  "OutputNeurons":10,
  "HiddenBiases" : [
    -1.660118,
    0.827025,
    -0.380118,
    -1.114078,
    0.239191,
    -0.185411,
    -0.828457,
    0.464043,
    -1.851077,
    0.827128,
    -0.674391,
    1.582651,
    0.116955,
    -1.049557,
    2.694626,
    -0.661848,
    -3.911108,
    -1.256595,
    -0.579902,
    -1.449344,
    -0.085776,
    -1.513755,
    -0.730642,
    0.201754,
    -1.135729,
    -1.011732,
    0.068762,
    0.855222,
    0.488129,
    0.460934
  ],
  "HiddenWeights" : [
    -0.450164,
    -0.578466,
    -1.407291,
    -0.603899,
    0.486167,
    -0.698789,
    1.050702,
    0.091660,
    0.686824,
    0.506632,
    -1.003875,
    0.659522,
    0.220530,
    1.011750,
    0.029725,
    -1.372153,
    0.620812,
    0.177836,
    -0.251554,
    -0.050716,
    -1.935505,
    0.927733,
    0.644820,
    -0.393160,
    0.388963,
    0.996471,
    -0.945726,
    -0.877610,
    -0.690460,
    -1.118020,
    -1.175588,
    -2.704364,
    0.366063,
    0.528414,
    0.366016,
    0.711440,
    -0.201476,
    0.578755,
    -0.474198,
    0.638456,
    -0.676338,
    1.054740,
    0.166251,
    0.340316,
    1.319385,
    -1.422076,
    -0.602720,
    -1.172270,
    0.407870,
    0.180549,
    -0.369732,
    -1.290047,
    0.805520,
    0.288956,
    0.391747,
    -0.795348,
    -1.696479,
    0.670537,
    0.345390,
    0.779621,
    -0.403406,
    1.426978,
    0.882932,
    -0.002403,
    0.656919,
    -1.212118,
    1.584674,
    -0.007931,
    0.336563,
    -0.673969,
    -1.444310,
    -1.190596,
    0.715324,
    -0.308858,
    2.192142,
    -0.344922,
    0.047046,
    -0.314364,
    0.279436,
    1.452798,
    -0.478604,
    -0.040694,
    -1.108250,
    -0.391962,
    -0.883793,
    -0.899271,
    -1.340852,
    -0.354626,
    -0.849815,
    0.028693,
    1.362653,
    1.854410,
    -0.873718,
    -1.024440,
    -1.109296,
    -1.162906,
    -2.156232,
    -0.658469,
    -0.016668,
    0.437692,
    -0.446463,
    -0.118445,
    -1.437912,
    -0.097270,
    0.186496,
    -2.611309,
    1.907844,
    0.772071,
    0.060137,
    0.032911,
    -1.851839,
    -0.706114,
    -0.065315,
    -1.342668,
    0.885753,
    -2.043226,
    -1.161523,
    1.852829,
    -0.315377,
    0.106617,
    -0.953556,
    -0.472492,
    0.214594,
    0.033353,
    0.276027,
    -0.895834,
    -0.297787,
    0.080232,
    0.040805,
    1.302590,
    1.117529,
    -1.033253,
    1.342120,
    1.484346,
    2.299297,
    -1.294428,
    -0.302472,
    -0.781300,
    -1.565687,
    1.033105,
    0.928737,
    -0.463478,
    0.060542,
    1.043926,
    1.199582,
    -0.282052,
    -1.479550,
    -0.101372,
    1.065406,
    -2.877383,
    0.745052,
    -2.687182,
    -0.700679,
    -0.204141,
    0.126212,
    -0.586824,
    0.443368,
    -2.617404,
    -0.578003,
    2.367391,
    -1.229106,
    1.670679,
    0.503444,
    -0.119578,
    -0.198945,
    1.115608,
    1.154628,
    0.026391,
    -1.080692,
    0.632211,
    0.883361,
    -0.761590,
    0.834828,
    -0.500275,
    0.919770,
    0.275027,
    -0.656753,
    0.102345,
    1.393736,
    -1.474298,
    0.196059,
    -0.301095,
    0.075811,
    -1.240444,
    -0.206151,
    -0.808442,
    0.037538,
    -1.187838,
    -1.802912,
    1.754115,
    0.062875,
    0.261227,
    -0.049489,
    0.618338,
    1.167537,
    -0.852090,
    1.261380,
    0.732627,
    -0.869341,
    -0.026365,
    0.719681,
    -1.714629,
    0.338592,
    0.118863,
    -1.792852,
    0.959386,
    0.150690,
    -0.676527,
    1.568060,
    1.131463,
    0.475439,
    2.360103,
    -0.878825,
    0.624758,
    -1.775459,
    -0.953631,
    -1.596581,
    -0.478567,
    0.292040,
    -1.241331,
    -0.875641,
    -0.578556,
    -0.815005,
    -0.691479,
    0.269650,
    0.280498,
    -0.149794,
    0.655916,
    -0.121461,
    -1.913536,
    -0.141711,
    -0.000231,
    0.347927,
    1.705690,
    -1.101202,
    0.783968,
    1.003807,
    0.461974,
    -1.545869,
    -0.079939,
    -0.100359,
    -0.473359,
    1.385653,
    0.481448,
    0.779515,
    1.475023,
    -0.128497,
    -0.888107,
    -1.379170,
    0.103437,
    -1.315459,
    -0.070309,
    0.262717,
    0.122083,
    0.839306,
    -0.499379,
    1.055328,
    1.019940,
    -0.261292,
    1.135931,
    -0.191536,
    -1.854089,
    0.264564,
    0.343203,
    0.022896,
    -0.561134,
    1.284075,
    1.152305,
    0.305942,
    -0.464879,
    -0.732517,
    -0.766707,
    0.379584,
    0.139277,
    1.355720,
    0.225855,
    0.249053,
    0.027275,
    1.056358,
    -0.319281,
    -0.164827,
    -0.900200,
    -1.150773,
    0.400045,
    -0.020845,
    -0.668983,
    0.268428,
    2.142707,
    0.394544,
    0.428037,
    -0.068993,
    1.623263,
    -0.478256,
    1.507616,
    1.654611,
    -0.520361,
    0.525691,
    1.346477,
    0.554294,
    0.452258,
    -0.964432,
    -0.652800,
    0.183910,
    -0.621991,
    -1.117432,
    -1.810335,
    -0.005480,
    0.002468,
    -0.327526,
    0.011687,
    -0.040636,
    0.217616,
    -0.860634,
    2.054276,
    0.091575,
    0.460206,
    0.445237,
    0.695014,
    0.084712,
    0.195017,
    0.911970,
    0.606937,
    0.278602,
    -0.800734,
    0.995240,
    0.586168,
    0.850397,
    -0.446760,
    -0.491862,
    -0.474190,
    -0.193384,
    1.154206,
    -0.707114,
    -0.778993,
    0.786812,
    0.435565,
    0.646560,
    1.419624,
    1.281517,
    1.163897,
    -1.003326,
    -1.542021,
    0.651390,
    0.779346,
    1.248348,
    -0.188030,
    -1.566721,
    0.469685,
    -1.330154,
    0.462316,
    -0.355406,
    -0.180209,
    -0.426763,
    -0.753343,
    -0.814843,
    0.039339,
    0.297373,
    1.028711,
    0.031182,
    -1.740268,
    -0.503398,
    1.810123,
    -1.141562,
    0.403291,
    1.176220,
    -1.439783,
    -0.896546,
    1.053866,
    1.128697,
    0.457018,
    0.141785,
    -2.138438,
    -0.319679,
    -0.776657,
    -0.697197,
    -0.007739,
    -0.892206,
    -0.118594,
    -0.843496,
    -0.474951,
    -1.425820,
    0.885322,
    0.154179,
    -0.601347,
    0.599345,
    0.962540,
    -0.183004,
    -0.861008,
    -0.051191,
    0.270944,
    -0.317718,
    0.857266,
    -0.549551,
    0.445791,
    1.259909,
    -1.584517,
    0.474939,
    -0.110783,
    -0.913234,
    -0.827664,
    0.330984,
    -0.075601,
    -0.208770,
    -1.017652,
    0.446174,
    -1.465034,
    -0.360964,
    -0.474646,
    -0.761933,
    0.265823,
    -1.143054,
    0.306276,
    1.513367,
    -0.864374,
    -1.012414,
    1.466093,
    -1.813249,
    0.567511,
    -0.749812,
    0.558374,
    -0.460973,
    1.561753,
    0.501584,
    0.204470,
    -1.514248,
    -0.791392,
    -1.162516,
    1.827143,
    0.987805,
    -0.090033,
    -0.836278,
    -1.272563,
    -0.936608,
    -0.416296,
    -0.623847,
    -0.548184,
    2.034560,
    0.039027,
    1.474427,
    -1.056358,
    -0.032058,
    0.541384,
    0.958953,
    0.893113,
    0.753991,
    1.002907,
    -1.479038,
    -0.307985,
    -0.313528,
    1.053172,
    1.285787,
    -2.605886,
    0.110691,
    -0.090021,
    -0.509902,
    -1.471267,
    0.929281,
    -1.762375,
    0.299809,
    -0.341314,
    -0.093172,
    -2.397803,
    0.522919,
    1.301565,
    0.302747,
    -0.975768,
    0.173910,
    -0.729868,
    -0.816953,
    1.138355,
    -0.053511,
    -2.539960,
    0.937089,
    0.437199,
    1.523082,
    0.635559,
    0.365214,
    -1.363230,
    0.557163,
    -1.242889,
    -0.100503,
    -0.431582,
    -0.511525,
    -0.194605,
    -1.389660,
    0.832232,
    0.049107,
    -1.638313,
    0.074287,
    -0.367612,
    1.635882,
    -1.357387,
    1.084518,
    -1.434423,
    1.134854,
    0.298254,
    0.267740,
    -2.650917,
    -0.617755,
    0.213365,
    -1.132734,
    0.274478,
    -1.386935,
    -1.983421,
    -1.701285,
    -0.041953,
    0.918001,
    -1.700352,
    -0.640014,
    0.149416,
    -1.952578,
    -0.126514,
    0.356210,
    1.319581,
    -0.688420,
    -1.134905,
    -1.199737,
    -0.344346,
    -0.124726,
    0.947033,
    0.486151,
    1.966306,
    -0.963081,
    -1.948555,
    -1.531241,
    -1.516686,
    0.639701,
    0.571731,
    0.057684,
    0.100474,
    -0.641730,
    -0.139683,
    -0.037334,
    -2.106612,
    0.315318,
    -2.529176,
    -0.586627,
    -0.607724,
    -0.187324,
    -1.521703,
    -0.824325,
    -0.262726,
    -1.577957,
    -1.043464,
    2.579181,
    1.708897,
    1.738695,
    -1.586225,
    0.774412,
    0.830610,
    1.562185,
    -0.950280,
    0.241956,
    0.223705,
    -0.192802,
    1.879624,
    -0.937604,
    -0.516381,
    -1.203618,
    -0.194295,
    0.323338,
    0.187598,
    0.078888,
    -0.305306,
    0.349608,
    -1.180297,
    -1.022535,
    0.362032,
    -0.696576,
    -1.061382,
    1.158706,
    -0.858090,
    -1.426560,
    0.399933,
    0.221332,
    1.564326,
    -1.917495,
    -1.481727,
    -0.839324,
    -1.279508,
    -0.337608,
    -2.061195,
    0.117920,
    -0.943735,
    0.511072,
    -0.155856,
    0.507412,
    2.492719,
    -0.463223,
    -0.985970,
    0.013780,
    -1.212734,
    1.289673,
    0.030753,
    -3.054608,
    -0.876246,
    -0.347693,
    -0.916778,
    -1.092219,
    -1.897789,
    -1.986767,
    0.996397,
    1.022793,
    2.222958,
    -0.733247,
    0.139665,
    0.322787,
    0.263039,
    1.189769,
    -0.565540,
    -0.588766,
    0.183417,
    0.731215,
    0.727603,
    -0.680565,
    0.032275,
    1.160272,
    -1.495479,
    0.146317,
    -2.343344,
    0.362990,
    0.437129,
    0.888856,
    0.082846,
    -0.025887,
    -0.170986,
    -1.106204,
    -0.550627,
    0.835696,
    0.297693,
    -0.523818,
    0.560441,
    0.932853,
    0.283570,
    0.798518,
    1.446658,
    1.495423,
    0.377252,
    0.063475,
    -0.803065,
    -0.494691,
    -0.534759,
    -2.631964,
    -0.585019,
    -3.065612,
    -0.789454,
    -1.538698,
    0.557651,
    -1.583849,
    -1.869999,
    -0.192512,
    -0.052424,
    -0.084376,
    -0.441459,
    0.436502,
    -1.037499,
    -1.575656,
    -1.716469,
    0.831177,
    -2.331552,
    -0.029722,
    -0.437538,
    1.255575,
    1.157287,
    -0.092165,
    0.927168,
    1.098717,
    -0.914063,
    -0.375822,
    -0.211535,
    0.129915,
    0.910452,
    0.407051,
    -0.261125,
    0.629950,
    0.412206,
    -0.305371,
    -0.921387,
    -0.297549,
    -0.295399,
    1.211003,
    -1.502641,
    -0.548410,
    -0.892554,
    -0.332919,
    -1.777345,
    -0.865446,
    1.205428,
    1.212761,
    1.476598,
    0.354394,
    1.079121,
    -0.470108,
    0.317999,
    0.513411,
    -0.645474,
    0.509332,
    -0.343996,
    0.039220,
    -2.643554,
    -0.479586,
    -0.659590,
    -0.101749,
    -1.087903,
    0.637134,
    -0.566594,
    -0.894563,
    0.649358,
    -0.541469,
    2.787815,
    1.042772,
    -0.835381,
    0.339701,
    1.436424,
    0.586150,
    -1.490822,
    -1.490795,
    0.802253,
    0.043205,
    0.490649,
    0.451031,
    0.523936,
    -0.823782,
    -2.399158,
    2.095434,
    -0.012613,
    0.983855,
    -0.339196,
    -0.234930,
    0.795575,
    -1.178528,
    0.887738,
    -1.572344,
    0.886074,
    -1.586781,
    -1.103193,
    -0.703662,
    -0.443339,
    1.200278,
    0.292123,
    1.498309,
    -1.945911,
    0.723012,
    2.459738,
    -0.889701,
    0.046233,
    -1.654055,
    0.873705,
    -1.292405,
    -0.563438,
    1.322563,
    1.239518,
    -0.007382,
    0.446668,
    1.054322,
    -0.415031,
    -0.782821,
    -2.227544,
    0.574941,
    1.204701,
    0.521269,
    1.125601,
    -0.577638,
    -1.389253,
    0.204721,
    1.825615,
    0.742545,
    -0.237716,
    -0.427216,
    -0.637662,
    -1.113802,
    -0.738964,
    -1.473903,
    1.475619,
    0.328031,
    -0.805827,
    0.023376,
    0.349047,
    -0.303617,
    1.246978,
    1.561844,
    -0.166795,
    1.817490,
    -0.251518,
    0.399804,
    1.043340,
    -1.793177,
    0.190452,
    -0.357828,
    -0.529147,
    -0.677308,
    0.216480,
    -0.512718,
    0.947519,
    0.272674,
    0.289768,
    1.424518,
    1.722196,
    -1.198176,
    1.004780,
    -0.063114,
    -0.453511,
    0.418999,
    0.045068,
    -0.385353,
    -0.604338,
    -0.466713,
    0.179767,
    1.611268,
    -1.012034,
    -0.512203,
    1.732728,
    -0.809848,
    0.438700,
    -1.436142,
    0.286009,
    1.232511,
    0.582326,
    1.477961,
    -0.324183,
    -0.156544,
    -1.726893,
    -0.977534,
    0.563627,
    -0.713685,
    1.564226,
    0.954833,
    1.820882,
    0.439183,
    -1.314366,
    -1.284139,
    -2.966269,
    0.022252,
    1.497100,
    -1.799745,
    0.451793,
    1.573084,
    0.668745,
    -0.218029,
    -1.455869,
    0.041278,
    0.068485,
    -0.711321,
    1.727751,
    1.545934,
    -0.720986,
    -1.366095,
    1.984020,
    -1.604832,
    0.889020,
    -0.514909,
    1.247448,
    1.722643,
    -0.642401,
    -0.790150,
    1.906210,
    0.877338,
    1.140834,
    -0.760088,
    -0.007541,
    -2.281931,
    -0.018141,
    0.353249,
    0.228152,
    -0.124046,
    -0.240408,
    2.006252,
    -1.961986,
    -0.274313,
    -0.617402,
    -0.148288,
    0.564774,
    1.639428,
    2.374996,
    0.605918,
    0.488144,
    -1.512228,
    -0.879360,
    0.878221,
    0.625968,
    -0.769418,
    1.462370,
    -0.182435,
    -1.094439,
    0.027591,
    -0.134147,
    -0.271152,
    2.049260,
    -0.786167,
    0.335526,
    1.139408,
    -1.628725,
    -1.080684,
    -0.252951,
    -1.630398,
    0.351713,
    0.222689,
    0.485367,
    0.213995,
    -0.959442,
    0.122716,
    0.184176,
    -0.326364,
    1.073195,
    -0.165943,
    -1.567276,
    -0.561426,
    0.139894,
    -0.874380,
    0.148443,
    0.319472,
    -0.121336,
    -0.903038,
    0.507782,
    1.642723,
    -0.122554,
    -0.883804,
    0.815481,
    1.289619,
    -0.468496,
    -1.794547,
    0.363794,
    1.754871,
    -0.648370,
    -0.860770,
    0.833288,
    -0.115804,
    -2.282887,
    -0.000742,
    1.161079,
    -1.582795,
    0.885747,
    -0.318175,
    0.324729,
    -0.973112,
    -1.190985,
    -1.490794,
    -1.578392,
    -1.112360,
    0.914909,
    -1.565810,
    -1.559363,
    -0.759661,
    -1.013881,
    1.010123,
    1.033917,
    1.449883,
    -0.591576,
    0.025629,
    -1.062628,
    0.052521,
    0.497559,
    -0.165094,
    -2.072486,
    -0.888197,
    -1.654676,
    1.535339,
    0.429982,
    -0.480254,
    1.146449,
    1.281567,
    0.456112,
    1.549627,
    -1.599730,
    0.392455,
    -1.631512,
    -1.401342,
    -1.971768,
    -0.525563,
    -1.478135,
    -0.914855,
    -0.974772,
    -0.237992,
    -0.223952,
    0.966784,
    -1.969731,
    1.115022,
    -1.247496,
    1.157568,
    -1.222890,
    1.687809,
    0.295619,
    -1.116234,
    -0.213203,
    2.207273,
    -1.571940,
    -0.132765,
    0.138469,
    -0.546969,
    -0.225724,
    -1.996874,
    -0.636467,
    -0.504462,
    -1.296622,
    -1.906647,
    -1.401072,
    0.108052,
    -1.767103,
    -0.321992,
    -0.196384,
    0.059151,
    -0.355998,
    -1.719883,
    -1.185443,
    1.275695,
    -1.689677,
    -0.496217,
    -0.264379,
    0.379511,
    -0.455497,
    -0.817217,
    0.912748,
    -1.598711,
    -0.250950,
    0.791950,
    0.542922,
    -0.146791,
    -0.093083,
    -1.172802,
    -2.471483,
    -1.555649,
    -0.273010,
    0.743630,
    -1.642485,
    0.071038,
    0.218322,
    0.089591,
    -0.106437,
    1.355279,
    -0.821374,
    -0.109569,
    -0.920908,
    0.426828,
    -0.079650,
    0.494728,
    -1.081592,
    -0.036717,
    -0.128531,
    1.012333,
    1.259384,
    -0.041141,
    1.873134,
    -0.867750,
    1.264483,
    -0.924950,
    0.414876,
    -1.455284,
    -0.488931,
    -2.105590,
    0.636935,
    0.319431,
    0.859837,
    0.431762,
    1.522195,
    -0.919535,
    0.312359,
    -1.308059,
    -0.022764,
    -0.556716,
    -0.170695,
    -1.673587,
    1.561199,
    -1.336966,
    1.023721,
    -1.450950,
    -0.850646,
    -0.085576,
    -1.069865,
    0.733191,
    -1.003109,
    0.915715,
    -1.241038,
    -1.563127,
    -2.591336,
    0.140501,
    1.350619,
    1.908618,
    0.158590,
    0.645940,
    1.313300,
    1.368264,
    0.080870,
    -0.897573,
    0.146889,
    0.367937,
    -0.924352,
    -2.196093,
    -1.097246,
    0.481697,
    -0.486576,
    0.840906,
    0.134178,
    0.901086,
    -0.941276,
    0.865573,
    1.190072,
    0.448956,
    -0.540113,
    -1.703525,
    -0.195046,
    0.059309,
    0.591795,
    1.002056,
    -0.091629,
    -0.360739,
    0.719804,
    0.970343,
    0.619059,
    0.503251,
    0.006479,
    0.319188,
    0.012467,
    -0.677774,
    0.132677,
    -1.581038,
    -1.159201,
    -0.078118,
    0.207636,
    -0.167437,
    0.092637,
    -2.543605,
    0.829993,
    -0.307186,
    0.366936,
    2.284215,
    0.469715,
    2.833020,
    -0.010014,
    -0.396425,
    2.438968,
    -0.677357,
    -1.197162,
    1.404348,
    -0.145720,
    1.463318,
    1.426775,
    0.846589,
    -0.004045,
    0.591933,
    -0.271103,
    0.227652,
    -1.079475,
    1.127765,
    0.078496,
    0.223094,
    -0.244113,
    0.428357,
    -0.635943,
    1.156257,
    -0.203776,
    0.168181,
    3.146250,
    0.670317,
    -0.759959,
    -1.022697,
    -0.130849,
    0.619797,
    0.300597,
    1.126447,
    -0.510179,
    0.531162,
    2.348590,
    0.472282,
    -1.338788,
    0.347398,
    1.613107,
    0.717155,
    -0.211752,
    0.606210,
    -0.363088,
    0.257506,
    1.903977,
    -0.116349,
    -0.610496,
    0.561652,
    1.527668,
    0.876296,
    -0.419773,
    -0.160667,
    0.397396,
    0.252536,
    0.567335,
    0.306168,
    1.578142,
    0.319997,
    1.322306,
    2.205844,
    1.475598,
    -0.335335,
    0.406026,
    0.853156,
    0.077669,
    1.040613,
    0.754924,
    -0.345915,
    1.542364,
    0.353128,
    1.720660,
    1.274508,
    1.104872,
    -1.836010,
    -0.078110,
    -2.055311,
    -0.349102,
    0.657436,
    0.044113,
    2.195015,
    -0.062548,
    -0.766595,
    -2.188760,
    -0.182190,
    0.528930,
    -0.080315,
    -0.232594,
    -0.918914,
    -1.458105,
    0.664550,
    -0.119171,
    -0.114475,
    0.915477,
    1.990819,
    0.683578,
    -0.149751,
    0.471972,
    1.089155,
    1.576432,
    0.907510,
    -1.172721,
    -0.370027,
    0.559554,
    -0.310148,
    -1.170366,
    -0.955127,
    1.861311,
    -0.600987,
    -1.253171,
    0.154972,
    -1.311921,
    -0.268221,
    -0.431561,
    0.237796,
    -0.550750,
    -0.479372,
    1.089169,
    -1.406759,
    1.208613,
    -0.856226,
    0.154053,
    0.820810,
    0.122757,
    0.922296,
    1.008166,
    -0.302479,
    1.363819,
    1.553769,
    0.939286,
    -0.169135,
    0.615932,
    1.375533,
    -0.153508,
    0.838643,
    -1.048990,
    -0.037952,
    -0.529355,
    -1.871080,
    -0.600965,
    0.281676,
    1.162814,
    -0.443348,
    1.068927,
    -0.207985,
    0.152961,
    -0.103633,
    1.309834,
    -0.162070,
    0.102088,
    -0.200827,
    0.954365,
    0.378442,
    1.800682,
    1.227219,
    -0.181012,
    0.987314,
    0.172178,
    -1.266953,
    0.166729,
    0.530271,
    -0.023642,
    0.533800,
    0.102510,
    -0.332265,
    1.112033,
    1.279390,
    0.058940,
    -1.378208,
    1.223773,
    -2.640177,
    -1.334574,
    -1.018946,
    -0.505530,
    -1.354978,
    0.506059,
    -0.150377,
    -0.132070,
    -0.540866,
    -0.137433,
    0.045051,
    0.352201,
    0.271182,
    0.457022,
    0.021419,
    0.138061,
    -1.112207,
    0.158371,
    0.467121,
    -0.046923,
    0.186761,
    -0.379474,
    0.273168,
    0.060119,
    0.612820,
    -1.169006,
    2.495031,
    -0.055180,
    -0.539154,
    -1.254583,
    0.445707,
    0.098361,
    1.147279,
    1.280079,
    0.384468,
    -0.640113,
    1.568097,
    -1.649225,
    1.802056,
    -0.338370,
    -1.009505,
    -0.335388,
    0.174702,
    -1.325827,
    0.219751,
    -2.000854,
    -1.859702,
    -2.463994,
    -0.483148,
    -0.134529,
    -0.213429,
    -1.738660,
    -1.470723,
    1.219174,
    -1.675268,
    -2.721996,
    -0.468556,
    0.503213,
    -1.031878,
    0.272281,
    -1.707107,
    1.129340,
    1.169405,
    0.389005,
    0.235210,
    0.185983,
    0.494930,
    -1.317448,
    -0.476020,
    -0.205557,
    -0.694874,
    -0.197880,
    -0.760601,
    0.567239,
    -0.819731,
    -2.002327,
    1.251366,
    2.157619,
    -0.007188,
    1.042515,
    -0.275157,
    1.818078,
    -1.047972,
    0.056345,
    -0.262547,
    0.234207,
    0.778463,
    0.946321,
    0.810079,
    1.468141,
    0.349481,
    0.380605,
    -0.461617,
    -0.139422,
    -0.362556,
    0.174401,
    -1.202120,
    0.125827,
    -1.493667,
    -0.051893,
    0.435507,
    -0.024750,
    0.189892,
    0.478927,
    -1.114966,
    -0.550491,
    -0.521032,
    0.191678,
    0.935442,
    1.674778,
    -0.294845,
    0.289597,
    1.256852,
    -0.274765,
    -0.544532,
    0.615410,
    -1.152063,
    -2.074760,
    -1.196423,
    -0.504471,
    1.265390,
    0.228118,
    -1.347686,
    -0.078358,
    -0.816102,
    -0.945777,
    0.517505,
    0.609808,
    -0.349089,
    1.431608,
    0.323223,
    0.661593,
    -0.961786,
    0.564520,
    -0.005512,
    -0.998395,
    -0.733950,
    0.426868,
    1.412968,
    0.895432,
    0.899052,
    -0.968841,
    0.821301,
    -2.099502,
    -0.530024,
    1.172233,
    -0.333246,
    0.762742,
    -0.934421,
    -0.879140,
    -1.637804,
    -1.694557,
    0.655432,
    -0.891578,
    -0.336029,
    0.408838,
    0.377822,
    -0.298281,
    3.598315,
    0.654700,
    -0.545284,
    0.729876,
    0.935049,
    -0.305862,
    -1.199005,
    -0.140089,
    0.834720,
    2.145906,
    -0.378522,
    -0.051424,
    1.189677,
    -0.750363,
    0.303114,
    -1.247172,
    -0.177322,
    0.020603,
    -0.630432,
    -0.738649,
    -2.349261,
    -0.535608,
    -0.195816,
    -0.965080,
    -0.749073,
    0.014141,
    0.667586,
    -1.453299,
    0.460027,
    1.178725,
    0.290485,
    1.194120,
    -0.476546,
    -1.887768,
    0.075601,
    0.367587,
    -2.315686,
    0.821870,
    -1.617816,
    -0.119888,
    0.134446,
    0.002611,
    -0.270680,
    0.948846,
    0.146883,
    -2.314251,
    -1.235770,
    -2.059377,
    -1.599061,
    -0.709817,
    -0.456041,
    -1.122589,
    0.484795,
    0.994050,
    0.466819,
    0.112859,
    2.565956,
    -0.422122,
    -0.362681,
    -0.181334,
    -0.412767,
    1.469083,
    -0.660164,
    0.370918,
    0.144206,
    0.645390,
    0.354503,
    -1.098210,
    0.292365,
    -0.346144,
    -0.658284,
    -0.644140,
    -0.442612,
    -1.110215,
    0.228987,
    -1.021907,
    0.505390,
    -1.278329,
    -1.166887,
    -2.007395,
    1.357187,
    -1.799542,
    1.265060,
    0.676540,
    0.038286,
    -1.005839,
    0.373900,
    -0.533581,
    -0.292312,
    0.128674,
    1.358683,
    -2.398559,
    -1.004405,
    2.218166,
    0.154303,
    -0.193414,
    -0.051028,
    1.640227,
    0.988473,
    -1.421703,
    -0.019922,
    1.187145,
    -0.953463,
    -0.659001,
    -1.720810,
    -1.485823,
    -1.279900,
    1.349359,
    0.937171,
    -0.206419,
    -2.044194,
    -0.933446,
    0.952682,
    -0.377963,
    -1.109883,
    -0.013096,
    0.929338,
    -0.112069,
    1.852363,
    -0.024559,
    -1.322172,
    -0.157850,
    0.447056,
    -0.876032,
    -0.393451,
    0.408783,
    -0.378558,
    -0.562623,
    -0.151030,
    1.213782,
    1.532627,
    -0.787543,
    -0.317354,
    -0.213013,
    0.320374,
    -0.187095,
    0.620119,
    -0.381395,
    -0.058265,
    0.694960,
    -1.235589,
    0.686492,
    -0.882427,
    -1.119837,
    -0.964731,
    -0.852002,
    -1.011590,
    -0.131589,
    -0.159246,
    0.072901,
    0.174258,
    -1.670115,
    -0.703577,
    0.186632,
    -1.033950,
    0.305165,
    -1.577145,
    1.332592,
    0.982142,
    2.459589,
    0.440465,
    1.743375,
    -1.775809,
    -2.804973,
    0.946898,
    0.801990,
    -0.435268,
    -1.542299,
    -0.903475,
    0.015333,
    0.306029,
    -0.460324,
    -0.407153,
    1.961082,
    1.213824,
    0.717005,
    -1.192312,
    -1.792711,
    1.252838,
    -1.102496,
    -0.946201,
    0.020112,
    -0.858672,
    -0.672746,
    0.268193,
    0.365732,
    0.748767,
    0.137939,
    -0.427384,
    0.243934,
    0.151679,
    1.217621,
    1.287531,
    -0.744690,
    -0.192529,
    1.310377,
    1.025433,
    -0.908443,
    0.488440,
    -1.977094,
    1.820747,
    1.424646,
    -0.085137,
    2.081612,
    -0.087040,
    -1.416023,
    1.335212,
    -1.068718,
    -0.088105,
    -2.050309,
    -1.521170,
    0.169593,
    -0.056874,
    -0.832073,
    -1.160164,
    0.238392,
    1.758502,
    -0.316880,
    -1.814806,
    0.098655,
    -1.500912,
    0.113988,
    -1.712559,
    -0.856489,
    -1.818949,
    1.127356,
    0.045289,
    2.442418,
    -1.034678,
    0.898878,
    0.413960,
    1.025278,
    -0.169395,
    0.452428,
    -0.114223,
    -0.643985,
    -0.331455,
    -1.297414,
    -0.307136,
    1.073871,
    -0.213138,
    -0.393361,
    -0.717727,
    0.729158,
    -1.680448,
    -1.618999,
    1.159655,
    -1.484382,
    0.788578,
    -0.039014,
    1.088050,
    1.170482,
    0.068000,
    -1.154212,
    1.646277,
    0.303871,
    0.039193,
    0.417911,
    0.576415,
    0.812195,
    -1.742165,
    0.683492,
    -0.312248,
    -0.370198,
    -0.317217,
    -0.883296,
    -2.232012,
    -0.295449,
    -0.176932,
    -0.869047,
    -0.235626,
    -1.114801,
    -0.252378,
    -2.044717,
    0.826146,
    -1.042799,
    0.391870,
    0.433545,
    -0.523883,
    0.609205,
    0.087730,
    1.080620,
    -1.685414,
    0.799513,
    0.261283,
    0.840400,
    -0.480687,
    0.323248,
    1.373373,
    1.978780,
    1.105644,
    0.960462,
    -1.718718,
    -0.793543,
    0.025466,
    0.245435,
    -1.318247,
    -1.594906,
    -1.889887,
    2.101872,
    -1.786006,
    -0.071943,
    -0.990265,
    0.844766,
    1.052116,
    0.519266,
    0.078817,
    1.558865,
    -0.632505,
    -0.857549,
    -0.404502,
    -1.045797,
    0.262059,
    -2.636958,
    -1.273085,
    -1.388364,
    -1.709005,
    -0.095203,
    0.112730,
    -0.864080,
    0.922246,
    1.003718,
    0.717202,
    0.678681,
    0.353991,
    -0.119957,
    -1.275144,
    -0.499124,
    -0.149184,
    -1.763415,
    0.004213,
    0.519987,
    -0.511011,
    -0.064999,
    -0.527423,
    0.759972,
    -0.861446,
    -0.169023,
    -0.306226,
    -0.660531,
    -0.210462,
    0.780238,
    -0.658773,
    0.213642,
    0.910397,
    1.516498,
    -1.142771,
    -1.268781,
    -0.574074,
    0.168779,
    0.884028,
    -1.760798,
    -1.295982,
    -2.090419,
    -1.015537,
    -0.364184,
    -1.349266,
    0.078072,
    0.687926,
    -0.405407,
    1.165191,
    0.731387,
    -0.121071,
    -0.054441,
    -2.092585,
    0.897747,
    -0.163273,
    -0.261623,
    2.538013,
    0.541739,
    3.349308,
    -0.383495,
    0.167129,
    1.388627,
    -1.192051,
    0.901881,
    0.706190,
    0.004792,
    -1.894513,
    -0.565676,
    1.044268,
    -0.836196,
    -0.269471,
    -0.438749,
    -1.215218,
    1.136969,
    -0.840648,
    -0.505231,
    1.108993,
    -0.550042,
    -0.958374,
    2.128565,
    0.649759,
    0.719046,
    -0.387830,
    -0.591458,
    1.283619,
    0.502372,
    1.593534,
    -1.252028,
    0.474897,
    -2.295003,
    0.556752,
    -0.399447,
    0.542285,
    -0.558065,
    -1.282743,
    -0.629182,
    -1.445282,
    0.281117,
    1.419053,
    -1.540284,
    -0.172583,
    0.246622,
    2.218834,
    0.622402,
    -0.684513,
    0.461222,
    -2.490005,
    -0.702476,
    -0.971780,
    0.089517,
    -0.455219,
    0.929799,
    1.188841,
    2.931506,
    -0.713511,
    0.193907,
    -2.798073,
    0.332790,
    0.155735,
    -0.034780,
    0.640266,
    -0.365991,
    -0.082363,
    -2.412696,
    -1.245897,
    0.171543,
    -2.563549,
    -1.110715,
    -0.644971,
    -0.509905,
    1.975119,
    -0.752207,
    0.838436,
    -1.728411,
    0.173207,
    0.023068,
    -2.323480,
    0.198811,
    0.837370,
    1.021851,
    -1.556413,
    -1.268005,
    1.083997,
    -0.145846,
    -0.055596,
    0.369113,
    1.704491,
    -0.623097,
    1.289934,
    -1.184182,
    -0.352711,
    -1.000181,
    -0.115680,
    -0.487711,
    -1.657553,
    -1.968606,
    0.342358,
    0.660378,
    -0.181854,
    0.062599,
    -0.027140,
    0.798084,
    -1.211391,
    -1.651195,
    -0.682084,
    -0.716124,
    -0.160530,
    0.092198,
    -0.718572,
    -0.140746,
    -0.993540,
    0.763527,
    1.250196,
    1.060148,
    -0.344794,
    0.732325,
    1.223135,
    2.338963,
    1.123470,
    -0.437786,
    1.590722,
    -0.683759,
    1.140705,
    -1.269752,
    -0.379204,
    2.071862,
    1.045979,
    1.790412,
    1.389854,
    -0.755693,
    -1.341822,
    -1.310855,
    -0.600822,
    -0.444341,
    0.171990,
    0.364292,
    0.418373,
    -0.573541,
    -1.115657,
    1.378394,
    0.653494,
    0.136679,
    0.596569,
    0.230074,
    -0.057133,
    1.385595,
    0.269413,
    0.593209,
    0.653252,
    -0.548278,
    -1.054318,
    -1.301713,
    1.363431,
    0.212951,
    0.665861,
    -0.343994,
    -1.892262,
    0.513726,
    -0.072797,
    0.045011,
    -1.893714,
    -1.126970,
    -1.447034,
    -1.457135,
    -0.255945,
    0.194018,
    0.603575,
    0.351199,
    0.149265,
    -0.376241,
    0.989030,
    -1.565094,
    -0.185616,
    -0.266571,
    -0.055442,
    -0.487727,
    0.541335,
    0.217546,
    -0.510380,
    0.606902,
    0.617019,
    0.834989,
    0.089783,
    -1.324006,
    -0.774999,
    -0.014527,
    1.262021,
    -1.301532,
    -1.543546,
    -1.009290,
    -0.259459,
    1.634876,
    -1.429261,
    -1.850001,
    0.303221,
    -1.044812,
    -0.322569,
    1.124416,
    1.096521,
    -0.829354,
    -0.588334,
    -0.321503,
    2.439315,
    0.903057,
    -0.317188,
    0.781970,
    0.038930,
    0.346340,
    1.693938,
    0.492503,
    -0.765369,
    -0.487637,
    -0.610606,
    -0.548619,
    1.673820,
    1.494567,
    -0.002596,
    0.503662,
    -1.372622,
    -0.601653,
    0.109032,
    0.132824,
    -1.162502,
    -0.031701,
    0.046071,
    -0.137568,
    -1.384646,
    0.692790,
    0.503899,
    0.739902,
    0.657132,
    0.253328,
    -0.591652,
    -0.535913,
    0.853309,
    1.171065,
    -1.667021,
    -0.517444,
    0.446509,
    -0.535990,
    -0.119407,
    1.394878,
    -1.634063,
    -1.985906,
    1.233889,
    0.346436,
    -1.693426,
    0.167951,
    0.552213,
    -0.146418,
    -0.717342,
    2.620413,
    -0.780415,
    -0.277200,
    -0.470029,
    -1.737966,
    -0.186598,
    0.310298,
    -0.267610,
    0.187758,
    0.776644,
    -0.423101,
    0.231356,
    0.592535,
    -0.980951,
    1.049728,
    -0.291577,
    0.604362,
    -0.907741,
    -1.065494,
    1.926431,
    0.406337,
    -0.325716,
    -0.941043,
    0.745276,
    0.329330,
    -1.636968,
    0.030188,
    1.397484,
    -2.034676,
    -0.280095,
    0.578459,
    -0.912963,
    -1.644816,
    1.872645,
    -0.551280,
    -1.415150,
    0.251848,
    -0.071100,
    0.318516,
    -1.364020,
    -0.863898,
    -0.914558,
    -1.632326,
    -0.284673,
    -1.532990,
    -0.296143,
    0.776548,
    -0.172763,
    -1.260376,
    0.650378,
    -1.290801,
    0.055448,
    0.291184,
    -0.909390,
    2.373624,
    1.218025,
    0.404092,
    0.099880,
    0.313864,
    -0.133123,
    0.025071,
    1.741372,
    -2.167963,
    -0.323622,
    0.557621,
    -1.064610,
    -1.576523,
    0.328204,
    -1.200484,
    -0.921486,
    1.964846,
    0.606260,
    0.282096,
    -0.367393,
    -1.412256,
    -1.580914,
    0.062022,
    -1.524505,
    0.457136,
    -0.202412,
    -0.061432,
    -0.735290,
    -1.189883,
    1.254117,
    0.834321,
    -0.674405,
    -0.764706,
    -0.419142,
    -0.019894,
    -0.336664,
    -0.161384,
    -0.304549,
    -1.499304,
    -0.513901,
    -0.274150,
    1.777540,
    -2.136336,
    -1.004626,
    0.940758,
    -0.473103,
    0.978677,
    0.075166,
    -0.639208,
    -0.035158,
    -0.912806,
    0.941852,
    -0.492004,
    0.902771,
    -1.283169,
    0.533223,
    -0.823945,
    -0.995291,
    -0.718867,
    -1.121950,
    -2.280505,
    -2.094646,
    0.287391,
    -1.942516,
    1.347909,
    0.849640,
    0.933895,
    -0.640964,
    0.134660,
    -0.638449,
    0.765951,
    -0.519472,
    -1.603717,
    1.203194,
    0.576431,
    0.923370,
    1.550987,
    0.145695,
    0.984180,
    -1.835935,
    0.453492,
    -2.207362,
    -3.171272,
    -0.207363,
    -0.149034,
    -0.266005,
    0.806517,
    0.193930,
    -0.123315,
    2.042914,
    -0.220843,
    0.538419,
    0.247652,
    0.083298,
    -1.827567,
    -0.628958,
    0.353983,
    -0.283609,
    -0.270422,
    -1.266641,
    -0.126243,
    -1.253902,
    1.105284,
    0.139850,
    -0.474178,
    -0.338291,
    -0.155755,
    1.183635,
    0.750560,
    -0.286748,
    -1.729565,
    -2.198395,
    0.585956,
    1.817598,
    -0.122549,
    0.755496,
    1.707490,
    -0.125923,
    0.916211,
    -0.560136,
    0.054069,
    -0.875658,
    1.067714,
    -0.319263,
    -1.839749,
    1.120371,
    -0.376464,
    -0.035529,
    0.442810,
    0.329520,
    0.397065,
    -0.063805,
    0.987122,
    1.010079,
    1.782405,
    -0.835949,
    0.107715,
    -0.960592,
    -2.398077,
    -0.192250,
    1.260189,
    -1.306178,
    -0.771700,
    -0.372755,
    1.378458,
    0.747696,
    -0.736772,
    1.499929,
    1.387412,
    -0.291678,
    0.222572,
    0.425306,
    -0.968958,
    -0.593701,
    0.372042,
    -0.994855,
    -0.126857,
    -0.894191,
    -1.729113,
    -0.942962,
    -1.566702,
    0.037271,
    0.405629,
    -1.291060,
    -0.190877,
    -0.572263,
    0.254616,
    -0.453147,
    -0.581338,
    1.659594,
    0.409583,
    -0.730662,
    -0.325494,
    0.451405,
    -1.821250,
    -0.403196,
    -0.105009,
    0.560793,
    0.724051,
    0.819747,
    -1.169251,
    -0.066238,
    0.569626,
    -0.354717,
    0.836337,
    -1.229946,
    0.568879,
    0.526156,
    0.747111,
    1.046268,
    0.554894,
    -0.203166,
    -1.197513,
    -0.373907,
    -1.056568,
    0.348799,
    0.330532,
    1.742776,
    -1.207240,
    -0.836806,
    0.396917,
    -1.590939,
    0.473999,
    2.594211,
    0.037046,
    1.016250,
    -1.095576,
    0.510313,
    1.021650,
    1.042199,
    0.008813,
    1.047355,
    -0.442853,
    0.730378,
    1.305787,
    0.262278,
    2.046007,
    -0.977324,
    -0.164210,
    -0.652281,
    -0.746053,
    -0.694602,
    1.115153,
    0.745720,
    -0.339089,
    0.333437,
    -0.813681,
    0.265218,
    0.796193,
    -0.069213,
    -0.198454,
    0.345828,
    -0.314766,
    0.260590,
    1.022824,
    -2.012599,
    0.165913,
    0.294817,
    0.060457,
    -0.325107,
    0.329338,
    -1.977947,
    0.196551,
    0.113792,
    0.177221,
    0.588786,
    1.561682,
    0.968907,
    -0.315080,
    -2.413146,
    1.168123,
    1.859882,
    -0.705361,
    -1.508977,
    0.581519,
    0.532225,
    0.462466,
    -0.512385,
    -0.997260,
    0.392595,
    -1.302930,
    0.768629,
    -1.714271,
    0.333297,
    0.574295,
    -1.033978,
    0.137204,
    0.725664,
    -0.279588,
    -0.966940,
    0.356531,
    0.659009,
    -0.811107,
    0.686904,
    0.552437,
    -0.452133,
    -0.624165,
    -0.476454,
    -0.080238,
    0.066466,
    -0.673321,
    -0.576724,
    0.254858,
    -0.986461,
    1.159554,
    2.121733,
    -0.985986,
    -0.815553,
    -1.547389,
    -0.915994,
    -1.993818,
    -0.560280,
    -1.705707,
    0.801605,
    -0.736204,
    -0.229995,
    -0.526901,
    -1.008328,
    0.887554,
    -0.720246,
    -1.749079,
    0.027603,
    0.867869,
    0.631624,
    0.139403,
    -1.468533,
    -0.276852,
    1.091957,
    -0.648292,
    -1.583926,
    -0.570409,
    1.228863,
    1.290339,
    0.401226,
    1.747514,
    0.178172,
    0.553591,
    0.763034,
    -1.036821,
    1.810913,
    -0.376418,
    0.127423,
    1.303838,
    -1.529701,
    1.400195,
    0.286296,
    -0.032308,
    -1.998798,
    2.363059,
    -1.668390,
    0.420771,
    -0.988083,
    1.176975,
    -2.430921,
    0.202580,
    -0.748238,
    -1.647755,
    0.392037,
    0.458586,
    -1.608525,
    2.037243,
    -0.546627,
    0.077160,
    0.037889,
    1.435591,
    0.102175,
    1.706401,
    0.803207,
    1.285835,
    0.434565,
    -0.250310,
    0.730861,
    0.671972,
    1.291296,
    2.240940,
    0.270086,
    0.936357,
    0.275488,
    0.800474,
    -2.068311,
    1.385125,
    -0.009370,
    -2.808623,
    0.291369,
    0.657813,
    0.291591,
    -0.627672,
    -0.600558,
    -0.445996,
    1.368605,
    0.317693,
    -0.796468,
    -0.979870,
    -0.223600,
    -0.703813,
    0.523326,
    -0.819519,
    -0.648592,
    0.994554,
    1.024493,
    -1.769896,
    0.593984,
    -0.387106,
    1.635833,
    0.193392,
    -0.670235,
    -1.213178,
    0.592959,
    0.628201,
    -1.371678,
    -1.778592,
    0.206972,
    -0.428006,
    -0.434266,
    1.746343,
    1.055156,
    2.386691,
    -0.566335,
    2.365298,
    0.128881,
    0.518640,
    1.164175,
    -0.166476,
    -1.004788,
    1.972852,
    0.244048,
    -0.091695,
    0.782797,
    -1.773486,
    1.049657,
    0.418638,
    0.452837,
    -1.181795,
    -0.649973,
    0.283427,
    1.097995,
    2.164176,
    1.115981,
    -0.828793,
    0.646256,
    -0.505812,
    0.446019,
    0.570316,
    -1.576717,
    1.022039,
    0.330383,
    2.163802,
    0.410421,
    -0.677382,
    -1.943508,
    0.319183,
    0.260413,
    -0.082730,
    0.868626,
    -1.672728,
    0.482976,
    -0.887426,
    0.438827,
    -0.965863,
    -1.025891,
    -0.184070,
    0.767644,
    -0.179385,
    0.119480,
    0.140073,
    -0.451912,
    -0.012499,
    0.528210,
    -1.063343,
    -0.991019,
    0.399446,
    -0.614178,
    -0.807196,
    1.379517,
    -1.002874,
    1.234098,
    0.633957,
    -0.641495,
    -1.391591,
    -0.435016,
    -0.922282,
    -1.070339,
    -2.345500,
    0.567565,
    -1.129635,
    -0.200934,
    0.127884,
    -1.207090,
    -0.427730,
    -0.443722,
    -1.669005,
    -1.084860,
    0.694479,
    0.083925,
    1.192311,
    -1.047908,
    -0.324407,
    1.604523,
    2.277414,
    0.650582,
    0.110024,
    1.160230,
    -0.172163,
    -1.461317,
    -0.566549,
    0.779240,
    -0.883082,
    1.835014,
    1.202470,
    0.734686,
    -2.969112,
    -2.028664,
    -1.924202,
    -1.145806,
    -1.039234,
    0.188265,
    0.872906,
    -0.519837,
    0.784382,
    -1.114563,
    0.712838,
    -0.069678,
    -0.810304,
    -1.962855,
    -0.332520,
    0.622378,
    0.709419,
    -1.303052,
    2.867876,
    -0.882579,
    -0.305002,
    0.472842,
    0.394254,
    0.239453,
    -1.632503,
    -0.057116,
    -0.625185,
    0.074382,
    2.302839,
    0.689376,
    0.297122,
    1.704690,
    -1.107533,
    0.609436,
    0.905804,
    1.558203,
    0.655263,
    -0.701145,
    -2.008023,
    0.348582,
    2.001465,
    0.423779,
    -0.213588,
    1.780570,
    1.163181,
    -0.115214,
    -0.988381,
    0.862567,
    -1.299348,
    -0.287357,
    -2.631388,
    -1.029404,
    0.648957,
    -0.450108,
    -0.931584,
    0.168993,
    2.525118,
    0.338269,
    1.238536,
    -0.674122,
    -0.345303,
    0.545572,
    -0.519941,
    -1.051699,
    0.992180,
    0.611473,
    -0.510324,
    0.711635,
    0.726992,
    -1.145136,
    -0.522388,
    -0.025640,
    -0.211510,
    -2.508782,
    -1.743190,
    1.559166,
    -2.975944,
    -2.380809,
    -0.397507,
    0.959149,
    -1.425212,
    2.009404,
    2.425498,
    1.035873,
    1.497409,
    0.850606,
    -0.038290,
    0.906501,
    1.191293,
    -0.164270,
    -0.070664,
    -0.714255,
    0.102389,
    -0.214498,
    0.488476,
    0.223034,
    0.471676,
    -2.155622,
    1.476636,
    0.047824,
    -0.525060,
    1.141933,
    0.779374,
    0.356106,
    0.032923,
    -0.176341,
    0.587251,
    1.012767,
    0.200949,
    0.544567,
    0.564858,
    1.829106,
    1.389989,
    1.823481,
    -1.741215,
    0.941875,
    0.385637,
    -1.505455,
    1.252181,
    -0.954967,
    -0.063933,
    0.615007,
    -1.173101,
    -0.212907,
    -0.020792,
    -0.503389,
    1.974177,
    1.389278,
    -2.109473,
    -1.164087,
    -0.583151,
    -0.355441,
    1.286981,
    0.232236,
    0.908153,
    0.853841,
    -0.008702,
    -0.275637,
    0.933823,
    1.118695,
    -0.060266,
    0.906953,
    -0.287451,
    -0.117512,
    0.132088,
    1.887807,
    -0.226987,
    -1.778585,
    0.318056,
    1.114144,
    -0.372785,
    -0.627537,
    -0.542050,
    0.128101,
    -0.134869,
    0.031688,
    -0.005329,
    0.799521,
    -0.060504,
    1.299337,
    -1.356045,
    -0.053817,
    -1.149970,
    0.561627,
    -0.358497,
    1.292225,
    0.223609,
    2.127439,
    0.989361,
    -0.185642,
    0.311919,
    0.534063,
    -2.793395,
    -0.788815,
    0.483671,
    0.620601,
    0.772687,
    -0.147029,
    -0.055621,
    -0.006568,
    0.722362,
    0.495618,
    0.748702,
    -0.992492,
    -0.351581,
    0.581574,
    0.368994,
    -0.142908,
    -0.312042,
    -0.730171,
    1.005192,
    0.261388,
    1.617337,
    1.988139,
    0.757594,
    0.276771,
    -0.197124,
    -0.214302,
    1.300554,
    0.249213,
    0.799605,
    0.114617,
    -1.491377,
    0.729299,
    -0.593346,
    0.885662,
    -0.132382,
    -0.234044,
    0.164810,
    -1.552126,
    -0.884523,
    1.755507,
    -0.850868,
    0.234068,
    -0.609231,
    0.404291,
    2.330999,
    0.598920,
    1.997270,
    1.818546,
    -0.484752,
    2.174473,
    1.466198,
    1.218431,
    -1.601703,
    0.253687,
    0.311460,
    0.836382,
    0.205756,
    2.486116,
    2.596983,
    -1.066472,
    0.389878,
    -0.999034,
    0.431389,
    -0.576302,
    0.829001,
    0.347131,
    -0.006776,
    -0.530098,
    -1.625017,
    -1.032481,
    -1.193992,
    -0.153468,
    0.506655,
    -0.932503,
    1.206274,
    1.014523,
    -0.274656,
    0.755741,
    -0.954533,
    -0.939563,
    0.022029,
    -0.159882,
    -1.187716,
    2.695836,
    1.430915,
    -0.323449,
    -0.394825,
    0.676411,
    -0.545993,
    -0.106601,
    1.275078,
    -0.276073,
    -0.118834,
    -0.079459,
    -1.631599,
    1.430373,
    -0.301659,
    1.956525,
    0.552235,
    -0.948194,
    -0.683645,
    -0.156590,
    -2.316108,
    1.017779,
    0.631808,
    1.605164,
    0.985333,
    -1.282073,
    0.816643,
    0.133002,
    0.065187,
    0.962774,
    -0.261611,
    0.708093,
    -1.252942,
    1.680990,
    -1.602155,
    -0.415179,
    -0.337251,
    -0.523396,
    0.204076,
    0.016118,
    0.415708,
    1.027968,
    0.280618,
    0.012994,
    -1.351189,
    0.190168,
    0.315787,
    0.354445,
    -0.744033,
    0.918100,
    -0.108091,
    -0.626234,
    0.517250,
    0.179137,
    -0.014279,
    0.295151,
    0.243521,
    -1.764596,
    0.433916,
    -0.687196,
    1.077820,
    0.940320,
    0.045505,
    -1.708379,
    0.357553,
    -1.129224,
    -1.377462,
    0.413541,
    -0.653601,
    0.048300,
    -1.143687,
    -0.194548,
    0.958623,
    -0.079989,
    -0.359820,
    -1.413601,
    2.038897,
    -0.436467,
    -0.757183,
    -1.434958,
    2.420235,
    -0.278683,
    -0.126709,
    -0.714227,
    -1.399460,
    1.489192,
    -0.860557,
    0.317341,
    -0.258919,
    -1.068110,
    1.284139,
    0.130221,
    -0.791663,
    -1.028396,
    -0.452789,
    -0.015806,
    0.881994,
    0.540891,
    -1.429809,
    -0.303857,
    0.173900,
    -3.619491,
    1.104356,
    -0.866720,
    -0.587621,
    0.145503,
    0.817441,
    0.003959,
    -0.153822,
    0.235199,
    0.657584,
    -0.654378,
    1.762057,
    0.393607,
    1.887400,
    0.186150,
    1.476825,
    -0.198873,
    0.493935,
    -0.724618,
    -0.899988,
    -0.548032,
    0.432995,
    -0.953657,
    -0.042957,
    0.434485,
    0.630059,
    0.436641,
    -0.024675,
    0.600259,
    -0.221378,
    0.336986,
    -1.794190,
    -0.213732,
    -1.867919,
    -0.008654,
    1.154839,
    0.046116,
    -0.429882,
    1.114817,
    0.811320,
    -0.577681,
    1.450292,
    1.300183,
    -1.022258,
    -1.334949,
    0.688313,
    -2.036635,
    0.244824,
    -0.212334,
    -2.037049,
    -0.450606,
    -0.107462,
    -0.080675,
    -0.597568,
    -1.676449,
    1.164626,
    -1.228680,
    0.696084,
    -0.278490,
    0.516748,
    0.483450,
    0.410085,
    -0.394450,
    0.190177,
    -0.909338,
    0.645243,
    1.024276,
    -0.404725,
    1.077322,
    0.610021,
    -1.410432,
    0.724978,
    -0.157895,
    -1.458890,
    -1.047768,
    0.216038,
    0.932731,
    -1.542736,
    0.855235,
    0.346506,
    1.567927,
    -0.090637,
    0.627665,
    0.326047,
    0.337862,
    -0.190958,
    0.782953,
    0.954521,
    1.899986,
    1.105093,
    -0.329884,
    0.484260,
    -0.992184,
    -1.218364,
    1.214759,
    -0.706400,
    -0.930401,
    0.598153,
    -1.056886,
    0.618629,
    -0.434394,
    0.958316,
    0.990635,
    0.059113,
    0.968006,
    -1.221934,
    0.641642,
    -1.186687,
    -2.454131,
    -0.271312,
    0.460633,
    -0.049136,
    -0.384070,
    -0.033040,
    0.073899,
    -0.581974,
    0.221722,
    -0.231844,
    0.058800,
    0.682950,
    -0.505331,
    0.003970,
    -1.308796,
    0.477574,
    -0.645838,
    0.808720,
    2.420634,
    -1.193465,
    -0.984794,
    0.137731,
    0.383020,
    0.616390,
    0.548733,
    0.551115,
    0.651488,
    -0.562897,
    0.808103,
    -0.219082,
    0.935802,
    -0.184094,
    1.210830,
    0.437252,
    0.256333,
    1.068678,
    0.041947,
    -0.874817,
    -0.648188,
    0.994820,
    -0.093027,
    0.334501,
    2.069950,
    -1.551171,
    0.398462,
    0.176028,
    -0.501827,
    -0.600990,
    1.327169,
    -0.631781,
    -0.599957,
    0.149505,
    -0.180151,
    -0.059944,
    -0.453167,
    -0.050489,
    1.695135,
    0.216448,
    0.750265,
    1.850796,
    0.368040,
    0.666794,
    -1.127667,
    0.057761,
    0.276876,
    0.109101,
    0.794277,
    -0.522059,
    0.680556,
    -0.736223,
    0.670573,
    1.039971,
    -1.290321,
    0.615566,
    -0.714624,
    -0.857543,
    -0.344568,
    -0.101507,
    0.228528,
    -0.649726,
    0.327918,
    -0.049823,
    -0.781390,
    0.065173,
    0.780649,
    1.101416,
    0.768932,
    -1.043489,
    0.417546,
    0.534301,
    -0.289228,
    0.021362,
    0.494092,
    -0.507390,
    -0.640555,
    0.364995,
    -2.149181,
    -0.657236,
    1.066846,
    -0.137505,
    -0.243131,
    0.392040,
    -0.027771,
    0.019918,
    0.861634,
    1.454234,
    1.550562,
    -0.321006,
    0.579865,
    -0.357225,
    -0.211888,
    -0.524733,
    -0.580770,
    -0.684710,
    -0.578334,
    -0.056691,
    -0.123711,
    0.539247,
    0.528116,
    -0.142903,
    0.047634,
    -0.515081,
    0.103577,
    2.516105,
    -0.803045,
    1.391050,
    1.775316,
    0.762297,
    -0.311095,
    -0.052231,
    -0.744880,
    -1.802719,
    -0.947927,
    -0.366367,
    -0.235020,
    0.989676,
    -0.165975,
    0.144277,
    0.382633,
    0.132634,
    -0.180122,
    0.222976,
    0.107062,
    1.502855,
    -0.902167,
    -0.714303,
    0.242520,
    1.210994,
    0.683878,
    0.002435,
    -1.276430,
    -0.312830,
    1.136880,
    -0.521760,
    -0.775451,
    0.636004,
    0.781236,
    0.575681,
    0.889472,
    0.453618,
    -2.376094,
    -1.791698,
    1.065812,
    -0.646927,
    0.267493,
    0.418463,
    0.687902,
    0.719236,
    1.379067,
    -0.989919,
    0.209158,
    -1.300101,
    -0.295384,
    -0.779373,
    0.071865,
    -0.607388,
    0.593227,
    0.961598,
    -0.167457,
    0.698637,
    -1.166047,
    0.063626,
    2.200178,
    -0.347410,
    -0.228626,
    -0.333369,
    -2.102451,
    1.099419,
    0.589751,
    -0.752591,
    -0.032760,
    -0.839403,
    -0.997865,
    -1.673406,
    1.679840,
    -0.381842,
    1.642563,
    0.980072,
    0.401575,
    0.778837,
    1.436473,
    0.191700,
    0.621490,
    1.172647,
    1.401345,
    1.343193,
    0.630865,
    -1.361999,
    -1.637941,
    -0.023263,
    -3.062337,
    0.787447,
    -0.481491,
    -1.366177,
    -0.814718,
    -1.624190,
    0.272657,
    -0.084343,
    -0.174230,
    1.284963,
    -0.524836,
    -0.626236,
    -0.023214,
    0.266832,
    1.079377,
    0.853412,
    -1.394532,
    0.716268,
    -0.448895,
    -1.102762,
    -0.758640,
    -0.329396,
    1.079420,
    0.303667,
    -0.148969,
    -0.698138,
    0.083433,
    0.705298,
    -1.050285,
    0.854594,
    0.019506,
    -0.588535,
    0.055714,
    0.235611,
    2.521517,
    1.357356,
    -1.937320,
    0.572566,
    0.799852,
    -0.857697,
    0.745039,
    1.029591,
    2.014125,
    -2.585291,
    -0.627834,
    0.104577,
    0.361173,
    -0.476871,
    -0.023532,
    0.269008,
    0.913177,
    1.104360,
    -0.375920,
    1.367239,
    1.533595,
    0.780603,
    -1.527418,
    -0.505663,
    -0.019876,
    -1.188064,
    -0.940212,
    2.172596,
    -0.833640,
    0.569233,
    -1.606952,
    -0.987000,
    0.226057,
    0.472154,
    -2.061050,
    0.961569,
    0.985865,
    -0.376456,
    -1.884411,
    1.014113,
    0.208280,
    -1.987340,
    -2.887443,
    -0.370371,
    -0.098659,
    -0.750936,
    1.023747,
    -3.531291,
    0.864808,
    -1.009645,
    -2.560357,
    1.793938,
    -1.000795,
    -1.344620,
    -0.710844,
    0.372560,
    -0.339565,
    0.682689,
    0.070791,
    -0.035931,
    -2.292583,
    0.225613,
    -1.343103,
    -0.304267,
    -0.086290,
    -0.416986,
    -1.534972,
    -0.434034,
    -0.599626,
    0.190824,
    0.463189,
    -1.083892,
    -0.916565,
    -0.404981,
    0.282018,
    0.172130,
    -0.339662,
    0.496623,
    0.280272,
    -0.806906,
    1.052676,
    -0.901834,
    0.199186,
    1.335498,
    1.241198,
    -0.061943,
    -2.072541,
    -0.080302,
    0.454072,
    1.521638,
    0.061545,
    -1.681957,
    -0.817208,
    0.943125,
    -0.199557,
    -0.306815,
    -0.227100,
    -0.274085,
    0.696797,
    0.743890,
    0.411165,
    0.196002,
    -0.691289,
    -1.198228,
    -0.971351,
    -1.096884,
    -1.045577,
    0.071135,
    0.325120,
    -0.178230,
    0.971035,
    -0.222173,
    -0.951160,
    -0.968251,
    -0.037351,
    0.013943,
    1.626186,
    1.055018,
    0.530343,
    1.082537,
    1.124280,
    -1.220597,
    0.292210,
    1.012824,
    -0.100995,
    0.524184,
    0.326914,
    0.945772,
    0.439804,
    1.570838,
    0.017780,
    0.069466,
    0.098636,
    -0.186959,
    -0.382958,
    1.201405,
    -1.561064,
    -1.677862,
    1.641338,
    1.446867,
    -1.690248,
    -0.235020,
    -0.279853,
    1.917649,
    -0.498956,
    0.050961,
    -0.789020,
    -0.715270,
    0.954004,
    0.357723,
    0.018632,
    -0.288335,
    -0.093763,
    0.835257,
    0.127720,
    1.831433,
    3.493896,
    1.759674,
    0.471015,
    -0.691132,
    1.012434,
    0.467409,
    0.362900,
    -0.654071,
    -0.052968,
    -0.454544,
    0.693416,
    -1.371198,
    -2.085786,
    0.339645,
    -0.183731,
    1.555732,
    1.800012,
    -0.857926,
    0.989439,
    -1.075693,
    0.848318,
    -0.722626,
    0.866328,
    -0.161958,
    0.050345,
    -0.536060,
    1.331485,
    1.596587,
    2.174167,
    -0.028980,
    0.699126,
    -0.851894,
    0.472982,
    0.057882,
    0.484832,
    1.053201,
    2.079800,
    -1.691797,
    -2.607301,
    0.213342,
    0.125182,
    -0.184476,
    0.575653,
    0.033556,
    0.502528,
    -2.479359,
    -0.345316,
    -0.002858,
    1.459148,
    1.384570,
    0.231656,
    1.615074,
    0.387485,
    2.143404,
    0.823721,
    0.451119,
    -0.130844,
    1.181040,
    0.304976,
    -0.074840,
    0.209367,
    2.026606,
    0.348722,
    0.267605,
    -0.020216,
    -0.263039,
    0.017826,
    0.670220,
    2.790534,
    -0.331376,
    0.968654,
    -0.840062,
    -1.101359,
    0.847290,
    -1.389382,
    -1.402687,
    1.896565,
    0.331091,
    0.575984,
    1.980728,
    -0.413742,
    1.850336,
    1.414004,
    0.109925,
    1.606288,
    -0.359165,
    0.638330,
    0.361087,
    -0.063126,
    0.350026,
    0.431524,
    -0.174947,
    -0.775712,
    -1.012872,
    0.197318,
    0.411947,
    -0.962011,
    0.068783,
    1.404840,
    -0.792212,
    0.266561,
    1.334964,
    1.075032,
    1.363527,
    -0.079200,
    -1.001762,
    0.344609,
    0.568405,
    0.838507,
    0.381723,
    1.167804,
    -0.012979,
    -0.199360,
    -0.359786,
    0.014689,
    -2.316381,
    0.969229,
    -0.535608,
    -0.538637,
    0.282749,
    0.440480,
    0.080985,
    0.253961,
    -1.038746,
    -1.017183,
    0.365542,
    -1.601353,
    -1.372598,
    0.055018,
    -1.231885,
    -0.049064,
    -0.294522,
    -0.383399,
    -0.259323,
    -0.886917,
    1.045528,
    -0.113122,
    0.537146,
    1.868034,
    -1.521858,
    0.651784,
    -0.725938,
    0.312904,
    -0.100014,
    -1.406692,
    0.898900,
    1.027658,
    -0.728876,
    -0.803386,
    -1.354518,
    1.736926,
    0.666818,
    -0.230246,
    0.353630,
    -0.028538,
    -0.293953,
    0.067421,
    1.288162,
    -0.685901,
    -1.610178,
    1.231739,
    0.271197,
    0.147986,
    0.347648,
    1.224127,
    0.125297,
    1.409352,
    0.194680,
    0.510595,
    -0.259712,
    0.566609,
    0.461830,
    0.700408,
    -1.216454,
    1.169881,
    -0.051668,
    1.654342,
    -0.566462,
    -1.480034,
    -0.005418,
    0.694228,
    0.305496,
    -0.238906,
    -0.912694,
    0.552132,
    1.499597,
    -0.364339,
    1.039708,
    -1.007787,
    0.136520,
    -0.910956,
    1.618831,
    1.571545,
    1.568297,
    -0.920340,
    -1.088266,
    -1.148870,
    -0.302067,
    -1.788843,
    -1.390460,
    1.111060,
    -0.641408,
    -0.784238,
    0.803156,
    -0.939461,
    -0.560116,
    -0.072463,
    0.517044,
    -0.737814,
    -1.923473,
    -1.293356,
    -0.013051,
    0.281730,
    -1.226317,
    1.404360,
    -0.927401,
    1.316917,
    -1.067838,
    -0.854039,
    -0.998436,
    -0.561184,
    0.288893,
    -1.600305,
    -0.574531,
    -0.305876,
    0.719724,
    0.222818,
    0.559221,
    -0.878977,
    0.441183,
    1.156628,
    -0.527268,
    -0.266192,
    0.743636,
    -0.216227,
    0.095721,
    1.282364,
    -1.256864,
    0.196038,
    0.587679,
    -0.079869,
    0.753982,
    0.877419,
    -0.866542,
    -0.032735,
    0.010297,
    -0.662037,
    0.075812,
    -1.590303,
    0.992878,
    -1.132874,
    -1.028365,
    0.733550,
    -1.216685,
    -0.393751,
    0.302344,
    1.064188,
    0.721448,
    1.749211,
    0.337357,
    0.048764,
    -0.649253,
    0.072059,
    0.963158,
    0.159630,
    1.655093,
    0.919633,
    -0.780188,
    1.160011,
    -0.394459,
    1.572271,
    1.299896,
    0.760166,
    -1.406756,
    1.099548,
    -2.781965,
    0.860441,
    1.354946,
    1.063161,
    -1.376969,
    0.529297,
    0.257350,
    -0.179678,
    -1.542076,
    0.319847,
    -1.044707,
    0.647392,
    0.337728,
    -0.010365,
    -0.244871,
    -0.455267,
    0.610824,
    0.467105,
    0.552859,
    -0.918088,
    0.321644,
    -0.583059,
    -1.744103,
    0.629652,
    -0.211290,
    1.939119,
    0.662931,
    -1.199148,
    -0.792168,
    -0.994497,
    0.116377,
    0.127395,
    -1.030450,
    -0.577130,
    -0.786127,
    -0.749732,
    -0.815389,
    0.130181,
    0.021812,
    0.514750,
    -1.102261,
    0.730630,
    1.505887,
    0.581885,
    0.523326,
    0.021155,
    0.435065,
    0.151226,
    -0.541137,
    -0.100886,
    -1.107351,
    0.275073,
    0.643572,
    -1.666317,
    -0.402607,
    0.114012,
    0.736890,
    -0.149517,
    0.481477,
    -0.600723,
    0.172281,
    1.256529,
    -0.230972,
    0.577806,
    -0.142795,
    0.612590,
    0.070479,
    -0.342244,
    -0.071169,
    1.196429,
    -0.285441,
    0.463707,
    -0.527302,
    -0.528501,
    0.808661,
    0.317821,
    -1.403558,
    0.190377,
    -0.222014,
    -1.296941,
    0.532435,
    0.858795,
    -1.425733,
    0.161135,
    1.932138,
    -1.042614,
    -0.011889,
    0.961629,
    1.017822,
    -2.791396,
    -0.204331,
    0.376687,
    -0.573141,
    -0.539956,
    0.627921,
    0.728528,
    0.151489,
    -0.550581,
    0.078337,
    -0.666049,
    -1.287936,
    1.030656,
    -0.742536,
    -1.297776,
    2.060310,
    0.784901,
    -0.175479,
    -0.103434,
    -0.032644,
    -0.429130,
    0.840141,
    -0.009861,
    0.560633,
    -0.451553,
    -0.310012,
    0.014902,
    -1.404676,
    0.042015,
    -0.604100,
    -1.569043,
    -0.255468,
    1.098887,
    -0.075727,
    2.453439,
    -0.248351,
    0.015288,
    1.009323,
    0.497612,
    0.644248,
    2.122538,
    -0.244460,
    -1.027376,
    0.391346,
    -1.076092,
    -0.183554,
    0.628057,
    0.578471,
    0.568624,
    -1.291291,
    1.466786,
    0.099334,
    1.234898,
    -0.339228,
    -0.422857,
    -1.469638,
    0.206350,
    -0.528231,
    -0.042523,
    -1.038663,
    1.098653,
    -1.315726,
    -0.219446,
    -0.829706,
    -0.430844,
    0.461239,
    -0.186849,
    -1.132543,
    -0.866003,
    -0.817882,
    1.253411,
    1.152848,
    0.141017,
    1.571321,
    0.373181,
    -0.496271,
    0.406877,
    -0.426982,
    -0.474677,
    1.121494,
    0.104165,
    -0.489092,
    0.408883,
    0.161117,
    -0.565660,
    -1.962642,
    0.037691,
    -0.499025,
    -1.004755,
    -0.167475,
    -0.166279,
    0.606614,
    -0.989626,
    0.659973,
    0.502558,
    0.493396,
    -0.739518,
    0.203593,
    0.571595,
    1.168327,
    -0.774163,
    -0.148786,
    0.331472,
    -0.901280,
    -0.801758,
    -0.582737,
    1.710297,
    -0.003051,
    2.614280,
    1.224820,
    -0.369689,
    -0.943186,
    1.536422,
    -1.087496,
    -2.072460,
    1.010261,
    0.968906,
    -0.207149,
    0.890748,
    -2.299015,
    -0.976629,
    -0.394267,
    -0.862083,
    -0.806527,
    -0.500650,
    -0.969239,
    -0.638030,
    0.045064,
    0.042485,
    -0.089522,
    -0.567991,
    0.351691,
    -0.142593,
    -0.338120,
    0.294432,
    -1.570007,
    0.379017,
    1.318381,
    0.956545,
    -0.528410,
    0.124869,
    1.332409,
    0.640837,
    -0.408311,
    1.268276,
    0.751297,
    -0.728985,
    -1.217352,
    0.387686,
    0.470209,
    -0.857277,
    -0.616364,
    -0.031439,
    -0.382801,
    0.568422,
    0.184401,
    1.597315,
    1.511777,
    -0.849325,
    1.346774,
    -1.252613,
    -0.927756,
    1.334330,
    1.247979,
    1.052394,
    0.924664,
    1.380852,
    1.137615,
    0.269267,
    2.378845,
    -0.108859,
    0.197527,
    -0.390911,
    2.050688,
    2.127981,
    -0.860524,
    0.373783,
    1.562435,
    -1.264569,
    0.017788,
    -1.787832,
    1.254231,
    -0.526859,
    -0.060664,
    -0.523883,
    -0.027270,
    1.226943,
    -0.463265,
    0.736790,
    -0.655859,
    -1.423605,
    0.826708,
    -1.023706,
    0.589832,
    1.348957,
    0.485213,
    -0.122725,
    0.832576,
    0.187042,
    -0.250899,
    1.565208,
    -1.161575,
    1.253366,
    0.259136,
    -0.549787,
    -0.168152,
    -0.135525,
    0.618436,
    -0.273634,
    1.042512,
    1.065772,
    -0.115620,
    -2.370329,
    0.548990,
    0.039142,
    0.178872,
    0.673634,
    -0.837851,
    0.270701,
    -1.427948,
    2.386789,
    0.004906,
    1.181697,
    -0.721058,
    1.090167,
    2.386416,
    -0.494186,
    0.863020,
    -0.869269,
    -0.235912,
    -1.418903,
    -0.670718,
    -2.197416,
    -1.176214,
    -0.835425,
    -0.212614,
    -1.763556,
    0.566674,
    -0.707623,
    -1.718770,
    -1.164222,
    0.309783,
    -0.446692,
    -0.803063,
    0.152885,
    -0.160345,
    1.079024,
    0.243965,
    0.094684,
    -0.315467,
    -0.829680,
    -1.318848,
    0.570669,
    -0.198394,
    1.765814,
    1.234524,
    -1.485405,
    -0.308655,
    -0.507404,
    0.682774,
    0.341508,
    0.095551,
    -0.363025,
    -0.224696,
    -0.251100,
    0.405197,
    -0.365587,
    0.783145,
    -0.912282,
    0.853150,
    0.241140,
    -0.868543,
    1.205032,
    1.446603,
    0.209502,
    -0.211061,
    1.442711,
    1.242881,
    -0.476766,
    0.852904,
    -0.671872,
    -1.273046,
    0.962474,
    -1.903304,
    -0.153555,
    0.584201,
    0.164078,
    0.435861,
    -2.186744,
    -0.214255,
    -1.228195,
    1.426599,
    -0.240622,
    0.287848,
    -0.415603,
    -0.341920,
    -0.727464,
    -0.121744,
    0.748891,
    0.143229,
    0.003830,
    -0.136743,
    -0.859071,
    0.048832,
    -0.023603,
    -0.374033,
    -0.093638,
    -1.135586,
    0.926761,
    -0.799488,
    0.931633,
    1.194109,
    0.941862,
    0.201524,
    1.685899,
    0.942854,
    0.316557,
    -0.502905,
    -0.355814,
    0.259245,
    0.533214,
    -0.352872,
    0.548252,
    -0.512561,
    0.371999,
    0.971804,
    0.226218,
    -0.623802,
    -0.738402,
    0.940519,
    0.432366,
    -0.242860,
    0.076028,
    0.291376,
    -0.798860,
    -2.024330,
    0.535591,
    0.658712,
    -0.154392,
    -1.619740,
    1.272825,
    -0.667393,
    0.032325,
    2.035499,
    -0.388988,
    0.598022,
    -0.870874,
    -0.406083,
    -1.411961,
    0.177394,
    -1.176272,
    0.143935,
    0.388669,
    1.149310,
    0.058427,
    1.092352,
    0.100822,
    -1.236255,
    -1.349515,
    -0.288989,
    -0.546264,
    -1.181381,
    -0.867585,
    -1.641182,
    -0.818670,
    0.074115,
    -0.362542,
    3.167639,
    0.737277,
    -0.714355,
    -0.504826,
    0.787267,
    0.706729,
    1.218452,
    1.133033,
    -1.337500,
    1.180329,
    -0.598357,
    0.411443,
    0.017756,
    1.084298,
    0.355264,
    0.469893,
    1.228799,
    1.271049,
    0.243998,
    0.403304,
    0.571179,
    1.053217,
    -1.679202,
    -0.441773,
    -0.366614,
    -0.881077,
    0.985575,
    2.028881,
    1.479560,
    -0.379726,
    -0.056252,
    1.452998,
    0.920069,
    -0.786725,
    0.178224,
    0.787266,
    0.635547,
    0.672238,
    1.466487,
    1.242128,
    0.743620,
    -0.401765,
    0.717527,
    1.653656,
    -0.322156,
    2.675058,
    0.101882,
    -1.561744,
    -0.070965,
    -1.204561,
    0.872141,
    -1.667388,
    0.054124,
    0.042733,
    0.169444,
    -0.498938,
    0.097488,
    1.832283,
    0.544939,
    0.905540,
    0.066258,
    0.899836,
    -1.027835,
    -0.006224,
    1.190095,
    0.903233,
    1.151332,
    -1.037694,
    -0.956938,
    0.619832,
    -0.242044,
    1.955155,
    0.610548,
    -1.264209,
    -0.343494,
    -1.109479,
    -0.345326,
    -0.607152,
    -1.460301,
    -2.496415,
    -1.594889,
    0.788710,
    1.185957,
    1.265829,
    0.987147,
    0.628964,
    -0.403500,
    -1.189772,
    -1.188280,
    -0.062669,
    0.146189,
    -0.155258,
    0.317696,
    -0.388314,
    0.604770,
    -1.578714,
    1.025944,
    -0.132805,
    1.570884,
    -0.576917,
    0.520461,
    -1.672946,
    -1.481781,
    -0.907988,
    -1.394066,
    -1.309662,
    -0.379255,
    -0.617042,
    -0.314846,
    -2.211755,
    -0.041796,
    0.053126,
    0.361420,
    0.348891,
    0.797129,
    -0.659479,
    -0.164304,
    -0.451779,
    0.572964,
    -0.862996,
    0.900408,
    0.024815,
    -0.159585,
    -1.279288,
    1.227622,
    1.460092,
    0.478452,
    -0.572195,
    -1.297268,
    -1.922240,
    -2.201821,
    -2.425846,
    0.330074,
    -1.977728,
    -0.826686,
    0.334576,
    0.068660,
    -0.364866,
    0.977092,
    1.301293,
    0.743062,
    -0.942398,
    -0.011014,
    -1.224923,
    2.169977,
    -0.529449,
    -1.846106,
    0.414511,
    1.576129,
    0.257816,
    0.324562,
    0.961610,
    -1.050853,
    -1.113141,
    -0.290586,
    -1.177678,
    0.271018,
    1.307237,
    -0.503764,
    -0.884859,
    -0.414311,
    0.584567,
    -0.644462,
    -2.314951,
    -0.191325,
    0.825344,
    0.132049,
    -0.337717,
    -1.154050,
    0.376644,
    -1.409437,
    -0.062752,
    -0.933525,
    -1.130789,
    -0.841437,
    0.986550,
    0.559961,
    1.166762,
    -0.237419,
    0.599188,
    -0.369435,
    0.871220,
    1.126656,
    -1.333972,
    -1.219140,
    -0.407771,
    0.221134,
    -0.548007,
    -1.334780,
    -2.135562,
    -0.182986,
    1.556664,
    -0.094447,
    1.629222,
    0.975742,
    -0.807272,
    0.456294,
    -0.016942,
    0.252878,
    1.283695,
    -0.445093,
    0.211614,
    -0.061566,
    0.746616,
    0.316958,
    -0.271876,
    -0.044973,
    0.971846,
    -1.076233,
    0.253445,
    -0.603913,
    0.663150,
    0.508535,
    1.261424,
    -0.446579,
    -0.934891,
    0.375691,
    0.519840,
    1.362450,
    -0.269968,
    1.428263,
    1.606441,
    -1.237044,
    -0.294582,
    -1.119890,
    0.839909,
    -2.735393,
    -0.615150,
    -1.237463,
    -2.281092,
    -0.721484,
    0.013668,
    -0.650508,
    -0.318294,
    0.457853,
    -0.405329,
    0.760665,
    2.127346,
    -0.554162,
    -0.333520,
    -1.186788,
    -0.243723,
    -0.704974,
    0.212563,
    -0.326482,
    0.204988,
    -1.099243,
    -0.449761,
    0.966636,
    0.334776,
    -0.323037,
    0.572711,
    1.135579,
    0.091211,
    -0.162058,
    -0.083937,
    0.342354,
    0.449003,
    1.707578,
    -2.014196,
    -0.564715,
    0.636894,
    -0.172464,
    0.443663,
    0.255916,
    -0.564287,
    1.886666,
    0.940223,
    1.132327,
    1.564433,
    0.379566,
    -1.290638,
    -0.245745,
    -0.725700,
    0.605681,
    0.846134,
    -0.402372,
    -0.211311,
    -0.927434,
    -0.464530,
    -0.709603,
    0.376908,
    0.183836,
    -0.369177,
    1.576414,
    0.029649,
    1.946597,
    -1.509464,
    1.856602,
    -0.453716,
    0.954673,
    -0.199651,
    0.899382,
    0.759747,
    0.170955,
    -0.714194,
    1.454133,
    -0.169928,
    -0.316004,
    1.495605,
    -1.700280,
    -0.882005,
    0.552516,
    -0.502960,
    -1.867325,
    0.428638,
    -0.899153,
    0.764670,
    3.273683,
    -0.943497,
    0.074444,
    0.230889,
    0.990790,
    0.582158,
    1.706910,
    -1.901289,
    -0.554194,
    0.407787,
    -0.490151,
    0.561131,
    0.767120,
    0.199892,
    -0.903013,
    0.418489,
    0.962004,
    0.811412,
    0.548936,
    2.486967,
    0.543807,
    0.303057,
    -0.433901,
    -0.244061,
    1.168981,
    -0.407423,
    -1.629990,
    -0.378024,
    1.111423,
    1.052037,
    -0.007010,
    -0.126080,
    0.509700,
    0.472095,
    0.343193,
    -0.645099,
    -1.629845,
    0.932969,
    -0.277384,
    -0.506479,
    -0.890736,
    0.409395,
    -1.419509,
    0.585872,
    2.244861,
    -0.257190,
    -0.066563,
    -0.319337,
    0.170820,
    -0.386625,
    0.166424,
    -0.720660,
    0.924730,
    2.362317,
    -0.389644,
    -0.778709,
    -0.205594,
    0.129842,
    -0.715415,
    1.192691,
    -1.724274,
    -0.863259,
    -0.263885,
    -0.076200,
    0.221856,
    -0.438536,
    0.492949,
    0.157537,
    -2.058434,
    0.102630,
    1.044120,
    -0.687472,
    0.862676,
    0.404712,
    0.501611,
    -0.122989,
    0.658664,
    2.132677,
    0.136778,
    -0.330246,
    -0.014182,
    -0.399074,
    0.809590,
    -0.027434,
    1.387913,
    -0.076868,
    0.746701,
    -1.021578,
    -1.882212,
    -0.380407,
    0.008430,
    -0.729133,
    0.021803,
    1.475325,
    0.267467,
    -0.086703,
    1.145936,
    -1.176121,
    -0.938130,
    -0.044082,
    -0.198207,
    0.456243,
    0.024796,
    -0.402720,
    -0.704055,
    -0.125907,
    -0.912808,
    1.192055,
    -0.512195,
    1.340920,
    0.744564,
    -0.562328,
    -0.070159,
    -0.080959,
    0.055609,
    0.221130,
    1.160337,
    -2.227312,
    -0.815848,
    -0.039633,
    -0.286023,
    0.179429,
    -0.442329,
    1.446301,
    -2.218606,
    -0.068892,
    -1.104363,
    -0.654211,
    0.636382,
    0.787199,
    0.099613,
    -1.020956,
    -0.718743,
    0.429831,
    -0.721984,
    0.572715,
    -1.341834,
    0.317420,
    0.274857,
    -1.439377,
    -0.093292,
    -0.008104,
    0.248049,
    0.779247,
    -0.299512,
    -0.671307,
    0.283520,
    -0.979545,
    -0.112756,
    1.548514,
    1.137699,
    -1.222372,
    0.819805,
    -1.273514,
    -1.030048,
    0.260554,
    -0.832134,
    -0.208531,
    0.278000,
    -0.216498,
    -0.500143,
    0.355541,
    -1.293356,
    0.988574,
    0.589378,
    1.224388,
    -0.393968,
    0.593044,
    -0.560473,
    -2.997407,
    2.668127,
    0.344678,
    -0.195182,
    -2.377802,
    0.521186,
    -1.223901,
    1.486527,
    -0.357085,
    1.431264,
    0.564148,
    -0.304650,
    -0.964308,
    -2.966703,
    -0.425985,
    -0.348520,
    -2.564488,
    -1.574156,
    -1.088992,
    2.616603,
    1.077632,
    0.803802,
    -1.624272,
    -0.909224,
    -1.843809,
    -0.630378,
    0.492087,
    0.464610,
    -1.115420,
    1.828707,
    -1.021387,
    1.011150,
    -1.586956,
    -0.205450,
    1.243456,
    0.755909,
    0.304751,
    0.970746,
    -0.259805,
    -0.374079,
    -0.597676,
    -0.459788,
    0.283512,
    -0.355331,
    1.046878,
    1.237715,
    0.645405,
    -0.328266,
    1.443110,
    1.653241,
    -0.524589,
    0.581208,
    -1.297578,
    -1.607875,
    -0.044361,
    -0.820450,
    -2.119966,
    1.051184,
    0.682414,
    -1.930232,
    0.135270,
    -1.236639,
    -0.187389,
    -0.152780,
    -0.361930,
    -0.927416,
    1.042178,
    0.153910,
    0.119932,
    -0.682575,
    1.589544,
    0.475979,
    -0.113696,
    1.192002,
    -0.260614,
    -0.213193,
    -0.590619,
    0.475516,
    -0.974883,
    -0.143498,
    -1.906772,
    -0.404712,
    -1.329986,
    0.243439,
    -1.787826,
    1.208728,
    1.090282,
    1.916472,
    -0.551706,
    0.041132,
    -0.364215,
    -0.360208,
    -0.505410,
    -1.792832,
    0.040637,
    0.234446,
    -0.906976,
    1.201703,
    -0.322357,
    -0.552543,
    -1.683653,
    -1.407489,
    -0.587426,
    0.441682,
    -0.611671,
    -0.092305,
    0.926082,
    -2.153003,
    0.656500,
    -0.032532,
    -0.778795,
    -1.172014,
    0.465700,
    0.609656,
    0.966029,
    -0.270139,
    -0.568086,
    0.414532,
    0.911771,
    -0.228692,
    1.045962,
    0.427602,
    1.337256,
    -0.385654,
    1.042549,
    -0.342063,
    -0.754587,
    -0.076386,
    0.922548,
    -0.543166,
    1.202509,
    -0.305774,
    -1.033263,
    -0.535611,
    -0.697938,
    0.581231,
    -0.559042,
    0.394172,
    1.131267,
    2.483581,
    -1.096135,
    1.267784,
    -0.082813,
    -0.196863,
    -0.515419,
    0.726340,
    0.305117,
    -0.027146,
    0.689714,
    -0.239617,
    -1.098688,
    -0.962231,
    -0.418543,
    0.696808,
    1.266904,
    0.633084,
    0.780748,
    0.153715,
    0.753658,
    0.483779,
    0.449546,
    -1.341818,
    0.601635,
    1.953272,
    -1.925178,
    0.923810,
    -0.516084,
    0.330322,
    -0.091538,
    -0.087328,
    0.703571,
    0.179331,
    1.680527,
    -1.893412,
    0.730766,
    0.955578,
    -0.509657,
    1.358250,
    -0.156209,
    -1.012461,
    0.568314,
    2.241077,
    0.974503,
    2.052194,
    -0.379038,
    -0.864137,
    0.000184,
    0.051340,
    -0.882034,
    0.301612,
    -0.424751,
    -0.031328,
    -0.027061,
    1.104111,
    1.108239,
    1.309084,
    0.595682,
    -1.714735,
    0.299669,
    0.296622,
    0.660009,
    -1.834406,
    0.756164,
    0.107393,
    -0.606700,
    -0.179019,
    -0.164904,
    -1.194672,
    -0.269800,
    1.155727,
    0.645467,
    1.906451,
    -0.990501,
    -0.084084,
    0.626386,
    0.008734,
    0.173490,
    -0.769420,
    0.829823,
    0.554437,
    0.877245,
    -0.005633,
    -0.437342,
    -0.645436,
    2.314691,
    -0.473513,
    -1.311220,
    2.289739,
    -0.309598,
    0.154299,
    1.496175,
    -0.045795,
    0.499300,
    1.624792,
    0.595525,
    0.564440,
    -0.169201,
    -0.994563,
    -0.660869,
    0.814339,
    1.009426,
    0.387857,
    0.801235,
    0.987877,
    -0.094642,
    -0.082615,
    0.856422,
    0.099175,
    1.023323,
    -0.546004,
    0.353146,
    0.837967,
    -1.492609,
    0.517834,
    -0.287400,
    -0.431556,
    0.087819,
    -0.243270,
    0.618034,
    0.869502,
    -0.187213,
    1.598916,
    0.116288,
    -0.230102,
    0.973324,
    0.023995,
    1.094849,
    0.620392,
    -0.250705,
    -0.740305,
    -0.799034,
    -0.125091,
    0.150739,
    2.101177,
    -1.000139,
    0.578832,
    0.992820,
    2.467266,
    0.132923,
    0.952205,
    -0.101457,
    0.069943,
    -0.696132,
    -0.237953,
    -1.509019,
    -0.391647,
    -0.198573,
    -0.193702,
    1.711496,
    -0.694755,
    -0.318196,
    1.521804,
    0.504668,
    -1.098139,
    -0.324994,
    -2.050165,
    -0.530308,
    0.712040,
    0.186266,
    1.751613,
    -0.684712,
    0.290717,
    -0.215050,
    -0.861998,
    0.985496,
    0.254891,
    0.973488,
    1.528849,
    -0.542444,
    -1.228854,
    -0.400897,
    1.579519,
    -0.212378,
    -0.686515,
    0.267443,
    0.147793,
    -0.004289,
    0.345349,
    -0.711341,
    0.927634,
    -0.918423,
    0.132019,
    -0.147854,
    0.211544,
    1.187074,
    0.275991,
    -0.965529,
    -0.776653,
    -1.188847,
    0.177070,
    -0.167037,
    -0.046507,
    1.465938,
    -0.468683,
    0.383313,
    0.698883,
    -0.462428,
    -0.259317,
    -1.746288,
    -1.053993,
    -1.019700,
    -0.826569,
    -0.048435,
    -1.021506,
    0.629775,
    0.705584,
    0.127913,
    0.752513,
    -0.616345,
    -0.806659,
    0.528834,
    -0.459247,
    0.095652,
    -0.327411,
    -0.574509,
    0.739443,
    0.126105,
    -0.244290,
    -0.087043,
    -2.271912,
    0.390614,
    0.913036,
    -0.481986,
    -0.950474,
    -1.956249,
    -1.181733,
    -1.609614,
    -1.429883,
    -2.536299,
    -0.419479,
    -0.745528,
    -1.325258,
    -0.247697,
    -0.204358,
    1.033880,
    -0.269191,
    -0.832108,
    1.096959,
    0.080880,
    -0.734618,
    -2.044180,
    -0.319193,
    0.123213,
    -2.096603,
    -1.124692,
    -1.202827,
    1.890074,
    -0.182248,
    -0.410957,
    -1.446303,
    -0.462148,
    -1.139900,
    0.130973,
    -0.932162,
    -0.065980,
    -0.884332,
    -1.411700,
    -0.717112,
    0.341930,
    -0.638661,
    -0.423552,
    1.065412,
    0.279549,
    0.186576,
    0.707439,
    0.001665,
    -0.683641,
    -2.030837,
    0.322865,
    -1.269178,
    -0.154499,
    -0.984567,
    0.621369,
    -0.150494,
    1.419518,
    0.846258,
    -1.469991,
    0.036343,
    -0.169841,
    -1.246973,
    -0.308089,
    -1.281449,
    1.210290,
    -0.164453,
    0.385609,
    0.101976,
    0.525008,
    1.576807,
    -0.729188,
    -0.424369,
    0.635970,
    0.367524,
    -0.755300,
    -1.067925,
    -0.076817,
    -0.978688,
    0.121808,
    1.511581,
    0.370871,
    0.636593,
    -0.111904,
    1.717885,
    -1.089616,
    0.548550,
    -0.429211,
    -0.721352,
    -2.445162,
    0.716766,
    -1.190514,
    -0.861296,
    -0.655310,
    0.656378,
    0.793605,
    -0.039718,
    0.749987,
    0.633326,
    0.313666,
    -0.554573,
    -0.877104,
    0.881457,
    1.679151,
    0.497431,
    0.362389,
    -0.638649,
    1.795544,
    0.431694,
    1.376918,
    -0.837113,
    0.588980,
    1.241491,
    1.852042,
    -2.671304,
    -1.259098,
    -0.352391,
    -2.234574,
    -0.083065,
    -0.719898,
    -1.312180,
    0.002677,
    -0.493969,
    -0.539054,
    -2.029467,
    0.970125,
    -0.330914,
    0.904652,
    0.963815,
    1.813263,
    -1.098997,
    0.702497,
    -0.247260,
    0.158461,
    -1.098184,
    1.088917,
    0.402378,
    0.474719,
    1.522453,
    -0.581544,
    -0.627818,
    -0.873079,
    -1.470634,
    0.262850,
    -1.861285,
    -0.206842,
    -0.852403,
    0.324703,
    0.331867,
    0.078984,
    -1.117164,
    1.005414,
    0.277259,
    -0.394086,
    1.839411,
    -0.762216,
    0.388698,
    -0.318202,
    -0.802545,
    -0.692253,
    -0.010459,
    0.213832,
    -0.534747,
    -0.156643,
    0.039404,
    1.742449,
    -1.564732,
    0.807303,
    0.469517,
    -3.498508,
    -1.429383,
    -2.012620,
    0.213164,
    0.392302,
    0.442541,
    -0.662885,
    -0.303595,
    0.933269,
    1.728004,
    1.673423,
    0.282835,
    -0.182543,
    0.883958,
    0.476781,
    0.670779,
    0.817688,
    1.966228,
    0.352895,
    -0.364344,
    -0.359627,
    -1.294970,
    -0.716506,
    0.124847,
    -0.805517,
    2.818584,
    -0.799955,
    1.600755,
    -0.702278,
    -0.075011,
    1.086001,
    1.081891,
    0.943551,
    1.434993,
    -0.376525,
    1.961985,
    -1.098356,
    2.537874,
    -1.319446,
    0.608272,
    -0.486461,
    0.392173,
    -1.024735,
    0.059434,
    0.445854,
    0.228417,
    1.252448,
    -0.791642,
    0.436046,
    1.678213,
    2.181084,
    -0.012567,
    1.863316,
    1.487419,
    2.525760,
    1.433934,
    1.004298,
    1.149788,
    -0.996597,
    0.088255,
    -0.481714,
    -1.358121,
    0.111033,
    0.006628,
    1.530354,
    -0.618679,
    2.458001,
    1.248595,
    1.829512,
    1.136969,
    -1.045610,
    -1.518585,
    -0.228066,
    1.387513,
    0.437375,
    0.951627,
    0.199414,
    -1.313834,
    -0.935923,
    3.175094,
    0.028826,
    -0.564946,
    -0.177735,
    2.009202,
    -0.170289,
    1.570852,
    1.116095,
    0.028650,
    2.169613,
    1.260618,
    1.530561,
    0.774986,
    0.279769,
    0.612946,
    0.555487,
    2.023048,
    -0.072970,
    -0.505404,
    -1.862657,
    -0.858197,
    -0.881568,
    -2.147092,
    -0.092686,
    -0.494318,
    -0.511448,
    0.703391,
    1.771752,
    0.289719,
    0.154655,
    1.302901,
    -0.592336,
    0.448593,
    0.821721,
    -1.209168,
    0.450331,
    -0.902818,
    -1.223912,
    0.040268,
    1.909069,
    0.759637,
    -0.133030,
    0.912240,
    0.834873,
    -0.786760,
    2.012327,
    1.576869,
    -0.925244,
    1.390592,
    2.182511,
    -0.048996,
    -1.673414,
    1.600422,
    0.146236,
    -2.171742,
    -1.274153,
    -0.540564,
    -0.634728,
    1.268838,
    -0.116821,
    -0.156626,
    1.145949,
    0.053983,
    0.902005,
    0.124970,
    0.237811,
    0.404594,
    -0.128550,
    -0.550227,
    1.072906,
    1.114961,
    0.259645,
    -0.714037,
    1.476407,
    -1.325013,
    1.013860,
    -0.693701,
    0.827567,
    -0.177651,
    1.245445,
    0.723453,
    0.098930,
    -1.344878,
    -0.540252,
    0.030663,
    -0.694619,
    0.451798,
    0.726908,
    -1.115276,
    -0.434136,
    0.964831,
    0.902928,
    -0.317999,
    0.520309,
    -1.072780,
    -0.501419,
    0.609019,
    -1.493841,
    -1.328109,
    0.139632,
    0.570280,
    -1.767700,
    0.228742,
    -0.034207,
    -0.601389,
    -1.068539,
    -0.379888,
    -1.506669,
    -1.599114,
    0.540770,
    1.433723,
    -1.186185,
    -1.497686,
    -0.768928,
    0.105295,
    -1.769338,
    1.914675,
    1.477003,
    -0.008729,
    1.431964,
    -0.541497,
    0.533750,
    0.567549,
    0.920515,
    -1.262474,
    -0.080310,
    -1.431499,
    -0.081410,
    0.630283,
    -0.834178,
    0.762893,
    -0.071612,
    -1.729378,
    -0.935992,
    -0.120146,
    -0.412440,
    -0.388305,
    -0.025473,
    0.522173,
    -0.802760,
    0.057630,
    -0.600977,
    0.284442,
    -1.162831,
    0.513687,
    0.783572,
    1.696630,
    -0.478828,
    -1.212810,
    0.797093,
    -0.429225,
    -0.638274,
    0.169877,
    -0.249492,
    0.595053,
    0.517505,
    -0.330035,
    0.094593,
    -1.998433,
    -0.362139,
    0.254954,
    0.920336,
    1.043830,
    0.513481,
    -0.908111,
    0.419219,
    -2.376794,
    -0.321134,
    0.527391,
    -0.179801,
    0.711396,
    -0.778536,
    0.123398,
    -1.034405,
    0.338219,
    -0.557618,
    1.161466,
    1.975134,
    -1.889087,
    -0.753493,
    1.772476,
    1.788963,
    0.691423,
    -0.115159,
    -1.286265,
    2.986486,
    -0.882614,
    -0.451043,
    -0.551493,
    -0.894091,
    0.479441,
    0.716313,
    0.086312,
    -0.940448,
    -0.013026,
    0.300084,
    -0.886821,
    -0.260831,
    -0.714933,
    0.903108,
    -0.584327,
    -0.894498,
    -0.481569,
    0.338502,
    0.374762,
    0.314003,
    0.594645,
    -1.759873,
    0.595497,
    1.269181,
    1.329465,
    0.566747,
    0.885418,
    0.198235,
    -0.335781,
    -1.975134,
    -1.076821,
    0.117805,
    -0.001031,
    -0.798792,
    -0.166672,
    -0.193622,
    0.519103,
    0.117879,
    -1.016042,
    -1.069087,
    -0.126146,
    -0.880322,
    0.553434,
    -1.063890,
    -0.240841,
    1.062233,
    0.610490,
    -0.447497,
    0.322715,
    -1.821543,
    0.625022,
    -1.209178,
    -0.212228,
    1.116234,
    -0.059776,
    -0.596402,
    -2.069515,
    -1.635951,
    -1.169426,
    -1.193019,
    -1.690423,
    0.853487,
    -0.461714,
    -0.170529,
    0.375617,
    0.354369,
    0.184320,
    0.288383,
    -0.033218,
    0.837405,
    1.148540,
    0.741244,
    -0.263853,
    -0.567161,
    0.120175,
    1.408647,
    -0.795334,
    1.427888,
    0.150362,
    0.633890,
    -1.222761,
    0.321594,
    0.507563,
    -1.986010,
    0.186112,
    -1.101731,
    0.638811,
    3.255273,
    0.377196,
    -0.310556,
    -1.940392,
    -0.566673,
    -0.096281,
    0.516555,
    0.159977,
    -0.914182,
    -0.527418,
    0.792600,
    -0.190572,
    -1.220545,
    -0.267529,
    -0.650636,
    0.421672,
    1.067659,
    -0.078649,
    0.972480,
    1.251908,
    -1.277798,
    1.021590,
    0.788687,
    0.034720,
    -0.643859,
    -0.004232,
    1.793012,
    -0.819857,
    0.052558,
    1.090962,
    -0.831533,
    -2.394514,
    -1.206199,
    1.456514,
    -0.746443,
    0.915349,
    -0.077090,
    0.263968,
    0.053102,
    -1.199464,
    1.016010,
    0.176417,
    0.533501,
    -0.749226,
    0.272663,
    1.372169,
    1.252479,
    -0.424864,
    0.149455,
    -0.391493,
    0.450985,
    1.324521,
    -0.120812,
    -1.618665,
    -1.243490,
    0.765503,
    0.213096,
    1.568932,
    -0.414547,
    -0.232861,
    -0.150634,
    0.789898,
    1.218661,
    0.819146,
    -1.362785,
    0.395429,
    -0.046212,
    0.159447,
    0.903934,
    0.900420,
    2.500343,
    2.039811,
    2.023173,
    1.140071,
    1.278248,
    2.155777,
    1.053581,
    1.946178,
    1.394976,
    2.241949,
    -0.704590,
    -1.001498,
    -0.240720,
    -1.313312,
    -1.120046,
    -0.417439,
    0.415390,
    0.085213,
    -1.983047,
    0.714063,
    0.045094,
    0.319848,
    -1.147503,
    0.488843,
    0.910129,
    -0.293590,
    0.826777,
    0.198536,
    1.860800,
    0.663640,
    0.486530,
    -0.421032,
    0.769337,
    0.728966,
    0.662942,
    1.501526,
    0.373298,
    -0.366013,
    2.615416,
    -0.002350,
    -0.350628,
    -0.313540,
    -0.664953,
    1.730457,
    0.477648,
    -1.753646,
    -0.349031,
    1.731781,
    -0.624636,
    -0.395937,
    -0.306329,
    1.486818,
    -0.380198,
    1.431750,
    0.657249,
    0.929533,
    -0.440621,
    -0.705375,
    0.709399,
    -1.433413,
    -0.215216,
    0.050414,
    -0.672586,
    -0.086997,
    -2.010309,
    -0.164520,
    -1.476516,
    -1.541989,
    -0.131474,
    -1.240189,
    0.067056,
    -0.072282,
    -0.608299,
    0.446025,
    -0.830771,
    1.875564,
    -0.629125,
    -0.174141,
    1.489877,
    -0.374351,
    0.983107,
    0.443316,
    -0.911358,
    0.093728,
    0.947734,
    0.002185,
    -1.811061,
    0.027737,
    -0.555213,
    -1.268596,
    -1.761873,
    1.688025,
    -0.560974,
    -0.963856,
    0.828934,
    -0.595300,
    -0.101390,
    0.315187,
    0.701028,
    -0.297518,
    -0.583109,
    1.586196,
    0.282809,
    -1.552253,
    -0.034344,
    1.561090,
    0.135891,
    -0.219320,
    1.665703,
    -0.127613,
    0.220189,
    -0.313486,
    -1.612882,
    -0.871899,
    0.062651,
    -0.012825,
    0.406889,
    0.812130,
    -2.530416,
    0.954014,
    -1.018704,
    0.181110,
    1.108543,
    1.178025,
    0.734748,
    -0.086744,
    0.661046,
    0.342359,
    0.227587,
    -1.326850,
    0.734350,
    0.221526,
    -1.036048,
    0.558773,
    0.895134,
    1.531599,
    -2.040184,
    1.258051,
    0.619335,
    0.430860,
    -1.243974,
    -1.075202,
    0.001680,
    0.246679,
    -0.713595,
    1.276105,
    1.064299,
    -2.033705,
    -0.576505,
    -1.639817,
    -0.091372,
    -0.222283,
    -0.957524,
    2.282985,
    2.823194,
    0.195622,
    0.546956,
    0.778750,
    0.542625,
    -0.142272,
    -0.150591,
    -0.323111,
    1.078025,
    0.343409,
    -0.796685,
    0.134468,
    -1.200589,
    0.852573,
    0.360978,
    0.478695,
    -0.832632,
    -0.398812,
    1.377026,
    0.587695,
    -0.750430,
    1.303603,
    1.723651,
    -1.066813,
    0.111382,
    -1.114980,
    -1.370521,
    0.156432,
    1.523882,
    0.009316,
    0.246269,
    0.827768,
    1.834215,
    -1.227213,
    0.948647,
    -0.692750,
    -0.685604,
    -1.424194,
    -0.124467,
    0.780053,
    0.223062,
    0.128329,
    1.797585,
    -1.429841,
    0.778324,
    0.451269,
    1.688515,
    -0.234048,
    1.580939,
    -0.657399,
    0.998016,
    0.426663,
    0.929010,
    1.788759,
    -1.034027,
    -0.048319,
    -0.035269,
    1.092628,
    0.024674,
    -0.562722,
    -0.760874,
    -0.117765,
    -1.386111,
    1.812580,
    -0.604344,
    0.215368,
    -0.080568,
    -0.664255,
    -0.987060,
    0.310335,
    -0.919592,
    -0.498661,
    -1.226804,
    0.422944,
    -0.145999,
    0.561902,
    1.046384,
    -0.405228,
    1.721967,
    0.086289,
    0.938805,
    2.326048,
    -0.943982,
    0.680687,
    0.217445,
    -0.395064,
    0.652856,
    1.033759,
    0.387612,
    0.871407,
    -0.830385,
    -0.236812,
    1.424157,
    -0.222881,
    -0.422066,
    -1.721542,
    -0.311661,
    0.755801,
    -1.700033,
    -1.053492,
    -0.238679,
    -0.448065,
    0.372422,
    0.019179,
    1.202165,
    -0.002851,
    0.906403,
    0.156460,
    2.168882,
    0.915520,
    0.219897,
    -0.969076,
    -0.659005,
    0.169423,
    -1.597432,
    0.218085,
    0.006992,
    0.036082,
    -1.016011,
    -1.476806,
    3.046796,
    -0.012927,
    -0.089840,
    -0.281482,
    -0.719440,
    1.002471,
    -0.273465,
    -1.952658,
    0.532809,
    0.660293,
    -0.219052,
    1.370827,
    -0.307133,
    0.591615,
    1.183554,
    0.061584,
    -0.717876,
    -0.399590,
    -0.062525,
    -0.702621,
    1.065044,
    -0.145139,
    1.231453,
    -0.071795,
    0.649432,
    0.291038,
    0.973145,
    0.139468,
    -0.131794,
    0.265480,
    0.441986,
    0.776317,
    0.710225,
    -0.895860,
    -1.442073,
    1.060029,
    -0.959167,
    -0.432250,
    0.476218,
    0.115110,
    -0.079613,
    -0.469018,
    -0.141300,
    -0.070496,
    1.026703,
    1.086646,
    -1.458427,
    -1.177707,
    0.579269,
    1.285097,
    0.434651,
    0.083175,
    2.828602,
    -0.275465,
    -1.670477,
    0.462848,
    0.060874,
    0.089532,
    0.497837,
    -0.469461,
    -0.298447,
    -0.153209,
    0.907236,
    0.472335,
    0.427656,
    1.499073,
    -1.503950,
    -2.242073,
    0.241758,
    1.802122,
    1.335212,
    0.612334,
    -0.181081,
    0.788970,
    0.202698,
    -0.676558,
    -1.440707,
    0.033628,
    0.262994,
    0.292074,
    -0.656774,
    0.691730,
    -0.149028,
    -0.924410,
    1.685663,
    0.163465,
    0.941264,
    -1.269823,
    -0.300856,
    0.204043,
    0.747718,
    -0.996743,
    0.517314,
    0.091771,
    0.001860,
    0.442307,
    0.774817,
    -0.596445,
    -1.233309,
    -1.689326,
    -1.097277,
    0.784471,
    0.259884,
    -0.005620,
    0.605475,
    0.503456,
    0.550912,
    0.152615,
    0.679813,
    -1.833287,
    -0.602470,
    -1.077825,
    -0.319688,
    0.114684,
    -0.040211,
    0.330829,
    0.633678,
    1.448215,
    1.260502,
    0.895307,
    -0.632403,
    -0.664219,
    -0.130269,
    0.694879,
    1.094498,
    -1.060066,
    0.323397,
    1.128141,
    0.023729,
    0.619979,
    -0.477207,
    -0.610564,
    0.331072,
    0.198102,
    -0.022536,
    0.454088,
    -0.346299,
    0.072686,
    0.114920,
    0.297837,
    -0.013565,
    -1.754617,
    -0.426417,
    1.023021,
    0.458140,
    2.172992,
    -0.441013,
    1.521844,
    -2.034056,
    -0.089838,
    0.052699,
    -0.156103,
    -0.831133,
    0.245622,
    -0.650620,
    -0.309364,
    0.161789,
    0.506633,
    -1.052010,
    -1.035995,
    -0.796844,
    1.150598,
    -0.509094,
    0.098543,
    1.140633,
    0.391363,
    0.129081,
    -0.319294,
    -1.727680,
    0.298126,
    -1.604147,
    -0.158594,
    0.082816,
    -1.138700,
    -0.527091,
    0.539164,
    0.536322,
    1.692130,
    -0.129652,
    0.618125,
    0.759080,
    0.478672,
    -1.300378,
    0.013666,
    2.463343,
    -0.865651,
    -1.026033,
    -2.156215,
    -0.358263,
    0.086925,
    1.419184,
    -0.208129,
    0.295044,
    -0.894092,
    1.144906,
    0.655138,
    0.329705,
    0.458622,
    0.881074,
    -0.383237,
    -0.567091,
    0.491404,
    -0.154503,
    1.632781,
    2.771504,
    0.342091,
    -0.104736,
    -0.825325,
    0.906531,
    1.137788,
    0.209895,
    1.550888,
    -0.867138,
    -0.513231,
    -0.222715,
    0.011225,
    1.845433,
    -0.739834,
    1.423071,
    -0.285103,
    -1.688817,
    0.517610,
    -1.200215,
    -1.437418,
    0.641100,
    2.266952,
    1.462039,
    2.465895,
    -0.401909,
    0.769255,
    0.757279,
    -1.962211,
    1.256277,
    -0.234494,
    -1.192357,
    1.888895,
    -0.014904,
    -0.259815,
    0.708600,
    2.027249,
    -1.225801,
    0.650149,
    -1.415459,
    0.741289,
    -1.471030,
    -0.724779,
    0.087567,
    -1.594567,
    0.957383,
    1.362735,
    0.382815,
    -0.257965,
    2.373810,
    1.181260,
    -0.677342,
    -1.444738,
    -0.817179,
    -0.823766,
    0.850854,
    -1.019498,
    0.400066,
    0.748460,
    1.097456,
    0.990269,
    0.933873,
    -0.696793,
    -1.248482,
    -0.425613,
    -0.136527,
    1.764774,
    0.038064,
    1.470105,
    0.621841,
    -1.348891,
    0.617618,
    -1.325590,
    1.356933,
    1.208071,
    0.863277,
    1.580079,
    -0.496375,
    0.483028,
    -1.349815,
    0.357283,
    -0.743376,
    -0.852441,
    -1.494173,
    -0.317854,
    0.658000,
    -0.781506,
    0.524628,
    -0.894023,
    -0.726904,
    1.502027,
    0.777416,
    -1.332424,
    0.262676,
    -0.283274,
    0.947015,
    -1.285403,
    1.224173,
    -1.570729,
    0.114067,
    0.997352,
    0.257418,
    2.233407,
    -1.648438,
    -0.790377,
    -0.750434,
    1.126337,
    0.498433,
    -0.903071,
    0.566981,
    0.666347,
    -0.595785,
    -0.228080,
    -2.073138,
    0.278464,
    0.402628,
    0.289870,
    0.656856,
    0.533855,
    1.153750,
    -1.953738,
    -1.588153,
    -1.710722,
    -2.566784,
    0.491754,
    -0.945271,
    0.474529,
    -0.193701,
    1.093056,
    0.881585,
    -0.552996,
    -1.194503,
    -1.452907,
    0.432146,
    0.153707,
    -1.196155,
    1.768258,
    -0.573372,
    -0.248480,
    -0.926725,
    -0.753622,
    0.990523,
    0.875887,
    -0.888107,
    -0.464670,
    0.924158,
    0.128363,
    0.785370,
    -2.578634,
    -0.146064,
    -0.178175,
    -2.296590,
    -0.038865,
    -0.840300,
    0.074217,
    0.136119,
    -0.284744,
    0.441361,
    0.740176,
    0.162942,
    -0.411094,
    1.334021,
    -0.707826,
    -0.269807,
    0.440700,
    -0.072905,
    0.736982,
    0.734854,
    -0.838586,
    -0.637459,
    0.291179,
    -0.089154,
    -1.936353,
    1.180360,
    1.372223,
    0.940302,
    0.474605,
    1.331059,
    1.410877,
    0.298248,
    -0.892536,
    -0.304471,
    -0.458931,
    0.963576,
    -1.433390,
    -0.128389,
    -0.394463,
    0.155366,
    1.768061,
    1.263154,
    -0.110547,
    -0.268202,
    0.214521,
    -1.263573,
    -0.055989,
    0.317367,
    -1.160980,
    -0.193392,
    -1.926526,
    0.038984,
    1.535737,
    1.251772,
    -0.321606,
    0.435585,
    -1.930101,
    0.160445,
    1.260286,
    0.067223,
    0.997574,
    -0.278989,
    0.163975,
    -0.351795,
    -0.356833,
    1.354152,
    -0.350938,
    0.995509,
    0.495428,
    -0.832961,
    0.256159,
    -0.958893,
    -0.896560,
    -0.457584,
    0.628626,
    0.224820,
    -0.383186,
    1.121389,
    -0.448633,
    0.323112,
    -0.419386,
    0.894433,
    -1.094835,
    -0.620944,
    -0.440737,
    0.642026,
    0.761360,
    1.413368,
    -0.897609,
    -0.333505,
    0.478533,
    1.428709,
    0.909177,
    1.067333,
    -2.064606,
    -0.565900,
    -0.563073,
    -1.089838,
    -0.965344,
    -0.252592,
    0.230071,
    -0.189056,
    0.185404,
    0.074678,
    0.039453,
    0.981393,
    -0.822977,
    -1.265521,
    -0.370825,
    0.696680,
    1.386757,
    -0.302674,
    2.367592,
    -2.745637,
    1.421227,
    -0.363913,
    1.362429,
    0.000511,
    -0.008030,
    0.302493,
    0.227984,
    -1.289979,
    -0.766292,
    2.430169,
    -0.766880,
    1.208390,
    -0.489718,
    -0.113978,
    0.438497,
    1.148029,
    1.140839,
    0.801834,
    0.503583,
    2.536974,
    0.219645,
    0.868789,
    0.771626,
    -0.632262,
    -0.662024,
    -0.356990,
    -0.041711,
    -1.160594,
    -0.240154,
    -1.212920,
    0.170788,
    0.623916,
    -1.040578,
    1.242433,
    -0.355702,
    0.697212,
    2.166884,
    -0.114867,
    -1.117184,
    -0.198106,
    1.735304,
    -0.911763,
    0.111890,
    -1.063760,
    1.027420,
    0.482905,
    1.604749,
    0.622612,
    -0.603482,
    2.317705,
    0.367926,
    1.583238,
    -1.446761,
    1.621236,
    0.923344,
    0.536685,
    -1.509017,
    -1.442904,
    0.635245,
    0.600830,
    0.117929,
    -1.881053,
    0.433380,
    1.819534,
    -0.087432,
    -0.187521,
    -1.087327,
    -0.279001,
    0.744906,
    -0.620890,
    0.343147,
    -1.207764,
    0.128319,
    1.015361,
    -0.163513,
    1.889149,
    -0.282991,
    -0.130970,
    -0.001995,
    1.681827,
    0.111722,
    0.919812,
    -0.879145,
    -0.109838,
    0.661431,
    0.269654,
    1.223028,
    0.298195,
    -0.031142,
    -1.808299,
    -0.552332,
    -2.536081,
    -0.674699,
    -0.175780,
    2.004799,
    -1.868849,
    -0.009087,
    -0.685630,
    -0.294010,
    -0.244014,
    0.675097,
    -1.228877,
    -0.176524,
    0.259149,
    -0.570464,
    0.885320,
    -0.990212,
    -1.088750,
    0.631421,
    0.910724,
    -1.464903,
    -0.928452,
    0.127201,
    -1.030117,
    -0.606247,
    0.188747,
    -1.946551,
    1.201488,
    -1.497048,
    0.453228,
    -0.308347,
    1.307985,
    0.761265,
    0.638285,
    -0.046511,
    0.671990,
    -1.011845,
    -0.658093,
    -1.489126,
    -0.734451,
    -0.143022,
    0.049542,
    -0.743623,
    0.222363,
    -0.034424,
    0.082294,
    -1.492044,
    -0.312717,
    0.637081,
    0.178398,
    0.806491,
    -0.372557,
    -0.060521,
    0.733969,
    -0.528903,
    -0.544848,
    0.309132,
    0.293725,
    1.429558,
    -0.065475,
    -0.533003,
    -0.444800,
    -0.181336,
    0.173063,
    -0.782365,
    0.245382,
    0.757616,
    -1.220918,
    -0.253932,
    0.962619,
    0.456370,
    -1.695290,
    0.718438,
    -0.195154,
    -1.013665,
    -0.954683,
    0.275644,
    -0.495535,
    1.575772,
    -0.047188,
    -0.044146,
    2.380396,
    -1.811388,
    0.912064,
    1.378783,
    -0.085299,
    -1.533884,
    0.716385,
    -1.300912,
    0.564167,
    -0.276720,
    0.129400,
    0.357209,
    -0.272041,
    -0.194566,
    -0.723178,
    -0.732980,
    -0.484607,
    0.294024,
    -0.128556,
    -1.313790,
    -0.809337,
    -1.174918,
    0.395981,
    -0.667219,
    -0.106164,
    -0.806559,
    1.840224,
    0.366891,
    -0.176552,
    1.023728,
    -0.177999,
    0.904800,
    -0.486119,
    1.766942,
    0.017221,
    -0.693186,
    0.885057,
    0.931784,
    0.965575,
    0.869837,
    0.940590,
    -0.616507,
    -0.470175,
    0.997971,
    0.047579,
    -2.185658,
    -1.462155,
    -0.892056,
    -1.929254,
    -1.552535,
    0.179437,
    -0.301602,
    0.973286,
    -0.519628,
    0.357468,
    -0.403217,
    0.322751,
    -0.821504,
    -1.040968,
    -2.350434,
    -0.444124,
    -1.248099,
    -0.127498,
    0.148803,
    0.539311,
    -0.276306,
    -1.512830,
    1.146944,
    -0.238260,
    0.153932,
    2.141845,
    0.070703,
    -0.078096,
    -0.505487,
    0.441278,
    -1.213847,
    0.682621,
    0.320638,
    -0.777204,
    -0.307576,
    -0.048682,
    1.305249,
    1.075962,
    0.524875,
    -0.308516,
    -0.499912,
    1.445464,
    0.713205,
    -0.925206,
    0.746336,
    -0.184298,
    -1.109898,
    -0.658575,
    0.022035,
    -0.736830,
    -0.622262,
    -0.823014,
    1.354133,
    0.028733,
    0.326595,
    1.187893,
    -2.604226,
    -1.300135,
    -1.929711,
    -0.451233,
    -0.814972,
    -0.590851,
    -1.753124,
    0.840010,
    1.617455,
    -0.107221,
    2.214706,
    0.652408,
    0.024920,
    0.818124,
    0.032214,
    -0.011359,
    -0.502290,
    -0.077843,
    1.330778,
    -0.620090,
    -0.097987,
    0.408655,
    0.606928,
    0.163089,
    -0.745093,
    0.380495,
    0.227579,
    -0.263457,
    0.279330,
    0.953363,
    -1.557008,
    -1.450186,
    -0.850270,
    0.158592,
    0.143122,
    -1.675113,
    -1.064370,
    0.419329,
    -0.704257,
    1.071719,
    -0.308099,
    1.132645,
    0.507727,
    0.448241,
    -0.823161,
    1.672982,
    -1.484605,
    -0.878672,
    -0.536825,
    -1.472096,
    -0.794638,
    1.224730,
    -1.217337,
    -0.495234,
    1.168140,
    0.566475,
    0.267964,
    -3.003908,
    -0.571312,
    0.958309,
    -1.811422,
    0.803317,
    -1.266965,
    0.411751,
    -0.118445,
    -0.494985,
    -0.957612,
    0.862049,
    1.497002,
    1.034139,
    -1.721284,
    -0.508438,
    -2.256719,
    1.167966,
    -0.112711,
    0.429450,
    -0.681911,
    -0.820649,
    -0.355384,
    0.439416,
    -0.464392,
    0.524085,
    1.545594,
    -1.250264,
    -1.357696,
    -0.902660,
    -2.129186,
    0.704181,
    -1.222925,
    0.550198,
    1.358586,
    0.364498,
    -1.068906,
    1.721934,
    -1.076067,
    -2.637873,
    -0.157490,
    0.945684,
    -0.099753,
    0.752227,
    1.054463,
    -1.332574,
    0.488239,
    -1.305376,
    0.236063,
    -1.482399,
    0.459289,
    -0.929971,
    1.745775,
    -0.606615,
    -1.709474,
    1.095942,
    -0.156404,
    -1.470623,
    -1.513310,
    -1.300526,
    -0.098833,
    -0.833753,
    -1.139646,
    -0.291614,
    -0.426868,
    1.679342,
    -0.135733,
    0.614294,
    0.089734,
    -0.366265,
    -0.632169,
    -0.032119,
    -0.312986,
    -0.960453,
    -0.087714,
    0.539787,
    -0.187004,
    -0.094159,
    1.227117,
    0.402849,
    0.652949,
    1.585593,
    -0.511700,
    -0.513199,
    -0.565534,
    0.912839,
    2.610416,
    0.099400,
    1.073383,
    0.471666,
    1.597038,
    1.505157,
    0.440451,
    1.170192,
    0.390918,
    -0.699222,
    2.214141,
    -0.515741,
    0.497728,
    -0.654641,
    1.216808,
    0.183323,
    0.431730,
    2.511063,
    0.714235,
    0.967559,
    0.809515,
    1.226595,
    1.208274,
    1.369917,
    0.625036,
    0.616272,
    0.206843,
    0.104941,
    0.241676,
    2.348516,
    0.251852,
    -0.583812,
    0.585710,
    0.305582,
    -0.449590,
    -0.805517,
    -1.337531,
    0.797093,
    0.434806,
    -0.102862,
    -0.069266,
    0.462436,
    -0.902228,
    2.078639,
    -0.538273,
    0.896458,
    1.178172,
    1.848766,
    3.000818,
    -0.625867,
    0.480720,
    0.899279,
    0.725234,
    0.155428,
    0.671067,
    0.793602,
    -0.481200,
    0.292033,
    1.768071,
    0.860463,
    0.887627,
    1.316862,
    0.389324,
    -0.207241,
    0.072602,
