{
  "InputNeurons":784,
  "HiddenNeurons":30,
  "OutputNeurons":10,
  "HiddenBiases" : [
    -0.346989,
    -0.375382,
    -0.515278,
    1.278987,
    0.494702,
    2.633748,
    -0.765385,
    0.418358,
    0.612105,
    -0.932859,
    0.246641,
    0.481196,
    1.750734,
    0.792109,
    0.782655,
    -0.481286,
    -1.022267,
    -0.721134,
    -1.311355,
    -0.914328,
    -2.013756,
    -0.490169,
    -0.322259,
    0.164688,
    -2.185946,
    0.893936,
    0.107337,
    -0.870350,
    0.286313,
    -2.021429
  ],
  "HiddenWeights" : [
    0.987380,
    -1.710592,
    -0.598479,
    0.031728,
    -0.618132,
    -0.592888,
    -0.162265,
    -0.518305,
    -0.090436,
    -1.081445,
    0.589939,
    1.025943,
    -1.141988,
    -1.724562,
    -1.596982,
    -1.073058,
    -1.963333,
    -1.245590,
    0.433756,
    -1.164373,
    -0.380224,
    0.197719,
    1.833277,
    2.634360,
    -1.111031,
    -0.431828,
    1.174664,
    -1.201752,
    -0.046269,
    -0.817141,
    -0.052994,
    0.864489,
    0.881658,
    -0.489811,
    0.082258,
    0.883013,
    -0.046177,
    0.104242,
    -0.812170,
    1.215564,
    -1.463357,
    0.182906,
    0.657721,
    0.275001,
    1.161722,
    2.999296,
    1.139669,
    -0.238063,
    1.883012,
    0.882273,
    0.446168,
    -2.211289,
    -0.573800,
    -0.945070,
    -0.180341,
    0.167068,
    -0.409470,
    -0.620072,
    1.076740,
    0.924883,
    0.118994,
    0.454696,
    0.014214,
    -1.305162,
    -1.834554,
    0.398611,
    -1.797714,
    -0.500425,
    0.747647,
    0.255765,
    1.229975,
    -0.028444,
    -1.750443,
    2.025110,
    0.180937,
    -0.219089,
    -0.182639,
    1.237631,
    -2.821852,
    1.399960,
    -1.041261,
    -0.091424,
    -0.814050,
    -0.686471,
    -0.048298,
    -0.442949,
    0.358090,
    -1.186743,
    -0.708606,
    2.413794,
    0.710921,
    -0.534226,
    1.014576,
    -1.631381,
    0.805783,
    0.698539,
    0.274830,
    -0.265726,
    0.318874,
    0.631774,
    1.432844,
    -0.225890,
    0.467193,
    1.551176,
    0.539646,
    -0.862058,
    -0.003970,
    0.395544,
    -0.377396,
    0.069937,
    -2.631029,
    1.014104,
    1.158512,
    -1.670748,
    0.255403,
    -1.264526,
    0.404742,
    0.379779,
    0.135882,
    1.506962,
    0.514929,
    -0.469852,
    -0.409041,
    -1.007359,
    -0.778923,
    1.120257,
    -0.104471,
    -1.242109,
    -0.899089,
    -0.691163,
    -1.403795,
    -1.415216,
    -0.271260,
    1.250204,
    1.058142,
    -0.181927,
    -0.455466,
    1.134835,
    -0.047648,
    -0.219042,
    -0.878959,
    0.587436,
    0.023218,
    1.061239,
    -0.125337,
    0.250045,
    -1.743277,
    -1.090563,
    0.314078,
    -0.840708,
    0.639563,
    0.660942,
    -1.659553,
    -2.092861,
    -0.558125,
    0.453737,
    -0.219229,
    -0.483607,
    -0.754185,
    0.284061,
    1.147127,
    -0.526340,
    -0.789346,
    -0.173309,
    0.032620,
    1.360629,
    -1.627686,
    1.820867,
    1.381120,
    -0.606570,
    1.832829,
    -0.203412,
    -0.272074,
    -1.082053,
    2.268273,
    -1.937171,
    -2.319491,
    -0.068080,
    -2.431544,
    -1.006517,
    0.651645,
    -1.616142,
    -0.526611,
    0.007061,
    -0.466727,
    -0.432006,
    -0.135035,
    -0.466159,
    -0.410666,
    0.126234,
    -0.060246,
    2.084260,
    -1.299991,
    0.004377,
    0.606391,
    -0.052784,
    -1.391823,
    -0.530569,
    0.600527,
    -1.468013,
    0.462726,
    -0.071399,
    -0.938577,
    -0.292153,
    1.210037,
    0.175872,
    -0.476672,
    -0.702971,
    0.805576,
    0.547087,
    0.521133,
    -1.122993,
    -1.019809,
    1.078483,
    -0.414031,
    -0.542349,
    0.803469,
    -0.157738,
    0.159835,
    -1.125623,
    0.114152,
    0.130834,
    0.935060,
    1.287841,
    -0.205811,
    -1.177915,
    -0.052982,
    -0.998931,
    -0.616040,
    -0.366628,
    -1.651975,
    0.442523,
    -0.349237,
    -1.462157,
    -0.875349,
    -0.685707,
    0.019611,
    -1.146112,
    -0.566483,
    -1.878824,
    0.165270,
    -0.033903,
    -1.673783,
    -1.168883,
    -1.377267,
    0.132688,
    -0.738562,
    0.912485,
    1.451231,
    -1.495716,
    0.374733,
    -1.333177,
    0.458194,
    -0.280877,
    0.380804,
    0.303373,
    -1.780309,
    0.536471,
    0.424388,
    -1.626664,
    0.964720,
    0.820786,
    -0.881131,
    -0.166478,
    -0.241881,
    -1.352722,
    0.385993,
    -1.084073,
    -1.996415,
    -1.329630,
    0.496204,
    -0.923415,
    0.360490,
    -0.716750,
    -0.283986,
    -1.250990,
    1.138047,
    -0.148131,
    -0.374382,
    1.532151,
    -1.562203,
    -1.638125,
    1.793213,
    -0.726324,
    0.688601,
    -1.425329,
    -0.689837,
    0.026853,
    1.927323,
    -0.325231,
    0.829630,
    -0.163605,
    0.661138,
    -0.212821,
    -1.401033,
    -2.196003,
    -2.177016,
    -1.197803,
    -1.600031,
    -0.630727,
    -1.571854,
    0.367691,
    -0.008714,
    0.567579,
    0.954487,
    -0.654397,
    -1.083790,
    1.617517,
    -0.756765,
    -0.043930,
    -1.903525,
    -0.873593,
    1.128801,
    0.942609,
    -0.770203,
    0.402879,
    0.767418,
    2.343885,
    0.296412,
    1.301974,
    0.292253,
    0.495287,
    1.302797,
    0.476049,
    -1.092966,
    -1.220703,
    0.269391,
    -0.155104,
    -0.732618,
    -0.944391,
    0.186395,
    -0.390448,
    0.922110,
    -0.826440,
    -0.164831,
    -0.324722,
    0.125881,
    -0.591442,
    1.146180,
    1.331295,
    -0.338362,
    0.432216,
    2.456614,
    1.445398,
    -0.633973,
    0.054188,
    1.742178,
    0.882595,
    1.595537,
    0.734168,
    2.537390,
    0.851905,
    -0.595374,
    0.605539,
    0.039030,
    -0.307123,
    -0.001764,
    1.095834,
    0.975314,
    -0.302427,
    -1.010220,
    0.273278,
    -0.124967,
    0.946513,
    -0.819016,
    -0.540176,
    -1.100650,
    0.450506,
    1.094949,
    0.666848,
    -0.675033,
    3.171233,
    2.689580,
    -1.056167,
    1.792720,
    1.056317,
    0.839572,
    1.850932,
    1.708105,
    0.387091,
    0.583203,
    0.298158,
    0.215426,
    0.686594,
    0.014632,
    1.423279,
    1.534523,
    1.366070,
    0.320735,
    -1.899266,
    0.444830,
    1.082944,
    1.310422,
    -0.418335,
    -0.366689,
    0.441084,
    -1.101995,
    0.235671,
    0.763171,
    0.737455,
    0.527633,
    0.229048,
    0.751777,
    0.261376,
    -0.331252,
    1.437188,
    1.340684,
    0.412976,
    1.018442,
    0.583794,
    -0.199122,
    -0.539678,
    0.962826,
    -1.408252,
    1.505968,
    -0.132334,
    -0.055549,
    -0.832546,
    -0.420251,
    0.943463,
    0.760469,
    0.065844,
    -0.537498,
    -0.104950,
    0.798292,
    0.435896,
    0.152125,
    -0.845639,
    0.155201,
    0.202751,
    0.904179,
    -0.619423,
    0.354876,
    0.894670,
    1.352409,
    -0.018745,
    1.198002,
    -0.455558,
    0.284134,
    -0.268775,
    -0.852488,
    -0.695413,
    -1.413420,
    -0.422182,
    1.348037,
    0.933021,
    0.205087,
    -1.146434,
    0.091815,
    -0.114674,
    -1.573144,
    2.024487,
    0.060426,
    -2.266412,
    -0.339955,
    -0.510994,
    -0.046321,
    -0.596895,
    0.278280,
    0.484227,
    1.724876,
    1.225784,
    -0.689279,
    1.463933,
    -0.350236,
    -0.098032,
    -1.306598,
    0.667779,
    -0.651489,
    -1.322681,
    0.478968,
    0.447081,
    -0.640248,
    -0.901043,
    -0.698590,
    0.182340,
    -0.469223,
    -0.591107,
    0.094017,
    -1.544071,
    -0.344358,
    -0.075121,
    0.198617,
    1.472786,
    0.058955,
    1.877331,
    0.241234,
    -0.153074,
    1.912100,
    1.398674,
    -1.105889,
    -0.324573,
    0.051511,
    -0.835278,
    0.721811,
    -0.461902,
    -0.097342,
    -0.357877,
    1.912300,
    -0.997017,
    -1.491284,
    -1.964372,
    -0.558787,
    -0.832965,
    0.030673,
    -1.221748,
    1.141269,
    -0.233568,
    0.460534,
    -0.303624,
    -0.603795,
    -0.686037,
    -0.254404,
    0.825156,
    0.944608,
    -0.773443,
    0.509798,
    0.364035,
    0.914788,
    1.290908,
    -0.218462,
    0.486572,
    -0.723570,
    -0.955172,
    1.107601,
    0.037632,
    -1.243461,
    -0.527945,
    -0.311766,
    -1.370935,
    0.714639,
    0.276696,
    0.014356,
    0.887945,
    1.958782,
    -1.594507,
    -0.922733,
    -0.573993,
    -0.250022,
    -0.916139,
    -1.282611,
    -1.482211,
    -0.347126,
    -0.234802,
    0.210742,
    -0.798011,
    -1.751234,
    -0.054063,
    0.536779,
    1.619364,
    -0.444911,
    0.863498,
    -1.548780,
    -0.721284,
    -0.351327,
    -0.496922,
    -0.752789,
    0.426862,
    -1.006589,
    1.441195,
    1.513521,
    0.719031,
    -0.171043,
    0.749846,
    0.155308,
    -0.648424,
    -0.484497,
    -1.191579,
    0.112154,
    -0.024823,
    -1.799692,
    -0.174645,
    -0.582557,
    0.559580,
    0.814055,
    2.121469,
    0.009498,
    -0.350770,
    -0.828183,
    -1.735791,
    0.080183,
    0.843872,
    -2.309284,
    0.312479,
    -0.900501,
    0.626505,
    -0.900552,
    -0.464877,
    0.004795,
    0.290525,
    0.250435,
    0.019281,
    0.381437,
    -0.051752,
    -1.287663,
    1.028452,
    0.115540,
    -0.268508,
    0.889459,
    -0.161811,
    1.259954,
    1.019547,
    -0.578457,
    -0.777286,
    0.413988,
    1.243932,
    0.896606,
    -0.551624,
    -0.508539,
    -0.714756,
    -0.510692,
    -1.204700,
    -0.232097,
    0.465138,
    1.455296,
    1.204590,
    -0.668044,
    -0.047405,
    -0.266795,
    -0.496864,
    -0.228044,
    0.339194,
    0.404661,
    -0.290757,
    -0.179976,
    0.809847,
    -0.527122,
    -0.227289,
    -0.528607,
    0.885039,
    -0.040115,
    0.172062,
    0.578668,
    0.019971,
    0.414894,
    -0.205700,
    -0.885788,
    -2.337836,
    -0.014484,
    0.081599,
    -0.920471,
    0.476044,
    1.367624,
    0.116076,
    0.360133,
    0.933885,
    -2.497482,
    1.687016,
    0.214203,
    -0.332036,
    1.168577,
    1.538150,
    0.984443,
    -1.370667,
    -0.732561,
    1.118622,
    -0.885371,
    2.382661,
    0.246904,
    -0.696045,
    0.510786,
    -0.209614,
    1.991611,
    -0.301154,
    0.201784,
    -1.678554,
    -0.716688,
    0.250174,
    -0.349440,
    0.253275,
    -2.770967,
    -0.314959,
    -0.758063,
    -0.871933,
    -0.183835,
    -0.435109,
    -1.197693,
    0.031487,
    -0.752267,
    1.366287,
    -0.111261,
    -0.287161,
    0.853041,
    0.325329,
    0.467682,
    1.133310,
    -1.543884,
    0.496463,
    1.657523,
    0.175827,
    0.089026,
    0.240615,
    0.350056,
    0.349744,
    -0.479342,
    -1.284704,
    -0.756211,
    0.289950,
    0.214282,
    -0.074999,
    -1.510510,
    -1.909243,
    0.503743,
    1.455322,
    -0.269655,
    -0.562911,
    0.311380,
    -0.444286,
    -1.433111,
    1.285630,
    0.170001,
    -0.966786,
    -1.235271,
    -1.095044,
    -1.428641,
    0.038928,
    -0.854213,
    -0.302279,
    -1.634305,
    -0.455901,
    -0.438898,
    0.150871,
    0.658536,
    -0.796384,
    -1.787755,
    -1.219948,
    -1.110777,
    -0.211860,
    0.588644,
    -1.491012,
    -1.018933,
    -1.582910,
    0.949255,
    0.375077,
    0.271391,
    0.943760,
    0.575805,
    -1.882769,
    -1.800998,
    -1.995100,
    -0.900056,
    1.383451,
    -0.083946,
    -0.539637,
    -0.807929,
    -0.839947,
    -0.396570,
    0.245439,
    1.101647,
    -0.635138,
    -1.054981,
    1.585211,
    -2.151754,
    0.010043,
    -0.255428,
    0.036459,
    0.485059,
    -1.028380,
    1.199545,
    0.304765,
    -1.226722,
    -1.614092,
    -0.825798,
    -0.865240,
    -0.543488,
    -1.142695,
    1.353959,
    0.351266,
    -1.057913,
    -0.241214,
    -1.241772,
    -2.916046,
    1.898797,
    0.100274,
    0.209516,
    -0.815975,
    1.319442,
    0.513420,
    2.001325,
    1.121442,
    0.670984,
    1.302317,
    -0.088936,
    -3.248670,
    0.575415,
    -0.508356,
    -1.064220,
    -0.277434,
    -0.813614,
    -0.727486,
    -0.307160,
    -2.067590,
    0.362807,
    -1.395436,
    -0.143737,
    1.051221,
    -0.715248,
    -0.636446,
    -0.923586,
    -0.883204,
    -1.003247,
    0.369705,
    -1.185148,
    0.424209,
    -0.169002,
    -1.520110,
    -1.287690,
    0.479059,
    -0.414695,
    -0.375041,
    -1.399599,
    1.196215,
    -0.034806,
    -2.755732,
    -0.711332,
    -0.191690,
    2.178906,
    -0.694154,
    -0.355831,
    1.984982,
    -1.403267,
    -1.216019,
    -0.046422,
    -1.475784,
    -0.486849,
    -0.098191,
    -0.262517,
    -0.715336,
    0.205368,
    -0.001714,
    -1.203152,
    -0.824830,
    -0.452053,
    -0.318437,
    -0.998093,
    0.791973,
    -1.204846,
    -0.147666,
    0.514477,
    1.162259,
    -1.057839,
    -0.846870,
    -0.042571,
    -0.901165,
    -0.967434,
    -1.113734,
    0.218809,
    -0.323648,
    0.204045,
    0.965103,
    0.019088,
    -1.306603,
    0.169853,
    0.009441,
    -0.111437,
    1.080329,
    -0.661204,
    -1.526481,
    0.987026,
    0.085551,
    -0.544695,
    -0.847075,
    -0.193645,
    1.127774,
    -0.860945,
    2.342115,
    -0.385265,
    -1.492914,
    -0.613206,
    1.542973,
    -0.304715,
    1.694539,
    -0.480499,
    -0.182254,
    -0.308118,
    2.035948,
    0.524671,
    -1.248483,
    -1.284953,
    -0.679943,
    -0.882263,
    -1.091858,
    -0.802733,
    -1.481148,
    1.014271,
    -1.903408,
    0.797128,
    -0.870909,
    -0.340325,
    -1.193719,
    -1.855109,
    0.243745,
    -1.278712,
    -0.343936,
    0.858654,
    2.520165,
    -0.582552,
    1.011792,
    0.274878,
    1.598850,
    0.255247,
    0.220161,
    0.536178,
    1.854297,
    -0.072939,
    -0.118003,
    -1.848314,
    0.315824,
    -0.041593,
    -1.330179,
    -1.223058,
    -0.765823,
    -1.052901,
    -0.022735,
    -0.392139,
    0.436126,
    0.816884,
    0.181431,
    -0.179559,
    -0.322680,
    -0.662235,
    -0.428682,
    -0.258317,
    -1.362003,
    0.906770,
    -0.197094,
    -1.072806,
    0.688401,
    0.218013,
    -1.427861,
    -1.187028,
    1.276623,
    -0.179251,
    -1.641618,
    -1.022445,
    -0.222115,
    0.598769,
    -0.462314,
    0.578113,
    0.575947,
    -0.182957,
    0.154629,
    -0.360215,
    0.524282,
    1.770886,
    0.924693,
    0.836003,
    0.333452,
    -1.219187,
    -0.435184,
    -1.399901,
    -0.118903,
    -0.525710,
    -0.093111,
    -0.288650,
    -0.202815,
    -0.427795,
    0.381857,
    -1.830097,
    -1.774206,
    1.426466,
    0.957484,
    -1.190393,
    -0.046592,
    -0.420556,
    -0.410241,
    -0.517703,
    0.888312,
    -2.659338,
    -0.695436,
    2.349022,
    1.045977,
    -0.432402,
    0.055566,
    -0.274996,
    0.592126,
    1.306206,
    -1.500404,
    -0.683482,
    1.400009,
    0.948623,
    0.715299,
    0.105001,
    0.684885,
    -0.236667,
    1.163537,
    -2.031067,
    -0.816347,
    1.902207,
    -0.085678,
    -0.079472,
    -1.501598,
    2.188461,
    -1.092304,
    -0.264905,
    -2.960692,
    -0.226482,
    -0.882567,
    -0.113165,
    -0.408202,
    1.402534,
    0.054573,
    1.206965,
    0.108565,
    2.226598,
    -0.368458,
    0.529134,
    -1.439431,
    -0.111681,
    1.327018,
    -0.578142,
    -2.396713,
    0.733746,
    -0.508618,
    0.120097,
    0.810545,
    0.343170,
    -1.291210,
    1.057578,
    -1.322857,
    -1.456676,
    1.154559,
    -2.306679,
    -1.383138,
    -0.641850,
    -1.427940,
    0.819476,
    0.501067,
    0.926253,
    1.052954,
    1.972754,
    2.092791,
    0.382021,
    0.164936,
    -1.413865,
    0.100655,
    0.821189,
    1.974623,
    2.045822,
    0.404216,
    -0.727321,
    0.398299,
    0.695247,
    0.949069,
    0.052691,
    1.768313,
    1.907950,
    -0.061116,
    1.719460,
    -0.977388,
    -0.381033,
    -0.249293,
    -0.143564,
    0.439547,
    1.711002,
    0.696307,
    -0.741921,
    1.211992,
    0.511000,
    1.209819,
    -1.200553,
    1.719461,
    -0.313878,
    0.715150,
    1.009352,
    0.945271,
    -0.039364,
    -1.187648,
    -0.362831,
    0.349210,
    -0.281084,
    -0.247787,
    0.265618,
    0.581749,
    -1.776677,
    1.024325,
    0.316006,
    1.145753,
    -0.978174,
    -1.665467,
    -1.170071,
    1.830144,
    0.689209,
    0.558076,
    -0.536164,
    0.329464,
    -0.419550,
    0.485829,
    -1.849732,
    -0.825857,
    0.682547,
    -0.508511,
    0.417132,
    -1.723367,
    0.000207,
    0.007324,
    0.920034,
    0.540228,
    0.575576,
    1.117293,
    -0.358998,
    1.217728,
    1.885329,
    -0.688848,
    1.648612,
    1.172168,
    -1.901829,
    -1.790813,
    -0.759429,
    0.207873,
    1.776665,
    0.238682,
    -0.757050,
    -1.553294,
    -0.205638,
    -0.667433,
    -2.255510,
    -0.514631,
    1.999524,
    -1.031030,
    -1.433362,
    0.245869,
    0.959389,
    -1.527364,
    -1.057985,
    -1.663400,
    -0.808358,
    -0.491539,
    2.345682,
    0.906941,
    0.191640,
    1.629129,
    1.979653,
    -0.836727,
    0.019096,
    -2.358417,
    -1.388103,
    -0.550656,
    0.645603,
    -1.309916,
    1.736342,
    0.524691,
    0.614867,
    0.621854,
    -1.163261,
    1.070407,
    1.455640,
    1.979195,
    -0.864228,
    0.203010,
    -0.734445,
    1.178461,
    -0.219150,
    0.009202,
    1.119876,
    0.151018,
    0.954558,
    0.798267,
    0.970861,
    0.651730,
    0.367262,
    0.156344,
    -1.538110,
    -1.198998,
    0.103801,
    0.895620,
    0.216265,
    0.570270,
    0.649399,
    0.431319,
    0.217821,
    -0.645334,
    -1.347390,
    -0.342163,
    -0.021401,
    0.651662,
    1.027545,
    -1.634144,
    0.749357,
    -0.441491,
    -0.208102,
    -1.850904,
    1.950609,
    -1.049162,
    0.057173,
    -0.993663,
    3.590455,
    -0.036840,
    -0.272248,
    -2.194756,
    -2.491523,
    -1.026382,
    -1.057488,
    -0.094856,
    -2.178854,
    -0.886866,
    1.147322,
    -0.660948,
    0.041952,
    0.438654,
    0.939856,
    -0.326843,
    -1.032859,
    0.611506,
    0.319342,
    0.431011,
    -0.047442,
    -1.344352,
    0.090726,
    0.781298,
    3.045293,
    -1.366079,
    1.535731,
    -0.249061,
    1.035389,
    -1.477951,
    -2.376623,
    0.113770,
    0.106925,
    -0.814281,
    -0.172022,
    0.432587,
    0.404348,
    -0.318064,
    0.091626,
    -0.543259,
    0.805322,
    0.945464,
    0.296628,
    0.192499,
    -0.804497,
    0.168169,
    -0.791538,
    0.268374,
    1.247209,
    -0.063437,
    0.000822,
    -0.850560,
    -0.603521,
    -0.365010,
    0.015731,
    -0.927302,
    0.429997,
    -1.111208,
    0.375838,
    -3.335351,
    -1.554506,
    -1.238198,
    -1.094736,
    -0.972631,
    0.925368,
    1.029574,
    0.428075,
    0.649735,
    -0.051107,
    2.251741,
    -0.312013,
    0.340108,
    0.133976,
    -0.654673,
    0.540265,
    -0.804881,
    0.974214,
    -1.532179,
    0.460390,
    -0.740016,
    2.168945,
    0.573894,
    0.526727,
    -1.462421,
    0.231613,
    -2.023498,
    -0.150542,
    -0.806769,
    0.522565,
    0.639453,
    0.976505,
    0.723893,
    0.374149,
    0.464478,
    1.393332,
    0.137120,
    0.724825,
    0.613088,
    1.841449,
    0.722440,
    -0.318446,
    0.046954,
    2.582321,
    1.656833,
    -0.743598,
    0.167388,
    -0.064022,
    -0.228178,
    -1.231416,
    -0.594731,
    -1.322963,
    -0.330591,
    -0.089668,
    -0.033703,
    -1.598754,
    -0.534241,
    -0.018350,
    -1.047384,
    -0.234374,
    1.009940,
    0.647828,
    -1.415295,
    0.061255,
    -1.754971,
    1.064839,
    -0.645126,
    -0.045237,
    -0.137193,
    1.000207,
    -0.433945,
    -0.523413,
    -1.258987,
    0.094167,
    -1.099335,
    -0.148367,
    -0.177141,
    -1.097679,
    1.800071,
    -0.178607,
    -0.512481,
    -1.381810,
    0.358817,
    -1.221668,
    -0.532677,
    -0.957698,
    0.853491,
    -1.280734,
    0.018968,
    -0.299197,
    0.721329,
    0.197649,
    0.678956,
    0.050789,
    0.478620,
    -0.693303,
    -0.455431,
    0.384513,
    -2.284431,
    1.579212,
    -0.519714,
    -0.338134,
    1.147452,
    -1.871649,
    0.030962,
    -0.367737,
    -0.294076,
    -0.208664,
    -1.403550,
    -0.086684,
    0.102668,
    1.579649,
    -0.021143,
    -1.881691,
    0.663568,
    0.895199,
    -0.506872,
    -0.540095,
    -0.989479,
    -0.182652,
    -1.061274,
    1.636526,
    0.599084,
    -1.483250,
    0.363404,
    0.561505,
    2.114953,
    -1.324934,
    1.269219,
    -0.863633,
    0.062875,
    1.178646,
    0.413706,
    0.004071,
    -2.424796,
    -0.479503,
    -0.393264,
    -0.822257,
    0.745887,
    0.849514,
    -1.140389,
    -0.096263,
    -1.114665,
    -0.943142,
    -0.469964,
    1.082568,
    -0.029244,
    0.369813,
    -0.714927,
    0.952676,
    -0.408457,
    1.041874,
    -1.428352,
    0.388846,
    1.124463,
    1.545598,
    0.077675,
    -1.741068,
    0.292732,
    -0.791425,
    -1.317365,
    -0.923730,
    -1.568488,
    1.464134,
    0.622706,
    1.539300,
    0.199580,
    1.623882,
    0.986787,
    1.527515,
    0.077377,
    1.471735,
    1.784275,
    -1.242065,
    -0.335854,
    1.334241,
    -0.109843,
    1.481786,
    -2.552960,
    -1.443971,
    0.017283,
    0.855621,
    0.700299,
    -0.047381,
    -0.246473,
    0.829473,
    -0.119036,
    -1.125475,
    -0.519333,
    0.106189,
    -0.677355,
    -0.774590,
    -0.011649,
    0.105537,
    -0.326182,
    0.658868,
    -0.322990,
    2.343388,
    0.399257,
    -1.563738,
    -0.107679,
    -1.062953,
    2.680374,
    1.055126,
    -1.118303,
    -0.007641,
    -0.577186,
    -0.259456,
    1.306775,
    -1.748415,
    1.289783,
    1.083183,
    0.620871,
    0.877610,
    -0.093531,
    -2.750007,
    1.071277,
    1.122755,
    -0.946887,
    -1.205945,
    0.168282,
    1.469013,
    0.434114,
    -1.284761,
    0.446129,
    0.816770,
    -0.548236,
    0.112101,
    -1.084955,
    -0.521222,
    -0.306541,
    -0.294986,
    0.763431,
    -2.025611,
    0.959027,
    -0.181507,
    1.590772,
    -0.164348,
    0.353209,
    -1.311316,
    0.197516,
    0.370992,
    -0.972103,
    -0.355305,
    0.599848,
    -0.625456,
    0.792290,
    0.203212,
    0.560753,
    -0.448450,
    -1.295224,
    -0.123702,
    -0.794851,
    -2.174469,
    -0.750914,
    1.414522,
    0.364618,
    0.022166,
    0.171175,
    -0.237999,
    -1.314288,
    -0.189847,
    1.249124,
    -0.218954,
    -1.153713,
    1.535257,
    1.549242,
    -0.490068,
    -2.618983,
    0.504965,
    0.382900,
    1.162781,
    -0.988162,
    0.768614,
    -0.477950,
    0.755475,
    -0.629848,
    -0.997447,
    -1.366267,
    -0.487719,
    -0.812404,
    0.668389,
    0.684258,
    0.471768,
    0.557974,
    -1.320998,
    0.974100,
    -0.433196,
    -0.049286,
    -0.214988,
    -1.436189,
    1.700080,
    1.697420,
    -0.250840,
    -1.542949,
    -1.302862,
    -0.021223,
    0.092901,
    -0.738219,
    0.854066,
    0.905259,
    -0.796443,
    0.260377,
    0.742408,
    0.887296,
    -0.290874,
    -1.559770,
    -1.196992,
    1.929265,
    0.798194,
    -1.179900,
    0.619696,
    0.359248,
    -1.752730,
    0.457933,
    0.018106,
    -0.004060,
    -0.112015,
    -0.709932,
    -0.470841,
    0.491382,
    -0.528126,
    1.704435,
    -0.530389,
    -0.315705,
    -1.930391,
    -0.734612,
    0.749433,
    1.265060,
    -0.879890,
    -0.043906,
    -1.238339,
    -0.606625,
    1.131418,
    0.690594,
    0.150184,
    -0.272807,
    0.655436,
    0.027751,
    -0.003585,
    0.261964,
    -0.383863,
    1.328071,
    0.202798,
    0.165328,
    0.244813,
    1.350827,
    -2.061573,
    0.215091,
    -1.243920,
    1.358034,
    1.141277,
    -0.234701,
    -1.252677,
    -0.034760,
    -0.289951,
    -0.295030,
    -0.203264,
    0.112869,
    0.077714,
    0.391644,
    0.482293,
    -1.493706,
    1.880893,
    -0.232030,
    0.358844,
    0.306296,
    1.079799,
    0.999732,
    0.449713,
    0.833442,
    -0.537559,
    -0.121401,
    0.106479,
    -0.044352,
    -0.550716,
    -1.222265,
    0.270708,
    0.674074,
    1.286012,
    -0.385253,
    -0.376123,
    0.010471,
    1.365663,
    -1.340246,
    -1.513280,
    -0.663392,
    0.480595,
    -0.482049,
    0.729091,
    1.380700,
    0.990220,
    -0.879213,
    0.499046,
    0.953232,
    0.417810,
    -1.063272,
    0.307647,
    -0.761085,
    -0.387607,
    -0.154507,
    -1.273274,
    -0.110943,
    -1.032773,
    0.205675,
    -0.309710,
    0.140629,
    0.023730,
    0.890062,
    -1.047441,
    0.580669,
    -0.462995,
    -0.436729,
    -0.278673,
    -0.445574,
    0.038998,
    -0.268694,
    -0.005858,
    -0.805432,
    -2.510842,
    -0.088001,
    0.089479,
    -1.972201,
    0.727215,
    -0.405815,
    0.156395,
    0.348153,
    1.276391,
    1.461511,
    1.953354,
    -1.672685,
    -0.228422,
    1.564618,
    -1.056556,
    0.610124,
    -0.166935,
    -0.950182,
    -0.315624,
    0.932719,
    -0.430569,
    0.034300,
    0.614609,
    -0.661671,
    -0.283826,
    0.311248,
    0.192269,
    0.461466,
    -1.273283,
    -0.917611,
    -0.013543,
    0.397111,
    -0.179469,
    -0.601681,
    0.449941,
    -0.250429,
    -0.520176,
    1.188354,
    -1.267714,
    -0.120969,
    -0.257764,
    -1.106155,
    1.373631,
    0.409572,
    -0.594009,
    -0.680974,
    -0.886584,
    0.651660,
    0.084372,
    -1.152109,
    0.856844,
    -0.128966,
    -1.372159,
    -0.394052,
    1.126435,
    -1.505181,
    -0.646399,
    -0.999538,
    -0.537786,
    -0.889341,
    -1.486215,
    0.913712,
    1.225003,
    -1.340985,
    -0.070982,
    -1.675155,
    -0.331877,
    -0.196870,
    -0.513775,
    0.068610,
    -1.569469,
    -0.466097,
    -1.170653,
    0.071641,
    0.278549,
    1.932209,
    1.498915,
    1.720262,
    -0.505566,
    -0.125315,
    -0.604554,
    0.561182,
    0.137495,
    -0.116247,
    -0.805911,
    -0.023893,
    0.864144,
    -0.095674,
    -0.059929,
    -0.679447,
    0.456884,
    -0.327289,
    -0.648716,
    -1.448920,
    0.238120,
    0.943148,
    -0.288576,
    -0.221599,
    -1.484481,
    -1.281363,
    -0.369764,
    0.971596,
    1.154201,
    -1.082502,
    -1.898178,
    0.543172,
    -1.213380,
    0.999822,
    1.471768,
    0.180436,
    -0.389744,
    2.175321,
    -1.108648,
    -0.755103,
    -1.506384,
    1.719068,
    0.419191,
    -0.824818,
    -0.874627,
    -0.531729,
    -0.959010,
    0.514228,
    -1.235803,
    -0.801514,
    -1.832078,
    -0.145903,
    -0.621741,
    -0.931017,
    0.065139,
    0.808692,
    0.567814,
    -0.807045,
    -1.961710,
    0.218790,
    -0.079461,
    -1.313171,
    -1.372617,
    0.724749,
    1.713331,
    2.024099,
    0.278268,
    -1.726083,
    0.887821,
    -1.371184,
    -0.896757,
    0.685233,
    0.126383,
    1.246107,
    -0.767879,
    0.273923,
    -1.438638,
    1.104364,
    -0.201802,
    0.992947,
    -0.158558,
    -0.877371,
    0.550087,
    -1.158709,
    -0.515001,
    1.187878,
    -0.054978,
    -0.663853,
    1.138235,
    1.315710,
    0.689677,
    -0.637657,
    2.481320,
    0.584773,
    1.643121,
    0.295976,
    1.664539,
    0.063496,
    1.703638,
    0.004376,
    -2.031373,
    0.620283,
    -0.888674,
    0.240177,
    1.039428,
    0.160123,
    -1.288519,
    -1.600374,
    0.435278,
    0.558818,
    -0.295007,
    1.663672,
    0.224697,
    -0.601083,
    -0.386974,
    -0.958879,
    0.140953,
    1.004695,
    0.581353,
    1.181668,
    0.197814,
    -0.194802,
    1.370759,
    -0.710985,
    -0.418341,
    -1.775896,
    -0.557075,
    1.165762,
    -0.835832,
    0.067905,
    0.557103,
    0.485217,
    1.218163,
    1.598172,
    -0.398913,
    -0.907398,
    0.016758,
    1.144223,
    0.560597,
    0.337020,
    1.457620,
    1.818804,
    1.892736,
    -0.480315,
    -0.293514,
    -0.223877,
    0.655279,
    -0.801729,
    0.303490,
    2.519268,
    1.969779,
    -1.222308,
    -1.101421,
    -0.218050,
    -0.289483,
    0.351352,
    -0.059988,
    1.226372,
    -0.495598,
    -1.002536,
    0.502180,
    0.941296,
    1.379025,
    0.313982,
    -0.603510,
    -0.193225,
    -0.272318,
    0.248743,
    0.043392,
    -0.276520,
    -0.906084,
    -1.447206,
    0.007647,
    -0.640962,
    0.986039,
    1.790833,
    0.327410,
    1.463173,
    0.513183,
    1.090920,
    -0.283235,
    -1.412508,
    -0.669764,
    0.008758,
    0.460976,
    -0.257937,
    1.354502,
    1.112520,
    0.640653,
    0.207905,
    0.551192,
    0.787513,
    -1.513207,
    -1.053989,
    -0.024999,
    -1.175347,
    0.704150,
    -0.319487,
    2.088939,
    -0.507034,
    0.210508,
    -0.183633,
    -1.377164,
    -0.332816,
    0.492771,
    0.350509,
    0.650565,
    0.713156,
    -0.998974,
    0.264397,
    0.352769,
    0.884129,
    0.882198,
    1.302174,
    -0.787895,
    1.006942,
    0.899064,
    -0.547230,
    -0.160468,
    -1.012904,
    0.128409,
    -0.189760,
    -0.317474,
    1.186751,
    0.522438,
    -0.193165,
    -0.852023,
    -0.536321,
    1.876862,
    1.545987,
    0.028691,
    -0.414749,
    -0.862240,
    -1.446117,
    -0.325519,
    0.288715,
    -1.795443,
    0.654415,
    -0.418638,
    -2.600688,
    -0.270425,
    -0.275922,
    1.340986,
    0.440961,
    -0.423204,
    -0.258933,
    0.720742,
    -1.358829,
    -0.460454,
    1.357076,
    0.660030,
    0.117500,
    -0.376644,
    -0.875246,
    -1.746396,
    0.700496,
    1.172745,
    0.512906,
    -0.394955,
    -0.406894,
    0.700628,
    0.260738,
    0.987232,
    -0.380243,
    -1.124882,
    1.304140,
    1.415410,
    2.208099,
    1.561067,
    0.165812,
    -0.227763,
    0.503330,
    0.165015,
    0.404573,
    0.232704,
    -0.007094,
    0.632861,
    -0.313902,
    -2.244772,
    -1.606853,
    1.207072,
    0.684228,
    -0.183139,
    0.660544,
    2.424257,
    0.733254,
    2.088474,
    -0.123418,
    1.261755,
    1.523914,
    0.519093,
    -0.974858,
    -0.185439,
    -1.069653,
    0.020694,
    1.274726,
    -0.693363,
    -0.508751,
    1.816569,
    -2.050485,
    -0.161862,
    -0.161653,
    -1.559595,
    -0.768561,
    -0.251119,
    0.814132,
    0.049449,
    -0.098238,
    0.267019,
    -2.004191,
    0.959574,
    0.530264,
    0.027170,
    1.174412,
    1.876315,
    3.486909,
    0.148414,
    0.131583,
    1.236803,
    -1.138880,
    -0.703767,
    0.774063,
    0.431879,
    0.160344,
    2.426491,
    1.106579,
    1.245998,
    0.689508,
    1.591566,
    0.590916,
    2.079900,
    0.027465,
    -0.244562,
    1.372585,
    -1.422888,
    1.385739,
    0.995069,
    -0.007296,
    -0.194179,
    0.412254,
    1.422415,
    1.681714,
    0.235651,
    0.619711,
    0.848540,
    0.955768,
    -0.297135,
    -0.273031,
    0.858374,
    0.148837,
    -0.135505,
    -0.862369,
    -2.549602,
    0.988007,
    0.832447,
    -0.477479,
    0.658427,
    0.498001,
    2.119018,
    0.767301,
    -0.046078,
    -0.853192,
    -1.116901,
    -0.884392,
    1.330741,
    -0.500445,
    1.393354,
    -2.138223,
    -0.255851,
    1.367380,
    -1.457381,
    0.410903,
    2.102072,
    -1.049864,
    -0.089953,
    1.229745,
    -2.723156,
    -0.288628,
    -0.222135,
    -1.363962,
    -1.527739,
    1.063094,
    -0.037418,
    -0.378120,
    0.768564,
    1.111742,
    0.846616,
    2.034857,
    -0.795300,
    0.848337,
    0.158065,
    0.022500,
    0.963715,
    -1.762015,
    -1.652148,
    -3.165042,
    -1.514395,
    -0.792471,
    0.906107,
    0.412018,
    2.418833,
    -0.571011,
    0.656438,
    1.927713,
    0.360463,
    -0.809059,
    1.587540,
    -1.536310,
    -0.343667,
    -0.848619,
    -1.804648,
    -0.206331,
    -0.176587,
    -0.641731,
    1.585253,
    0.527264,
    0.577766,
    0.728613,
    0.084324,
    2.326728,
    1.215758,
    0.423359,
    0.237923,
    1.169947,
    -1.524730,
    0.463823,
    -0.919092,
    -1.960409,
    -2.457866,
    1.233633,
    0.275937,
    -1.382130,
    1.190358,
    -0.716069,
    -0.110806,
    -0.683661,
    -0.980912,
    -1.534819,
    -2.844757,
    -1.584802,
    0.181275,
    -0.869312,
    -0.239887,
    1.484062,
    -0.146032,
    0.890616,
    -0.649438,
    0.107798,
    0.159952,
    -2.256221,
    0.657885,
    -0.508307,
    0.109535,
    0.698101,
    -1.560852,
    -0.067135,
    -1.283024,
    -0.063755,
    0.608871,
    -0.139610,
    0.700091,
    -1.544149,
    -1.957067,
    0.399503,
    -0.133370,
    -0.052691,
    -1.545831,
    -0.479081,
    -0.768232,
    1.556666,
    0.033488,
    -1.418366,
    -2.115007,
    1.333689,
    -0.979087,
    -0.817548,
    -1.484465,
    1.071263,
    0.420310,
    -0.225593,
    -0.340256,
    -1.884647,
    0.108672,
    -1.460586,
    0.144829,
    0.119519,
    -0.913460,
    0.140922,
    0.669123,
    0.727743,
    0.272464,
    0.040033,
    1.089767,
    -0.170290,
    -1.301591,
    1.654768,
    -0.200683,
    -0.293410,
    0.609366,
    -0.511385,
    -0.722462,
    0.733523,
    -0.284997,
    -2.881592,
    -0.588488,
    0.776891,
    -0.569911,
    -0.364207,
    -0.196143,
    1.197795,
    -0.189016,
    -1.122642,
    0.470339,
    0.111012,
    -0.618104,
    -1.024513,
    0.342175,
    0.055800,
    -0.566206,
    0.386855,
    0.083757,
    -0.020009,
    -1.318012,
    0.474116,
    -1.400990,
    -0.128235,
    1.390711,
    0.002307,
    -1.602104,
    0.506302,
    1.092252,
    -0.726874,
    0.840730,
    0.072835,
    0.573890,
    1.023744,
    -0.710462,
    -0.127897,
    -0.947955,
    0.486962,
    -0.283583,
    0.402603,
    -0.259688,
    0.233562,
    -0.471719,
    -0.455349,
    -0.277481,
    1.744492,
    0.729531,
    -0.926529,
    -1.963924,
    2.096331,
    1.334039,
    -1.094895,
    0.006449,
    0.552559,
    0.834681,
    -1.370239,
    0.054418,
    0.474535,
    1.334869,
    -0.394516,
    -0.791566,
    -0.381906,
    -0.867394,
    -1.193285,
    1.081939,
    -0.150406,
    1.500309,
    1.816397,
    0.566702,
    -0.360696,
    0.848152,
    0.410211,
    0.623082,
    -0.194467,
    1.341394,
    -0.557342,
    0.664092,
    -1.070591,
    1.064690,
    1.233611,
    -0.929376,
    0.830927,
    -0.623125,
    -1.853273,
    0.287386,
    -0.600953,
    0.532872,
    0.618082,
    1.044689,
    -1.011186,
    1.126150,
    1.436793,
    0.785069,
    -0.818825,
    -0.388174,
    0.913565,
    -0.591083,
    -0.860796,
    -0.795657,
    0.321022,
    2.083292,
    -1.450527,
    -0.444761,
    -1.898090,
    1.303920,
    -0.118465,
    -0.499116,
    -0.300732,
    -0.201665,
    0.102567,
    -0.961842,
    0.986764,
    -1.613255,
    2.310254,
    0.655153,
    -0.615937,
    -0.347174,
    1.012173,
    -0.654666,
    -0.591606,
    0.089281,
    -0.353652,
    0.493640,
    0.960509,
    0.586328,
    -0.455922,
    0.750450,
    -1.093844,
    1.001382,
    1.133461,
    -0.723841,
    0.969273,
    -1.389969,
    -1.922306,
    0.575441,
    -0.890550,
    0.382436,
    -0.574448,
    -0.654241,
    1.464582,
    0.560120,
    0.132469,
    0.821541,
    0.967225,
    0.679675,
    -0.803774,
    0.977213,
    0.855650,
    -1.111134,
    -0.476927,
    0.655878,
    1.964895,
    0.265461,
    0.496545,
    -0.491372,
    0.310686,
    -0.073695,
    -0.363789,
    0.366153,
    0.728250,
    -0.448888,
    -1.300799,
    0.283178,
    -0.300268,
    0.557988,
    1.296223,
    1.251822,
    -0.384832,
    1.734874,
    -0.615535,
    1.161840,
    0.058138,
    1.802379,
    0.084264,
    -0.083032,
    0.423649,
    -0.021546,
    1.110194,
    2.072130,
    1.205749,
    0.150014,
    0.654724,
    1.220356,
    0.533372,
    1.160190,
    -0.252441,
    -1.416393,
    -0.252337,
    1.044483,
    0.346974,
    -1.098475,
    0.104543,
    -0.923958,
    -0.821553,
    -0.396049,
    0.201381,
    1.097064,
    2.280991,
    1.009286,
    -0.390771,
    -0.856883,
    0.905136,
    0.769282,
    -1.323269,
    -0.284158,
    1.255253,
    -1.470384,
    0.155546,
    -1.169921,
    0.541945,
    0.040883,
    0.791770,
    0.011043,
    0.970645,
    -1.417638,
    -0.652355,
    0.479138,
    0.247415,
    0.992796,
    -1.911765,
    2.337049,
    -0.941402,
    1.302569,
    1.411567,
    -1.005710,
    -0.197936,
    0.488137,
    1.807733,
    0.627714,
    0.280397,
    0.385503,
    1.082169,
    -0.075444,
    0.283655,
    -0.831349,
    -0.568916,
    0.183282,
    -0.450142,
    -0.578122,
    0.945399,
    -0.579895,
    0.988247,
    -0.269106,
    -0.751633,
    0.313871,
    -1.120027,
    0.166890,
    -0.082027,
    1.757800,
    0.701107,
    -0.504208,
    -0.701508,
    1.776167,
    -0.227509,
    -0.588346,
    -0.284553,
    0.057652,
    -0.343937,
    -0.099245,
    0.248113,
    2.701783,
    0.164842,
    -0.758972,
    1.313536,
    -1.867856,
    0.320729,
    -0.656750,
    0.693150,
    -0.168485,
    -1.244292,
    -1.366321,
    1.035062,
    0.129242,
    -0.331114,
    0.452891,
    1.470060,
    -1.033848,
    1.180800,
    -0.942635,
    -1.181248,
    -0.444485,
    0.864961,
    -0.276348,
    -0.893110,
    0.220634,
    1.739384,
    0.709418,
    -1.206967,
    1.800441,
    1.105801,
    0.319091,
    0.151817,
    0.389066,
    -0.337347,
    0.721122,
    0.197603,
    -1.497640,
    -0.444941,
    -0.399868,
    -0.610960,
    -1.007224,
    -0.087604,
    -0.170099,
    -0.079212,
    -1.328352,
    -0.852533,
    -0.059226,
    1.500761,
    0.008190,
    -1.466170,
    0.661654,
    -0.454606,
    -0.434557,
    -1.369125,
    -0.293462,
    1.175769,
    0.153185,
    0.463141,
    1.925359,
    -0.784523,
    1.761269,
    -0.417234,
    1.473691,
    -0.586001,
    -0.913114,
    -1.150688,
    0.574739,
    -0.655943,
    -2.351300,
    -0.112198,
    -0.203048,
    -0.612548,
    0.494014,
    0.879538,
    0.788202,
    0.066162,
    -0.281238,
    -0.184903,
    -0.138992,
    -0.667488,
    -0.862041,
    0.492617,
    -0.549974,
    -0.593333,
    -1.460510,
    -0.813540,
    0.004571,
    -0.861558,
    1.398347,
    0.576155,
    -0.091443,
    1.318658,
    -0.011919,
    -1.150578,
    -0.041933,
    0.736355,
    -2.887916,
    -0.527254,
    -1.936691,
    0.021938,
    -0.715051,
    0.728770,
    -1.512223,
    -0.738747,
    -1.087877,
    0.447779,
    1.394199,
    0.516257,
    -0.055335,
    -0.724388,
    -0.843892,
    0.779219,
    1.988761,
    -1.092986,
    -1.147291,
    1.693987,
    0.351404,
    0.323046,
    0.166316,
    0.485557,
    0.424629,
    -1.493575,
    -0.726729,
    1.116806,
    -1.040276,
    -1.308909,
    0.886325,
    -0.773817,
    -0.475806,
    0.441009,
    0.233403,
    -0.424033,
    -0.341083,
    -2.530009,
    -0.282760,
    0.689448,
    -0.651306,
    -1.027845,
    -0.919666,
    -0.381824,
    1.150014,
    0.468557,
    1.685433,
    0.140331,
    0.616192,
    -0.637780,
    -1.704400,
    1.510996,
    0.170380,
    -0.253577,
    0.211282,
    1.520745,
    -0.963350,
    1.164579,
    0.035870,
    -1.694976,
    -0.708275,
    -0.610208,
    2.258802,
    -1.079332,
    0.435448,
    -1.820084,
    1.121535,
    -0.748876,
    -0.202992,
    -0.126539,
    0.398135,
    0.756150,
    1.737649,
    0.591056,
    1.092285,
    -0.240236,
    -0.480626,
    -2.960935,
    -0.216961,
    -1.402413,
    -0.839834,
    -0.908558,
    -1.910630,
    0.385126,
    -0.920532,
    -0.518775,
    0.623536,
    1.067192,
    -0.595255,
    2.362004,
    1.409663,
    0.281660,
    -0.384797,
    0.214804,
    -0.625278,
    -0.177841,
    0.694113,
    -0.150242,
    -0.513819,
    1.367780,
    -0.131813,
    0.296975,
    -0.049501,
    -0.053671,
    1.615085,
    -0.447350,
    -0.240385,
    1.677378,
    -0.099475,
    0.151658,
    0.826227,
    -0.886991,
    0.723829,
    -1.122864,
    -1.143699,
    -0.346338,
    -1.208293,
    1.803283,
    0.439005,
    -0.311946,
    1.233039,
    -0.037010,
    0.230210,
    0.107392,
    -0.394388,
    -0.113273,
    0.823392,
    0.741867,
    0.624516,
    -0.577410,
    -0.156858,
    0.928423,
    -0.381742,
    -0.244324,
    -0.280305,
    -1.507548,
    0.203281,
    0.206764,
    0.936228,
    1.154251,
    -0.038219,
    -0.882086,
    0.076819,
    -0.827979,
    0.761085,
    -2.814232,
    0.493428,
    -2.212459,
    -0.857526,
    0.770928,
    -0.448717,
    0.048825,
    -2.885860,
    -1.964314,
    0.739866,
    1.606206,
    -1.756018,
    0.327678,
    0.236808,
    -0.679071,
    -1.390303,
    -0.474885,
    1.346487,
    -0.389628,
    1.023671,
    0.603607,
    -1.478555,
    -0.478757,
    -0.042634,
    0.223823,
    0.187731,
    -0.016082,
    -0.848620,
    0.824431,
    0.031335,
    0.845058,
    -1.421932,
    -0.630806,
    -0.344010,
    -0.077630,
    -0.107338,
    -0.594250,
    0.844381,
    -1.528698,
    -0.447644,
    0.118426,
    0.730159,
    -1.055678,
    -0.735599,
    0.943762,
    -0.473716,
    0.199410,
    0.012721,
    -0.621680,
    -0.099620,
    -0.177780,
    -0.623955,
    -0.004243,
    0.409786,
    -1.142610,
    0.892177,
    -0.124340,
    0.823125,
    0.939363,
    -0.803403,
    1.029328,
    1.098466,
    -0.008697,
    -0.537291,
    -0.253402,
    -0.058676,
    0.855148,
    0.664270,
    0.635554,
    1.328238,
    0.798425,
    -0.814797,
    -2.714196,
    1.311566,
    0.266801,
    -0.789360,
    -3.265648,
    0.624932,
    0.599824,
    0.010357,
    0.898206,
    -0.650174,
    -1.644815,
    -0.378759,
    0.094890,
    -0.005438,
    -0.476151,
    0.585086,
    -0.432835,
    0.263030,
    -0.479477,
    -0.277962,
    -1.015532,
    0.923520,
    0.327208,
    -0.769546,
    1.001545,
    2.327937,
    -0.421427,
    1.217565,
    -1.223187,
    -2.080057,
    1.402559,
    -0.520332,
    0.953121,
    -0.904334,
    0.568160,
    0.094338,
    -0.237124,
    -0.654147,
    1.060115,
    -1.452011,
    -0.265372,
    1.501841,
    1.094363,
    1.499119,
    0.381178,
    -0.921412,
    -0.444436,
    -1.076839,
    0.215679,
    0.604920,
    -2.072888,
    -0.528825,
    -0.691370,
    0.807485,
    -0.240360,
    1.294432,
    0.530194,
    -0.553908,
    0.423897,
    -0.758263,
    -1.039560,
    -0.403027,
    0.859133,
    0.083312,
    0.304663,
    -0.183447,
    1.113395,
    0.458336,
    -0.596606,
    0.635848,
    -0.763346,
    0.032943,
    0.358334,
    -0.837535,
    -0.345314,
    0.641840,
    1.154753,
    -0.355364,
    2.215199,
    0.014476,
    -0.029654,
    1.053507,
    -0.461278,
    0.330403,
    0.250167,
    -0.213580,
    0.104095,
    -0.087613,
    1.020831,
    0.277209,
    0.574334,
    0.953092,
    -1.089952,
    1.229466,
    -0.575460,
    0.443118,
    -1.774387,
    0.278080,
    1.410885,
    0.018279,
    -1.910125,
    0.683540,
    0.043086,
    -0.658101,
    -1.938607,
    -1.067154,
    -0.327625,
    -0.054082,
    -1.297272,
    1.032169,
    -0.925323,
    0.435950,
    -0.546040,
    0.856093,
    1.095621,
    0.950620,
    0.959308,
    -1.189608,
    -0.758381,
    -0.648958,
    -1.279263,
    0.428554,
    -1.619237,
    1.236213,
    0.712851,
    2.091410,
    0.937298,
    -0.156084,
    -0.169204,
    1.038111,
    1.249301,
    0.055156,
    -1.921960,
    1.371786,
    1.224213,
    1.810759,
    -0.606688,
    -2.041080,
    -1.312294,
    -0.419578,
    -2.467160,
    0.217134,
    0.530063,
    -0.180757,
    -0.750380,
    -0.243042,
    -1.528125,
    0.267722,
    -0.928779,
    -0.473503,
    -0.277186,
    -0.030300,
    0.208593,
    0.332715,
    -2.224062,
    1.110265,
    1.818687,
    -0.250274,
    -1.327842,
    -0.454598,
    0.712708,
    -0.966340,
    -0.751383,
    1.050429,
    0.075304,
    -0.042533,
    -1.210058,
    -0.656122,
    0.716992,
    -0.398032,
    -0.556430,
    -1.791354,
    0.257822,
    -0.071072,
    -0.239465,
    1.036008,
    -0.831851,
    0.654825,
    -0.102313,
    0.113910,
    -0.415711,
    -1.137780,
    2.315377,
    -0.194414,
    -1.877876,
    -1.389190,
    -0.697545,
    0.797069,
    -0.787873,
    0.233189,
    0.419362,
    -0.567143,
    -0.707386,
    1.244536,
    -1.549118,
    -0.816661,
    -0.058282,
    0.026655,
    -1.398455,
    1.630458,
    0.776981,
    1.280489,
    -0.030973,
    -0.594128,
    0.146000,
    -0.156564,
    -0.009504,
    -0.578887,
    0.798547,
    0.104936,
    -0.077334,
    0.022876,
    -0.239907,
    -1.395976,
    2.127202,
    1.044406,
    1.095805,
    -0.777609,
    0.482735,
    -0.849711,
    1.897911,
    -0.385104,
    -0.630346,
    -0.252366,
    -0.278492,
    -0.176493,
    0.672595,
    -1.875242,
    -1.651593,
    2.038335,
    -0.069657,
    -0.131848,
    -0.937487,
    0.718067,
    -0.344824,
    -0.639078,
    1.260565,
    1.711466,
    0.330266,
    2.215178,
    -0.663643,
    0.723710,
    2.165782,
    0.352034,
    -1.012762,
    -1.914074,
    -0.977928,
    1.021966,
    -0.869901,
    0.364275,
    -0.745370,
    -0.166067,
    -1.363601,
    0.403688,
    0.798607,
    -0.889454,
    -1.142118,
    1.603740,
    -0.094166,
    -0.539312,
    1.419120,
    -1.710360,
    1.457743,
    -1.052577,
    0.318861,
    -0.621672,
    0.172810,
    -0.694355,
    1.690714,
    -1.137188,
    -0.361078,
    2.174916,
    -1.275665,
    -0.653871,
    -0.686837,
    -0.027378,
    1.225483,
    0.158559,
    -1.383916,
    1.847713,
    1.516865,
    1.621948,
    -1.119203,
    -0.534216,
    0.150828,
    0.013731,
    -1.253784,
    -1.026379,
    -0.543577,
    -0.260364,
    0.464516,
    -0.298979,
    0.261584,
    0.892228,
    -1.383033,
    -1.356294,
    0.789139,
    0.069389,
    -0.343077,
    -0.377284,
    -1.230996,
    -0.589506,
    -0.409298,
    0.899477,
    2.134541,
    -0.231528,
    1.235488,
    -0.091561,
    0.135576,
    0.371857,
    -0.495090,
    1.343022,
    -0.041491,
    0.627624,
    0.417459,
    1.834520,
    -0.027429,
    2.020467,
    -0.461674,
    0.341505,
    -1.380768,
    -0.712350,
    1.677627,
    1.234550,
    1.090678,
    0.833221,
    0.988349,
    0.814834,
    -0.197004,
    0.119889,
    0.562013,
    -0.929511,
    -1.652354,
    -0.541691,
    -1.877389,
    -0.280624,
    0.080686,
    -0.141053,
    -1.479045,
    1.079960,
    0.155098,
    1.514585,
    -0.034666,
    -0.404801,
    -0.880395,
    -1.107016,
    0.390046,
    0.342177,
    0.466702,
    1.386251,
    -0.656536,
    -0.172427,
    1.310062,
    -0.567019,
    -0.377151,
    1.083905,
    -0.381626,
    0.875780,
    -0.608119,
    -0.380925,
    0.710150,
    0.000049,
    -1.237862,
    1.269931,
    1.166068,
    0.156549,
    0.432753,
    2.328886,
    -0.741833,
    1.307056,
    0.795860,
    -1.014058,
    0.697704,
    0.651488,
    -1.908396,
    -0.411046,
    2.738236,
    2.255971,
    -0.142513,
    -0.231276,
    0.200786,
    0.558619,
    -0.628025,
    0.174990,
    0.773568,
    2.532055,
    -1.642190,
    0.177867,
    -1.254755,
    -0.075500,
    0.015862,
    0.243015,
    1.424202,
    -0.131853,
    0.600305,
    0.427814,
    0.099221,
    0.130421,
    -1.049293,
    0.867146,
    0.076728,
    0.959120,
    0.089345,
    0.266772,
    -0.594684,
    0.090457,
    0.177770,
    0.625526,
    0.289746,
    0.614810,
    0.843257,
    -1.281680,
    1.884519,
    -0.053315,
    -0.745965,
    -2.510780,
    -0.526183,
    -0.439813,
    -0.467030,
    0.063314,
    0.746099,
    -1.368123,
    -0.020744,
    0.594132,
    1.680104,
    -0.180911,
    -0.912569,
    0.509270,
    0.618826,
    0.324194,
    0.361643,
    1.342541,
    0.218941,
    1.086550,
    0.377415,
    -0.602577,
    -0.112612,
    -1.207958,
    0.103547,
    -0.193349,
    -1.113472,
    0.523855,
    -0.732208,
    0.495352,
    -0.564171,
    0.090493,
    -0.909609,
    0.452066,
    -0.086587,
    0.324613,
    -0.973544,
    -0.788044,
    -0.075533,
    0.849813,
    -0.930319,
    -0.440944,
    1.229563,
    0.130336,
    -1.309296,
    1.299093,
    0.801954,
    0.319388,
    1.806044,
    1.700855,
    -0.075618,
    -0.928074,
    1.445224,
    -0.987991,
    -0.698177,
    -0.883672,
    -0.301814,
    -0.184141,
    -0.208730,
    0.171078,
    1.338010,
    1.375725,
    0.739160,
    -0.649347,
    -0.094172,
    1.178434,
    -0.263624,
    -1.052622,
    -1.798589,
    -1.412839,
    1.048710,
    0.128037,
    -0.580163,
    0.322006,
    -0.405530,
    -0.123353,
    -0.757856,
    1.062682,
    2.668598,
    -0.196794,
    -0.716769,
    1.155169,
    -0.575040,
    -0.935508,
    2.376063,
    -0.714196,
    0.928381,
    0.228308,
    0.153342,
    -1.262267,
    0.626675,
    -1.065478,
    0.926632,
    -0.819955,
    -1.083233,
    -0.336944,
    -1.115587,
    0.060666,
    -1.495836,
    0.029555,
    -0.199502,
    -0.683739,
    0.313554,
    0.493840,
    1.076509,
    -1.697900,
    0.912257,
    -1.805957,
    -0.687008,
    1.215939,
    0.314811,
    0.331918,
    0.032919,
    0.075790,
    0.133595,
    0.955168,
    0.127816,
    2.061717,
    0.227900,
    -1.408990,
    -0.235510,
    -0.831464,
    0.196003,
    1.109984,
    -0.473598,
    -0.041756,
    1.885833,
    1.082441,
    -0.067445,
    -0.423932,
    -0.600414,
    -0.068786,
    -1.146222,
    -1.434631,
    1.235354,
    -1.214155,
    0.343676,
    -0.226196,
    0.755213,
    0.294336,
    0.560774,
    0.800839,
    -0.388376,
    -1.733415,
    0.147224,
    -0.276011,
    0.581845,
    1.585723,
    1.741475,
    -0.369591,
    0.397498,
    1.165865,
    -0.158684,
    -0.850850,
    -1.927274,
    -0.494364,
    -0.405345,
    -0.531708,
    -0.908802,
    -0.989150,
    0.838813,
    0.839863,
    -1.526712,
    0.695839,
    -0.279224,
    0.377381,
    1.646306,
    0.116656,
    2.332763,
    0.066129,
    1.929505,
    -0.159413,
    1.455635,
    -0.225134,
    -1.013533,
    0.835825,
    0.535934,
    1.333313,
    0.826635,
    1.104239,
    -1.828284,
    -0.516196,
    0.410108,
    -1.217361,
    -1.761861,
    0.049658,
    0.500338,
    -1.729767,
    -0.796079,
    -0.075824,
    0.085608,
    -0.765845,
    -0.537948,
    0.250001,
    0.401082,
    -1.762984,
    1.063860,
    -0.484993,
    -0.071320,
    0.030734,
    0.657086,
    0.107499,
    -0.802262,
    -0.079323,
    1.022470,
    -0.461604,
    -0.000330,
    -0.339129,
    0.726971,
    -0.373021,
    0.484457,
    0.858698,
    0.712425,
    1.090549,
    -0.542475,
    0.182972,
    0.323386,
    -0.922730,
    0.653699,
    1.681408,
    1.067800,
    -0.942653,
    -0.771850,
    0.165370,
    -0.656473,
    -0.295065,
    -1.038803,
    -0.077867,
    -0.475341,
    -0.743099,
    -1.095867,
    0.122592,
    -1.007182,
    1.544327,
    -0.303811,
    1.237306,
    -0.451821,
    -0.509056,
    -1.155627,
    0.344624,
    -1.572023,
    0.950049,
    0.206071,
    -0.382116,
    -0.315540,
    -0.240687,
    -1.227356,
    -0.089988,
    0.564173,
    0.211568,
    -0.842010,
    -0.385845,
    -0.060338,
    0.432556,
    -0.923614,
    -2.441012,
    -2.383842,
    -2.513161,
    -0.248954,
    0.313227,
    -1.355147,
    -0.315139,
    -0.165437,
    -0.819423,
    0.966942,
    -2.076559,
    -0.098754,
    -0.238169,
    -0.315383,
    1.002229,
    -0.224509,
    0.206262,
    1.610236,
    -0.542114,
    -0.396100,
    -0.884571,
    -0.631214,
    0.176014,
    -1.766465,
    -0.130341,
    -1.802324,
    -1.543616,
    -0.401737,
    -0.128386,
    -2.591406,
    -2.558228,
    -2.328087,
    0.354230,
    -0.943706,
    -0.686422,
    -1.474174,
    -0.585020,
    -0.279490,
    -1.280646,
    0.060489,
    -0.279674,
    2.322612,
    0.763376,
    -1.057637,
    -0.553217,
    -0.637459,
    -1.165197,
    -0.581667,
    0.195188,
    0.496944,
    -2.581033,
    -0.386320,
    -0.854329,
    -0.136403,
    -0.851551,
    -0.517349,
    -2.520397,
    -0.935867,
    -0.298476,
    -1.483623,
    -0.598600,
    0.150058,
    -1.566828,
    0.407923,
    0.290421,
    -0.493540,
    -0.681434,
    0.240006,
    0.427460,
    0.287854,
    0.228828,
    -1.152091,
    -0.504984,
    -0.097076,
    -0.318409,
    1.498663,
    -0.485946,
    1.135663,
    -0.568815,
    -0.036784,
    -1.282037,
    -1.648393,
    -1.217045,
    -2.635610,
    -1.504586,
    -0.369599,
    0.746244,
    1.135363,
    0.692219,
    0.018320,
    2.100458,
    -0.749684,
    -0.844116,
    -0.699934,
    1.439328,
    0.315570,
    1.271463,
    0.900186,
    0.182471,
    -0.728544,
    -0.418618,
    0.150821,
    0.265698,
    1.011130,
    -1.125191,
    0.149147,
    0.212021,
    -0.695966,
    0.290487,
    0.082119,
    -0.795224,
    -1.285201,
    0.800238,
    0.585446,
    0.168390,
    0.823331,
    -0.432139,
    -0.524379,
    -1.097304,
    -0.859864,
    -1.984786,
    0.801402,
    -1.571357,
    0.336326,
    0.708384,
    -0.311691,
    -0.114666,
    -1.105818,
    -0.362171,
    -1.510167,
    -1.406290,
    1.951745,
    -0.449031,
    -1.013240,
    -0.376690,
    -0.027069,
    2.681533,
    -0.346229,
    1.292743,
    -0.541940,
    0.584448,
    -0.358145,
    1.832933,
    1.446884,
    0.547047,
    0.086119,
    1.660756,
    -0.581747,
    0.599198,
    0.010288,
    0.571868,
    -1.054568,
    1.688889,
    -0.395262,
    0.380563,
    -0.346597,
    -0.530471,
    0.755484,
    0.720587,
    1.335427,
    0.408757,
    -0.416402,
    -0.503942,
    0.576675,
    -0.346574,
    -1.597778,
    -1.245102,
    1.736740,
    0.086138,
    -0.443158,
    1.945886,
    0.675454,
    1.710865,
    -0.276930,
    -0.526612,
    -1.189975,
    -1.144618,
    -1.349066,
    -0.356423,
    0.190073,
    -0.323168,
    -0.568195,
    -0.738401,
    0.109105,
    -0.680932,
    -0.119245,
    0.349443,
    -0.571116,
    -1.073061,
    0.885778,
    0.747786,
    1.771354,
    0.354084,
    -0.236055,
    0.358318,
    2.412393,
    0.803393,
    -0.381453,
    2.480806,
    0.120359,
    2.644537,
    0.523182,
    -0.673431,
    -1.072936,
    -1.518233,
    0.800909,
    -0.726580,
    -0.787060,
    1.189414,
    -0.223900,
    3.013342,
    -0.285394,
    1.572268,
    -2.007776,
    -0.770730,
    1.126889,
    1.434080,
    1.064375,
    -1.097046,
    0.284276,
    -1.910939,
    -0.687920,
    -0.790086,
    -1.635689,
    0.905108,
    0.213876,
    -0.784286,
    0.861291,
    -0.479265,
    -0.213922,
    1.227233,
    0.663261,
    -1.548337,
    -1.743214,
    -0.011312,
    0.285223,
    -0.168025,
    0.374470,
    1.443845,
    -0.173637,
    0.600315,
    0.227607,
    2.236423,
    0.679506,
    1.883773,
    0.693880,
    -0.723117,
    0.738580,
    1.262022,
    0.637213,
    -0.362267,
    -0.591988,
    0.988635,
    -0.250390,
    -0.974774,
    0.348772,
    0.759262,
    -0.637563,
    0.607005,
    0.634632,
    -2.034551,
    -0.622343,
    -2.041866,
    0.773648,
    0.748961,
    0.348414,
    0.650189,
    -1.354814,
    -0.220670,
    -0.174937,
    -1.088776,
    0.073133,
    0.484719,
    1.427883,
    -0.102864,
    0.435234,
    0.354587,
    0.214932,
    -0.638185,
    1.810329,
    1.339430,
    -0.307635,
    0.322290,
    0.258578,
    -1.068832,
    2.459137,
    0.030684,
    -0.163923,
    1.017391,
    1.024330,
    0.669404,
    -0.367554,
    -2.032449,
    0.261218,
    2.134351,
    -1.154071,
    -1.145485,
    -1.198658,
    1.302603,
    1.148927,
    0.091221,
    0.158962,
    -0.222840,
    -0.560795,
    1.050978,
    1.573794,
    -0.056380,
    0.819359,
    -0.086726,
    -0.696514,
    -1.142525,
    -1.106734,
    0.047459,
    -0.999493,
    0.501197,
    0.783412,
    -1.460119,
    1.156223,
    0.264270,
    1.090886,
    -0.724147,
    -0.542032,
    -1.440476,
    -0.754259,
    0.912577,
    -0.808146,
    0.347475,
    0.712361,
    1.195179,
    -2.111122,
    1.264999,
    0.531347,
    0.991687,
    -1.265503,
    0.242879,
    0.547436,
    -1.388366,
    -0.264877,
    0.537696,
    -0.077916,
    -0.199009,
    -1.218527,
    -1.188100,
    -1.234919,
    -0.848695,
    0.401448,
    -0.817506,
    -0.062435,
    0.632195,
    -1.574861,
    0.184340,
    0.550792,
    -1.120966,
    -1.638432,
    0.581757,
    0.300150,
    -0.339857,
    -0.595079,
    -0.539125,
    -1.493403,
    2.159032,
    -0.487942,
    -1.161851,
    1.365027,
    0.846311,
    1.866684,
    0.281848,
    1.072372,
    -1.047260,
    2.021813,
    0.464329,
    -1.052233,
    -0.158374,
    -0.068890,
    0.910477,
    -0.160966,
    1.101006,
    -0.703735,
    -0.604248,
    1.540580,
    -0.621552,
    0.329034,
    -0.360383,
    0.399438,
    -1.239513,
    -1.817213,
    1.029489,
    0.318012,
    1.500887,
    -1.463326,
    0.162815,
    0.905123,
    0.258574,
    -0.691233,
    -0.143593,
    -0.183930,
    -0.081616,
    1.467893,
    -1.721259,
    -0.164033,
    -0.705238,
    -1.368129,
    0.271847,
    -0.123017,
    -0.458940,
    0.926044,
    0.869344,
    0.257601,
    0.092283,
    -1.385107,
    0.596502,
    -0.384448,
    -0.368249,
    2.133573,
    1.682349,
    -0.662018,
    -1.272850,
    -0.498972,
    1.392855,
    -1.537051,
    -0.368635,
    -1.755872,
    1.390101,
    -1.197108,
    0.890766,
    -0.103780,
    -2.409538,
    0.291695,
    0.641479,
    -0.169848,
    -0.379931,
    -1.016385,
    -0.134681,
    -0.788775,
    -0.176466,
    0.835265,
    1.177250,
    0.714907,
    -0.531678,
    0.117383,
    0.252127,
    1.107981,
    -0.799772,
    -0.613145,
    -1.527115,
    -1.184700,
    -0.115231,
    -0.056295,
    -0.232933,
    0.893481,
    0.778292,
    0.443839,
    1.515499,
    0.147825,
    -1.297746,
    0.384900,
    -1.217247,
    -0.099765,
    -0.604857,
    1.166953,
    1.212979,
    -0.999801,
    0.561231,
    1.621212,
    -1.625542,
    0.974394,
    -0.925140,
    0.390675,
    -1.230795,
    -0.891347,
    -0.116178,
    -0.285162,
    0.535354,
    -0.272766,
    0.922175,
    -0.561893,
    -1.264750,
    -0.491191,
    -0.865792,
    -0.632497,
    -1.527409,
    -1.918216,
    0.948785,
    -0.700081,
    0.424201,
    -1.131535,
    0.577023,
    -0.077787,
    -0.780934,
    0.562944,
    0.266054,
    0.796973,
    0.426407,
    1.985868,
    -0.973877,
    3.053683,
    -0.604977,
    0.580108,
    0.167310,
    -0.742967,
    -1.355872,
    -0.807366,
    0.231227,
    0.107272,
    -0.873634,
    1.366863,
    1.044417,
    -0.514879,
    -1.277327,
    -0.178276,
    0.335839,
    0.671185,
    0.903318,
    -1.882281,
    -1.022289,
    1.986894,
    -0.635583,
    -0.185803,
    -1.783833,
    -0.935232,
    0.640512,
    -0.278848,
    -1.834191,
    -0.486364,
    1.416937,
    1.450196,
    -0.750284,
    0.805887,
    0.223781,
    0.608107,
    -2.107025,
    2.231481,
    -0.282094,
    1.540034,
    0.910732,
    0.429467,
    0.983065,
    0.433893,
    -0.210858,
    1.852766,
    -0.519665,
    -1.975748,
    -0.522864,
    -1.330509,
    1.260342,
    0.173174,
    -0.744650,
    -1.013794,
    0.972865,
    -1.005575,
    -0.075613,
    -0.711006,
    -0.939045,
    0.628783,
    -2.157716,
    0.267832,
    0.491613,
    -0.363105,
    1.562764,
    0.644949,
    0.120590,
    -0.560515,
    -0.711561,
    -1.345585,
    1.842507,
    0.832844,
    1.080942,
    0.107220,
    -1.458124,
    1.161472,
    0.008825,
    0.923769,
    -0.484249,
    1.007901,
    2.425455,
    -1.149358,
    0.121837,
    1.941369,
    -1.579836,
    0.260066,
    -0.927604,
    0.223593,
    -0.816168,
    0.088417,
    1.080951,
    0.674479,
    -0.310996,
    -0.759451,
    -1.141713,
    -1.120204,
    -1.010225,
    0.890564,
    1.273023,
    -2.266412,
    -0.558964,
    0.328210,
    0.030094,
    -0.221123,
    0.191951,
    -0.369272,
    0.617598,
    -0.913944,
    -1.284053,
    2.054081,
    -0.434596,
    -0.531295,
    -1.046534,
    0.381628,
    0.570057,
    -1.007776,
    0.186001,
    -0.188959,
    -0.624299,
    0.281899,
    0.214219,
    -0.953321,
    0.212879,
    -1.490632,
    1.663832,
    1.420264,
    -1.597896,
    0.889233,
    1.090712,
    0.573319,
    -0.822509,
    -0.429201,
    -0.617098,
    -0.616801,
    0.798123,
    -0.566740,
    0.172195,
    1.201718,
    2.031710,
    0.610149,
    -0.062198,
    1.148859,
    0.990194,
    0.758723,
    -0.965816,
    -0.221126,
    -0.781992,
    0.887935,
    0.394013,
    -0.173918,
    -0.743129,
    -1.130702,
    0.475985,
    -0.356899,
    1.139979,
    1.507270,
    0.466571,
    -0.989751,
    0.341637,
    -1.160272,
    -0.063418,
    1.372485,
    -2.215521,
    -1.563646,
    -1.601409,
    -1.810326,
    0.668001,
    1.260416,
    0.128195,
    0.479694,
    0.278446,
    0.477165,
    1.724134,
    -0.163792,
    0.463863,
    0.434496,
    -0.900609,
    1.023624,
    1.046843,
    1.523536,
    -0.206352,
    0.731833,
    -0.664938,
    -0.779601,
    0.126130,
    -2.022094,
    -1.855557,
    0.815187,
    1.484867,
    -0.326497,
    0.737638,
    -0.987688,
    -2.284856,
    1.652837,
    0.618420,
    -0.559169,
    -0.067999,
    -1.255169,
    0.803191,
    -0.458812,
    0.616726,
    0.528673,
    -0.457868,
    -1.845354,
    -1.906016,
    -0.094032,
    1.684253,
    -0.914923,
    1.764345,
    1.670208,
    0.668091,
    0.762530,
    -0.910833,
    2.647436,
    0.558815,
    -1.135214,
    -0.242769,
    1.281301,
    -2.053477,
    -1.176394,
    -0.104395,
    0.356106,
    -1.371597,
    0.216282,
    1.056361,
    0.932901,
    0.563804,
    0.010711,
    -1.751396,
    -0.922478,
    0.368476,
    0.055483,
    -1.543287,
    -1.300585,
    -1.005074,
    0.156143,
    2.301334,
    -0.552366,
    -1.178903,
    -0.455554,
    1.235801,
    -0.154536,
    0.830411,
    0.588384,
    1.421660,
    1.490312,
    -0.505110,
    -2.470255,
    -0.595316,
    0.307676,
    -0.250503,
    -0.583171,
    0.018616,
    -0.724232,
    -1.115731,
    -1.605016,
    0.970644,
    0.443743,
    0.322385,
    -0.849980,
    -0.882687,
    -0.705231,
    1.347740,
    2.738869,
    -0.064213,
    0.165392,
    -0.168565,
    1.473880,
    -0.383694,
    1.721727,
    -2.200581,
    0.253785,
    -1.621676,
    -1.046863,
    0.403208,
    -1.103281,
    -0.082203,
    -1.338184,
    -0.064456,
    -0.587734,
    0.566542,
    1.378036,
    0.356667,
    -0.236584,
    0.478588,
    0.643878,
    -1.833807,
    2.404154,
    0.595969,
    -2.345443,
    -0.408297,
    2.378901,
    0.255665,
    1.937395,
    1.176880,
    1.010742,
    -1.006250,
    0.536289,
    0.239646,
    -0.753738,
    0.446137,
    -1.152929,
    -0.638903,
    -0.377376,
    0.707844,
    0.543298,
    -0.516815,
    1.737116,
    1.250362,
    0.488232,
    -0.254816,
    1.670320,
    -1.601068,
    -0.425524,
    -0.572551,
    -1.857562,
    0.100780,
    -1.041481,
    0.241896,
    1.594965,
    -0.131652,
    -0.647623,
    0.230993,
    1.427933,
    0.160063,
    0.275717,
    0.549917,
    -0.282281,
    0.071902,
    1.863022,
    -1.063891,
    1.099113,
    0.531799,
    2.324871,
    -0.067421,
    -0.955575,
    -0.382874,
    -1.038649,
    -0.667661,
    -0.725471,
    0.371339,
    -0.964808,
    0.830139,
    -1.023390,
    0.246183,
    0.742379,
    0.386671,
    -0.911429,
    0.575417,
    1.163917,
    -2.267483,
    1.664679,
    0.365408,
    -1.103054,
    0.746200,
    -0.393649,
    0.827200,
    -0.677950,
    -0.058196,
    -1.592027,
    0.434662,
    1.869791,
    -0.368320,
    0.484450,
    -1.542937,
    -0.329968,
    0.077781,
    0.294699,
    -0.635785,
    -0.504290,
    -0.084415,
    -1.505090,
    0.002794,
    1.394465,
    0.154399,
    1.819499,
    0.286027,
    -1.032087,
    1.198446,
    0.151982,
    2.526013,
    1.135002,
    -0.482028,
    0.284939,
    0.376099,
    0.442486,
    -1.349700,
    -2.007956,
    -0.587158,
    -0.247961,
    -2.282410,
    -0.023781,
    -0.940344,
    -1.684102,
    0.074559,
    0.868335,
    -0.229328,
    1.244336,
    -0.903987,
    1.105661,
    -0.421214,
    -0.951222,
    0.378510,
    0.629447,
    -0.754270,
    0.167857,
    2.123361,
    -1.116933,
    -0.882360,
    -0.080459,
    0.893020,
    -0.951173,
    1.041152,
    -0.819007,
    0.785059,
    -0.405443,
    1.502046,
    0.809504,
    -1.235837,
    -0.390510,
    1.137023,
    -0.434570,
    -1.181794,
    0.408427,
    -0.710495,
    -0.584032,
    1.133672,
    1.049181,
    0.836533,
    -0.057167,
    -1.224880,
    0.587771,
    1.118207,
    -0.020956,
    -0.501503,
    -0.395441,
    1.927698,
    -0.223952,
    0.597897,
    -0.116763,
    0.084492,
    -1.168366,
    -0.849536,
    -1.336663,
    -0.311137,
    -0.235824,
    -1.337396,
    -0.973385,
    1.206086,
    0.815355,
    0.475764,
    0.002688,
    0.146176,
    -1.079160,
    -0.714720,
    -0.381301,
    -0.771850,
    0.231921,
    -1.751368,
    -0.724593,
    0.143254,
    2.511472,
    -0.976498,
    1.025800,
    2.239623,
    -0.367470,
    0.732277,
    -0.570853,
    -0.924478,
    0.366722,
    -2.022394,
    0.459800,
    0.151762,
    0.626784,
    -0.375278,
    2.165605,
    -0.387476,
    1.361374,
    1.086985,
    1.193975,
    0.259335,
    1.126632,
    -0.111402,
    0.747746,
    -0.364453,
    1.404404,
    1.297080,
    -0.989285,
    -0.267477,
    0.350220,
    -0.672986,
    -1.341269,
    0.738080,
    0.009561,
    0.861472,
    -1.372013,
    -0.577925,
    -1.269614,
    -0.345284,
    -2.087110,
    -1.115903,
    1.182528,
    0.480033,
    0.991289,
    1.809645,
    0.397333,
    -0.928403,
    0.607632,
    -2.224376,
    0.076059,
    0.199529,
    2.463106,
    -0.759296,
    0.806150,
    -0.952676,
    1.685206,
    -0.231186,
    1.668616,
    2.009248,
    2.315800,
    -0.450451,
    1.469820,
    0.121259,
    -0.233478,
    -1.680180,
    0.936427,
    -0.747838,
    0.260626,
    -0.778647,
    -1.922437,
    0.744527,
    1.409823,
    -1.347117,
    1.265275,
    -0.797647,
    -2.589545,
    -0.261810,
    -1.027483,
    -0.256181,
    1.524037,
    -0.358373,
    0.193142,
    0.560475,
    0.553643,
    -2.234643,
    -0.080605,
    -0.007110,
    1.477211,
    0.237940,
    -1.028170,
    -1.958295,
    -2.132478,
    -1.236343,
    -1.161279,
    -0.043827,
    0.906414,
    1.208807,
    -0.860010,
    0.109643,
    -2.269483,
    -0.804855,
    -1.119532,
    0.843934,
    1.091872,
    -0.478538,
    2.580044,
    -1.960335,
    1.629387,
    0.485553,
    1.474061,
    -0.237849,
    1.211883,
    0.566831,
    0.414881,
    1.589674,
    1.778353,
    0.301027,
    0.709429,
    0.194591,
    0.110254,
    -0.764955,
    -0.396323,
    0.227181,
    -0.491821,
    -1.660488,
    -1.382616,
    -1.465924,
    -0.380117,
    -1.195901,
    -0.241704,
    -0.427366,
    0.703078,
    1.877972,
    0.997901,
    0.858634,
    0.158472,
    0.036825,
    1.540041,
    -0.086434,
    0.409994,
    -0.377857,
    0.513870,
    -2.198005,
    0.588253,
    1.206476,
    1.162388,
    -0.287781,
    -1.928277,
    -1.983391,
    -1.094800,
    0.407469,
    -1.174318,
    0.011161,
    -0.923327,
    -0.743409,
    0.020070,
    -1.148186,
    0.255767,
    0.308892,
    0.983678,
    1.006824,
    -0.310930,
    -0.259983,
    0.974977,
    -0.516323,
    0.947887,
    -0.011062,
    0.081071,
    0.185861,
    1.158962,
    0.611400,
    -0.798228,
    1.676075,
    1.234621,
    -1.069242,
    -0.115948,
    -0.380238,
    0.777761,
    -0.413601,
    -0.654588,
    -0.169631,
    -0.947095,
    -0.766329,
    1.363273,
    -0.717117,
    -0.108911,
    1.001876,
    0.669957,
    -0.581956,
    -0.379732,
    -1.176082,
    1.011269,
    -0.114816,
    1.076269,
    0.254789,
    -0.419997,
    -0.503532,
    0.930711,
    0.084016,
    -0.561642,
    1.107248,
    -0.405791,
    0.773441,
    -0.790724,
    -1.998111,
    0.061507,
    -0.109599,
    -0.157225,
    -0.650220,
    -0.496105,
    1.115927,
    -1.296878,
    -0.330645,
    -1.058413,
    -0.596278,
    -1.386838,
    2.180390,
    -2.002842,
    -0.028424,
    -1.227850,
    -0.817272,
    -1.331502,
    0.253851,
    -0.675003,
    -0.025645,
    0.144313,
    0.037972,
    0.151046,
    -2.195035,
    1.213593,
    2.233415,
    0.501688,
    1.662499,
    -1.243384,
    -0.803351,
    0.864297,
    -1.438961,
    -1.185055,
    -1.112026,
    1.114085,
    -0.208005,
    -0.845480,
    -0.474541,
    -0.658100,
    1.528887,
    1.870851,
    2.966748,
    -0.157254,
    1.921325,
    -0.504741,
    -0.618278,
    -0.186589,
    0.429239,
    -0.063282,
    -1.407465,
    0.943379,
    -0.114754,
    0.987572,
    -1.802035,
    -0.362709,
    0.195196,
    0.496136,
    0.328019,
    0.021157,
    -2.010587,
    -0.813461,
    0.047738,
    -1.040210,
    0.640216,
    -0.291583,
    -0.329197,
    -0.658570,
    -0.244303,
    -0.472505,
    -1.403653,
    1.814491,
    0.408805,
    0.139035,
    -0.195509,
    -0.644007,
    0.405233,
    0.009306,
    -1.007279,
    2.162338,
    0.770762,
    1.349764,
    0.941619,
    1.132193,
    -0.173932,
    -0.162822,
    1.091547,
    -1.581588,
    0.492064,
    0.783296,
    -0.596411,
    -0.092041,
    -1.131011,
    1.249481,
    -0.563390,
    -0.318543,
    1.867042,
    0.898905,
    -1.428708,
    -0.565709,
    -0.054103,
    0.530120,
    -0.336106,
    -0.539991,
    0.175683,
    -0.567632,
    -1.154732,
    -0.005309,
    0.849378,
    0.471187,
    -0.453106,
    -1.077857,
    0.451679,
    0.865174,
    2.254235,
    0.260690,
    -0.609973,
    -1.987747,
    0.459738,
    0.128207,
    -0.205474,
    -0.307895,
    0.097473,
    1.225007,
    1.127892,
    -0.109498,
    0.048033,
    0.968003,
    3.251688,
    0.136525,
    -0.365533,
    1.278082,
    -2.213341,
    0.061618,
    -0.069051,
    -0.949945,
    0.586102,
    -0.652667,
    -2.401048,
    0.576292,
    -0.964033,
    -0.132312,
    0.795464,
    0.535539,
    0.682534,
    0.878946,
    1.262941,
    1.667501,
    0.398996,
    0.147602,
    -0.600999,
    -2.258412,
    0.779142,
    0.306702,
    -1.574605,
    -0.286585,
    0.929197,
    -0.962333,
    0.709400,
    -0.064279,
    0.809120,
    -0.908098,
    0.397531,
    -1.626101,
    -0.275773,
    1.750091,
    -0.280694,
    -0.281488,
    -0.213223,
    -0.710209,
    -0.538839,
    1.463152,
    -1.531067,
    -0.278612,
    -1.295718,
    0.039326,
    0.197750,
    -0.163522,
    -0.345616,
    0.430261,
    -0.125609,
    -0.576643,
    1.792044,
    -0.351810,
    0.805570,
    1.073072,
    2.496787,
    -0.197440,
    -1.391514,
    -0.044796,
    1.548828,
    1.690228,
    0.594840,
    -1.113677,
    0.311435,
    0.698300,
    -0.219860,
    -1.118526,
    -1.174493,
    0.186106,
    -0.187276,
    -1.214325,
    -0.127740,
    0.696708,
    -1.096127,
    0.385299,
    0.260196,
    -0.553398,
    0.024009,
    0.385099,
    0.259316,
    -2.661316,
    1.341732,
    0.264798,
    0.192513,
    -0.560245,
    -0.366476,
    -0.626730,
    -1.004088,
    1.878545,
    -0.901181,
    1.557701,
    -1.022315,
    -0.292046,
    0.476982,
    0.330458,
    -0.101920,
    1.599406,
    0.670148,
    -0.109425,
    1.672994,
    -1.230683,
    0.045545,
    -1.144533,
    1.496282,
    -0.046852,
    -1.540075,
    0.765444,
    -1.101191,
    0.894622,
    -0.991131,
    -0.549903,
    0.509742,
    1.691360,
    1.835489,
    1.073415,
    0.100631,
    0.841774,
    0.663957,
    1.357640,
    0.017197,
    -0.618239,
    2.489284,
    -0.212446,
    0.125859,
    0.817947,
    -0.293310,
    0.564176,
    -0.890990,
    0.932300,
    -0.411529,
    -0.486198,
    1.500349,
    1.091187,
    0.901820,
    -0.299032,
    -1.666004,
    -1.645251,
    0.050245,
    1.464771,
    -0.410849,
    0.842660,
    -1.857772,
    0.980913,
    1.528016,
    -0.048824,
    -0.901527,
    -0.258089,
    -0.018351,
    -1.283964,
    1.480793,
    -1.787618,
    1.590276,
    -0.221204,
    -0.892952,
    -0.645752,
    -1.225363,
    2.630071,
    0.892003,
    -0.903789,
    -1.741158,
    -0.291726,
    -1.459480,
    -1.043512,
    -0.056010,
    -0.285537,
    -0.051238,
    -0.532809,
    0.832919,
    1.237761,
    0.605793,
    0.781999,
    0.437271,
    1.699614,
    -0.832496,
    0.258945,
    1.165851,
    0.931180,
    0.415470,
    0.163812,
    0.314967,
    0.566723,
    -0.651784,
    0.035289,
    1.111478,
    0.101205,
    0.866001,
    -1.453965,
    1.558485,
    -1.171493,
    2.063980,
    -0.276794,
    -0.528369,
    -0.182529,
    -0.458164,
    0.312358,
    -0.111145,
    -0.291828,
    -0.963277,
    -0.001664,
    0.242370,
    1.248310,
    -0.511780,
    1.096607,
    1.498516,
    0.618607,
    0.116429,
    1.491711,
    1.251434,
    1.608148,
    -0.477629,
    -0.535305,
    -0.943421,
    0.745090,
    0.624116,
    0.289200,
    -0.223373,
    0.390631,
    -0.529502,
    0.841511,
    -0.218274,
    -1.260296,
    1.422637,
    -0.467580,
    0.330045,
    1.477790,
    1.360875,
    -0.236550,
    0.035243,
    0.282602,
    -1.043806,
    -1.275153,
    2.264031,
    1.584595,
    0.504450,
    -0.589126,
    -1.287908,
    -0.206213,
    -0.499209,
    1.375989,
    0.404436,
    0.310947,
    -1.359449,
    -0.135161,
    1.342107,
    0.074489,
    -0.759531,
    0.559776,
    -2.030595,
    0.399006,
    0.292020,
    0.537255,
    -1.711538,
    -1.186652,
    -0.571550,
    1.328276,
    -0.543345,
    0.287224,
    1.087613,
    1.304212,
    1.070568,
    0.298260,
    0.221895,
    1.236305,
    1.325405,
    -0.235106,
    -0.047975,
    0.419105,
    0.206774,
    -0.650673,
    1.075128,
    -0.492067,
    1.918918,
    0.745687,
    0.758279,
    -0.029089,
    -0.069540,
    0.450974,
    1.115446,
    -0.980896,
    0.238030,
    0.801093,
    0.042133,
    0.040890,
    -0.529013,
    0.014368,
    -0.855672,
    -0.264714,
    -1.502852,
    0.383368,
    1.418269,
    -0.689587,
    -0.953201,
    -2.834226,
    1.273287,
    0.735761,
    -0.819840,
    0.547876,
    -0.949910,
    1.045730,
    0.678210,
    -0.617010,
    2.532808,
    0.978787,
    0.280426,
    -0.428226,
    -0.271574,
    0.504379,
    0.161722,
    0.579997,
    -1.001237,
    0.917430,
    2.053252,
    0.277398,
    0.626692,
    -2.003438,
    -0.303726,
    1.146890,
    -0.615073,
    0.540358,
    1.071021,
    -1.855411,
    1.829515,
    -1.474018,
    0.389999,
    -0.738615,
    -1.755055,
    0.120219,
    -0.943051,
    1.430638,
    1.084201,
    0.043818,
    -2.215872,
    0.082372,
    0.251385,
    -0.027542,
    0.851898,
    -0.963649,
    -2.268787,
    0.773144,
    -0.705747,
    0.158584,
    -0.800392,
    1.083755,
    1.708446,
    1.058414,
    -0.053504,
    1.264306,
    3.009233,
    -0.460799,
    1.485781,
    0.092750,
    1.598647,
    -1.259289,
    -0.407152,
    0.711250,
    0.683789,
    -0.298540,
    0.754626,
    -0.724259,
    1.052898,
    0.437205,
    2.263076,
    -0.647972,
    -0.853983,
    -1.425723,
    -0.074689,
    -0.345395,
    -0.818090,
    0.069930,
    2.097323,
    0.052313,
    1.047052,
    -0.144082,
    0.749582,
    -0.765740,
    -0.120098,
    -0.577352,
    -0.582086,
    -0.845371,
    -1.001183,
    1.478324,
    -2.353808,
    -1.196491,
    -0.093210,
    0.868132,
    -1.222377,
    -0.858693,
    1.131736,
    0.989938,
    0.042436,
    -0.192437,
    -0.890947,
    0.567365,
    0.550715,
    -1.003240,
    0.825046,
    0.958829,
    -0.887698,
    2.874282,
    -1.249466,
    1.222176,
    1.070471,
    0.075415,
    0.755057,
    -1.386102,
    -0.515359,
    -0.274483,
    0.637409,
    -0.532185,
    -0.227577,
    1.211201,
    0.319562,
    -0.841039,
    -1.443766,
    -0.815137,
    -0.238380,
    0.816824,
    -0.870947,
    0.047058,
    -0.693005,
    1.624544,
    1.305659,
    -0.054925,
    1.855113,
    0.961311,
    -1.056272,
    1.051926,
    0.428446,
    1.296940,
    1.706615,
    -0.729527,
    0.917384,
    0.126068,
    -2.458755,
    -0.276470,
    -0.949886,
    -1.301035,
    0.318790,
    -1.028060,
    -0.234758,
    0.670350,
    0.536835,
    -0.708021,
    1.905861,
    0.081432,
    -0.393885,
    -0.618226,
    1.633296,
    1.370921,
    2.005493,
    1.835260,
    -0.347681,
    -0.778367,
    -1.350583,
    1.782323,
    1.820058,
    0.701151,
    0.425372,
    -1.355238,
    0.352672,
    0.455408,
    -0.945022,
    0.234086,
    -1.195347,
    0.257818,
    2.584273,
    0.253388,
    0.078723,
    -0.803408,
    -2.153712,
    0.086247,
    0.512621,
    1.298166,
    -0.304110,
    0.092328,
    0.245900,
    0.745246,
    -0.023809,
    -0.525455,
    0.124291,
    0.820125,
    -0.360148,
    0.907968,
    -0.205066,
    1.216906,
    -0.228100,
    0.348828,
    1.975028,
    -0.787983,
    -1.753252,
    0.818139,
    0.688421,
    0.750679,
    0.905110,
    -1.247125,
    1.241838,
    0.969530,
    0.434572,
    -1.585910,
    -0.571433,
    0.189936,
    0.476980,
    -1.309492,
    -0.510631,
    0.729537,
    1.303330,
    -0.456929,
    -0.111877,
    -1.885355,
    -0.475064,
    1.109631,
    -0.231502,
    0.978849,
    -0.699906,
    -0.979442,
    0.203136,
    1.529561,
    1.617001,
    -0.495481,
    -1.834605,
    -0.671207,
    -1.100329,
    0.374524,
    0.475142,
    1.235496,
    -0.308647,
    0.658835,
    0.708270,
    0.773013,
    -0.264824,
    1.217973,
    0.845366,
    0.373655,
    0.113162,
    0.018056,
    -1.463630,
    -0.943411,
    1.580577,
    1.353981,
    0.003594,
    0.298479,
    -1.246530,
    0.617319,
    -0.192683,
    0.082267,
    -0.011870,
    0.989920,
    -0.226178,
    -0.834517,
    -0.559462,
    -1.066874,
    2.276408,
    1.432962,
    0.535193,
    -0.020227,
    -0.538742,
    0.176097,
    -0.309565,
    0.154377,
    0.539215,
    1.531364,
    0.500633,
    0.508141,
    0.907031,
    -0.977080,
    -1.317297,
    0.325743,
    -0.655083,
    -0.141306,
    0.837270,
    0.416013,
    -0.791521,
    -1.546352,
    1.376198,
    0.015164,
    1.476832,
    -1.655997,
    0.055476,
    0.783881,
    -0.301073,
    -0.006666,
    0.362636,
    -0.146465,
    1.795085,
    0.963552,
    -0.313005,
    0.513335,
    1.694770,
    0.369416,
    -0.107451,
    -0.052941,
    1.281234,
    -0.090540,
    -0.787624,
    -1.431986,
    0.340636,
    -1.424908,
    0.491086,
    -0.505659,
    -1.193169,
    -0.804849,
    -0.257432,
    0.291126,
    -0.738303,
    1.064520,
    -1.761088,
    -1.563908,
    -0.719148,
    0.058741,
    -0.623487,
    -2.390900,
    -0.025907,
    1.291709,
    0.055785,
    0.119273,
    -0.700590,
    -0.280322,
    -0.627568,
    -0.662944,
    0.641638,
    1.915411,
    1.597981,
    -0.272320,
    -0.451080,
    -2.023211,
    -1.167416,
    -0.806754,
    0.344473,
    -0.115559,
    1.402918,
    -0.348559,
    -2.188373,
    0.485188,
    -0.058888,
    -0.457957,
    2.153548,
    0.714281,
    -1.098340,
    -0.328882,
    0.124266,
    -0.626608,
    -0.140573,
    0.234711,
    0.386762,
    0.147309,
    -0.437712,
    0.489463,
    -0.024634,
    1.390038,
    -0.083226,
    -0.151868,
    -1.489171,
    -1.232571,
    1.061296,
    -0.111033,
    0.030931,
    0.318070,
    -1.387831,
    -0.966762,
    -0.479468,
    -1.441449,
    -0.063071,
    -0.750556,
    -0.367095,
    -0.157659,
    -0.150839,
    -1.471290,
    0.394506,
    -0.217609,
    1.048494,
    -1.472995,
    1.676360,
    0.110991,
    -1.652031,
    0.754619,
    0.414486,
    -0.448821,
    -0.173976,
    -0.338204,
    -0.923515,
    -0.878198,
    2.235502,
    -0.854490,
    0.120683,
    1.815813,
    0.784408,
    0.832395,
    0.742307,
    1.035250,
    -0.906713,
    0.109431,
    -1.299710,
    -1.279182,
    0.770141,
    1.053040,
    -0.557786,
    1.221798,
    -0.961311,
    0.911342,
    1.224716,
    0.806690,
    -1.660970,
    -1.101386,
    1.525294,
    -1.734942,
    -1.814716,
    3.015727,
    0.466535,
    2.012042,
    -0.136003,
    -0.081801,
    2.015863,
    -2.558392,
    0.009069,
    0.735386,
    -0.455814,
    -0.369843,
    -1.112374,
    -0.526134,
    -0.168110,
    -0.710571,
    -2.048701,
    0.611578,
    -0.068380,
    0.033041,
    0.238592,
    -0.098146,
    0.812996,
    0.220607,
    1.205594,
    -0.054589,
    -0.586400,
    0.677893,
    0.849141,
    0.048743,
    -1.303711,
    -1.656933,
    -0.930037,
    -0.369931,
    -0.033293,
    -0.601529,
    -1.510686,
    1.085922,
    0.482375,
    -0.325693,
    2.158911,
    -0.321130,
    -0.882138,
    0.090428,
    0.171209,
    0.275155,
    0.159766,
    1.027668,
    0.048824,
    -0.344873,
    -0.629101,
    1.283466,
    0.166658,
    -0.569381,
    0.499372,
    1.790805,
    1.599301,
    0.505219,
    -0.887112,
    -0.563816,
    2.171563,
    -0.277458,
    -0.518108,
    0.085163,
    -0.204407,
    -0.380384,
    -1.733453,
    0.150517,
    -0.697977,
    0.421490,
    -0.282243,
    -0.007087,
    0.653179,
    -1.103613,
    -0.850010,
    -0.131388,
    1.173788,
    -0.687465,
    0.742277,
    0.630424,
    -0.614542,
    -0.208738,
    0.325174,
    1.063566,
    2.257405,
    -0.007301,
    -0.212265,
    1.603221,
    0.134355,
    -1.106252,
    -0.133057,
    -0.687960,
    0.978973,
    0.169766,
    0.511269,
    1.571211,
    -0.565954,
    -0.448025,
    2.463628,
    -1.332310,
    -0.372815,
    0.699838,
    -1.537357,
    0.439722,
    0.616916,
    -0.124058,
    1.364732,
    -0.841892,
    -0.512571,
    -0.243794,
    0.182946,
    1.561255,
    -0.375657,
    -0.603651,
    -1.383934,
    -1.163809,
    -1.245647,
    -0.329917,
    0.406668,
    -0.142516,
    0.136317,
    0.844973,
    -0.935531,
    0.477163,
    0.952926,
    -0.406882,
    -0.373221,
    0.169915,
    -1.175674,
    1.215046,
    1.878756,
    0.877296,
    0.141508,
    1.768813,
    -1.100218,
    0.232536,
    -0.312446,
    -2.023347,
    -1.563156,
    1.890273,
    -0.053582,
    -0.810078,
    -0.732521,
    0.319589,
    -1.366728,
    -0.978016,
    1.525525,
    1.461373,
    2.087116,
    -1.488716,
    1.862371,
    -0.216388,
    -0.464744,
    -0.934905,
    0.403262,
    -0.454277,
    1.520128,
    1.921345,
    0.208870,
    0.575965,
    1.147108,
    -0.751830,
    -1.320274,
    0.899756,
    0.088420,
    -0.309871,
    -0.358300,
    1.197784,
    -1.722999,
    -1.652649,
    -2.318986,
    0.293022,
    -1.469894,
    0.684762,
    1.318276,
    -0.681382,
    -0.110449,
    0.683261,
    1.628308,
    2.057934,
    -0.384118,
    -1.487783,
    0.141857,
    1.108122,
    0.386972,
    1.021289,
    -0.023817,
    0.066133,
    -1.224430,
    0.670045,
    -0.753340,
    -0.991011,
    1.164367,
    0.843829,
    -1.323678,
    0.521421,
    -1.183372,
    -1.321041,
    0.091786,
    2.360708,
    -0.599334,
    -0.568299,
    -1.199225,
    -0.669385,
    -1.526683,
    -1.559519,
    0.946410,
    -1.161237,
    1.101951,
    -1.024943,
    -0.205713,
    -0.369741,
    -0.348183,
    -0.676728,
    -0.812546,
    2.508662,
    -1.181919,
    1.041272,
    1.508757,
    -0.577799,
    0.041312,
    -0.088717,
    -0.301275,
    2.208271,
    -1.264848,
    -1.507222,
    -0.229859,
    0.589203,
    0.651201,
    -0.062120,
    0.261708,
    1.221912,
    -0.177073,
    2.016683,
    0.468461,
    -0.193682,
    -0.188739,
    0.714872,
    -0.468380,
    0.061716,
    -0.093151,
    -0.267954,
    -1.124960,
    -0.220245,
    0.345727,
    0.608044,
    -1.093432,
    -0.935425,
    0.209432,
    -0.031418,
    -0.591353,
    2.230585,
    1.491991,
    0.107372,
    0.746651,
    -0.787630,
    0.264550,
    0.926793,
    -1.101464,
    -0.425762,
    -0.032476,
    -0.800936,
    0.781218,
    -1.203838,
    -0.518416,
    0.371857,
    0.057512,
    -0.539750,
    -0.007191,
    0.067820,
    0.849983,
    1.424071,
    0.047459,
    -1.721332,
    1.104785,
    1.766394,
    1.682635,
    -0.754079,
    0.967767,
    0.044302,
    2.587102,
    0.281036,
    0.482916,
    0.519542,
    -0.079154,
    0.041331,
    -0.008505,
    -1.237267,
    -0.031472,
    0.518514,
    0.948175,
    0.346452,
    -0.213152,
    -1.786915,
    0.699058,
    1.288800,
    -0.740083,
    0.432551,
    -0.522016,
    -0.121666,
    0.214964,
    1.448162,
    2.055667,
    -1.610178,
    -1.090756,
    1.202959,
    1.893451,
    0.372784,
    1.658623,
    -0.518592,
    0.867537,
    -0.398504,
    0.239854,
    0.646232,
    -0.338848,
    -0.086524,
    -0.080123,
    0.267303,
    -0.572075,
    -0.825164,
    0.658885,
    0.750941,
    -2.628659,
    0.482580,
    -0.139676,
    -0.523153,
    -1.038374,
    -0.141691,
    -0.399119,
    -0.857712,
    0.341094,
    1.530910,
    0.356443,
    -0.248614,
    -0.086407,
    -0.763305,
    0.188585,
    -1.426998,
    -0.097677,
    -0.149248,
    1.416364,
    0.405915,
    -1.125759,
    0.821541,
    0.803372,
    -1.916280,
    -0.781413,
    0.860690,
    1.214590,
    1.339905,
    0.919184,
    -2.313361,
    1.107883,
    0.448178,
    2.152298,
    0.386922,
    -0.535597,
    -0.964682,
    1.457103,
    0.593020,
    -0.179250,
    0.500017,
    -0.182264,
    -0.544233,
    1.379947,
    -0.628392,
    0.116732,
    -0.322495,
    1.180682,
    0.135437,
    -1.109293,
    -1.242450,
    -0.149549,
    0.398049,
    -1.609026,
    0.926488,
    -0.870159,
    -1.285904,
    -0.702237,
    -0.088473,
    -0.171048,
    -0.122033,
    -1.259067,
    -0.654819,
    0.822920,
    -0.116542,
    -0.143579,
    -0.675748,
    1.553916,
    0.319455,
    -1.934618,
    0.947801,
    1.867303,
    1.229032,
    0.240655,
    -0.248723,
    -0.869254,
    -0.134363,
    1.912922,
    -1.767088,
    1.474346,
    0.484555,
    -1.549370,
    1.439935,
    -1.566905,
    -1.180185,
    -0.263120,
    1.119047,
    0.534391,
    1.285770,
    1.223796,
    -0.893074,
    0.845062,
    -1.001191,
    -0.578108,
    1.872363,
    -0.166452,
    -0.845389,
    0.881710,
    -0.436169,
    -0.783631,
    0.558539,
    1.414781,
    0.113341,
    -0.313841,
    -0.832578,
    -0.595742,
    0.164681,
    0.875098,
    0.356292,
    -0.836144,
    0.384879,
    -0.635937,
    0.615142,
    -1.270138,
    0.165360,
    1.042768,
    1.514600,
    -0.475722,
    0.702304,
    0.953921,
    0.432312,
    0.269425,
    -0.849606,
    -1.678215,
    3.120420,
    0.474986,
    0.765677,
    0.535967,
    0.206001,
    -0.089951,
    1.430368,
    0.060547,
    0.001959,
    2.034523,
    -2.836223,
    -0.310730,
    2.962876,
    -0.214833,
    -0.239817,
    0.450413,
    -1.189889,
    -0.361715,
    -0.398968,
    -1.967161,
    0.897994,
    0.366986,
    1.591626,
    -0.094156,
    1.513686,
    0.190555,
    2.524227,
    0.454653,
    -0.478617,
    0.016711,
    0.197260,
    0.937939,
    -0.091334,
    2.305034,
    1.842111,
    0.033562,
    -1.594365,
    -0.527949,
    0.799240,
    -0.909077,
    1.400573,
    0.355484,
    1.296917,
    0.464229,
    -0.222834,
    0.731207,
    -1.383397,
    -0.434127,
    0.237096,
    1.987879,
    -0.030497,
    -0.403487,
    -2.476299,
    -0.068147,
    0.571159,
    0.851345,
    0.905552,
    0.277832,
    -1.434330,
    -0.050711,
    -1.068703,
    -1.090391,
    0.632398,
    1.041218,
    -1.524746,
    -0.366050,
    0.425669,
    -0.106559,
    -1.375822,
    -1.201651,
    3.166236,
    1.392654,
    -1.753846,
    -1.594838,
    1.299270,
    0.704634,
    -0.351901,
    0.077950,
    -0.549443,
    0.728836,
    0.295203,
    1.221786,
    0.842083,
    -0.355292,
    1.266455,
    0.684812,
    -0.064160,
    0.358847,
    0.527489,
    -0.996790,
    2.217902,
    0.570374,
    0.327518,
    1.445525,
    -0.877951,
    0.442344,
    0.069476,
    -0.520546,
    -0.344394,
    0.562393,
    -0.041450,
    0.932148,
    -0.784931,
    -1.946279,
    1.176612,
    -0.302657,
    -0.363131,
    0.957193,
    0.531344,
    1.529328,
    1.173632,
    0.015153,
    -0.714117,
    1.214388,
    0.369803,
    0.298766,
    -0.241416,
    0.636839,
    0.728849,
    0.235465,
    0.914707,
    -0.398609,
    0.025193,
    1.617938,
    -0.909932,
    0.965049,
    -1.777758,
    -0.392876,
    2.430950,
    1.096146,
    -0.283606,
    -0.263905,
    1.453849,
    1.552370,
    -0.857584,
    1.033871,
    0.550339,
    -1.321812,
    0.224151,
    0.730849,
    -0.455464,
    0.177014,
    1.122440,
    1.148366,
    -0.585556,
    -0.129160,
    -1.049403,
    0.961278,
    0.286998,
    0.220529,
    -2.290649,
    0.731729,
    -0.627994,
    0.700999,
    0.869447,
    0.764535,
    0.022607,
    -0.622452,
    -0.396063,
    2.006305,
    -0.202700,
    0.465938,
    -0.038062,
    1.114706,
    1.114632,
    0.896269,
    0.416425,
    0.677378,
    0.573315,
    -0.059515,
    -0.405632,
    -0.152952,
    -0.200262,
    1.091253,
    1.443751,
    0.038019,
    -0.255875,
    0.743678,
    -0.092783,
    -1.026461,
    -1.383872,
    -1.766032,
    1.209689,
    0.308649,
    1.583616,
    -0.285764,
    0.572234,
    0.417587,
    -0.065060,
    -0.918391,
    -0.567602,
    0.393827,
    2.197839,
    -0.077572,
    0.192203,
    0.509789,
    -0.619470,
    -1.193406,
    1.227192,
    1.951523,
    0.162975,
    -0.364409,
    0.976207,
    0.265008,
    -0.573169,
    0.274508,
    -0.023013,
    0.450031,
    0.611101,
    0.581733,
    0.063214,
    0.780759,
    -0.399383,
    -0.811747,
    -0.733824,
    -0.527670,
    -0.022494,
    1.599971,
    0.162366,
    -0.822158,
    1.318495,
    -1.094203,
    -1.343024,
    -1.444903,
    -0.198107,
    0.853049,
    1.594911,
    0.626001,
    2.020043,
    1.383604,
    -1.202883,
    -0.504364,
    -0.655226,
    -0.473658,
    -0.651040,
    1.976609,
    -0.094023,
    0.304444,
    -1.077314,
    -0.275339,
    -0.504936,
    -0.420952,
    1.091406,
    0.736540,
    1.357594,
    -0.352784,
    -1.668781,
    0.848832,
    0.187680,
    1.847277,
    0.859806,
    -0.136767,
    -1.234863,
    0.863214,
    1.105762,
    -1.820290,
    -0.596964,
    0.023667,
    0.591862,
    0.169678,
    -0.680499,
    0.017597,
    1.219950,
    -1.582050,
    -0.660545,
    -0.609587,
    -0.371106,
    0.041347,
    -1.209519,
    -1.289238,
    1.247249,
    -0.430729,
    -1.558597,
    0.376463,
    0.056778,
    0.186020,
    -1.164579,
    -1.682638,
    0.880961,
    0.365064,
    0.249913,
    1.167361,
    0.513066,
    -0.399008,
    1.522180,
    -0.422695,
    -0.204644,
    0.744164,
    1.090653,
    -0.341722,
    -0.349376,
    0.470064,
    0.146228,
    1.208125,
    -0.682296,
    -0.376992,
    0.327552,
    -0.104630,
    -1.604371,
    0.159136,
    -1.597574,
    1.197790,
    -0.607171,
    -2.188268,
    1.162920,
    1.438760,
    -0.610313,
    0.084886,
    -0.329250,
    3.249337,
    -1.211829,
    0.837696,
    -0.012913,
    -0.042528,
    1.382259,
    -0.064946,
    -0.550548,
    1.624682,
    -0.180370,
    1.814438,
    0.908694,
    1.115848,
    -1.109932,
    0.575725,
    -0.820922,
    2.126716,
    0.765131,
    -0.700347,
    0.217399,
    -0.434329,
    -1.223756,
    -1.463093,
    1.356131,
    -0.355154,
    -0.798389,
    1.174882,
    -1.375316,
    -1.041534,
    -0.569689,
    -1.332450,
    -0.129921,
    0.295955,
    0.221603,
    -1.196272,
    0.389488,
    -0.867438,
    0.468843,
    0.673721,
    0.820125,
    0.736960,
    -0.324513,
    1.191639,
    1.398183,
    -0.571281,
    -1.071426,
    1.255556,
    0.094303,
    -0.556744,
    -2.074818,
    -0.177739,
    -1.726356,
    1.397691,
    -1.202993,
    -0.367279,
    -0.300509,
    -0.793910,
    -0.194590,
    0.796348,
    1.036552,
    -1.499751,
    -0.662002,
    0.224245,
    0.925076,
    0.407839,
    -1.204726,
    -0.046103,
    0.677162,
    1.069530,
    0.775521,
    -0.825352,
    0.456679,
    1.444856,
    -0.701144,
    -0.020466,
    -1.070585,
    1.546202,
    0.428556,
    -1.906143,
    0.419396,
    -2.104635,
    0.610432,
    0.700382,
    0.448689,
    -1.736456,
    -0.795619,
    1.514534,
    0.751173,
    -1.498395,
    -1.328943,
    1.370292,
    1.188645,
    0.670499,
    -0.324749,
    0.517556,
    -0.070603,
    -0.163349,
    0.163390,
    -1.280805,
    0.178432,
    0.060880,
    2.205177,
    -0.001893,
    -0.628086,
    -0.803540,
    -2.003170,
    0.165349,
    0.866272,
    -0.088422,
    0.586974,
    -1.511671,
    0.520782,
    1.611478,
    0.721220,
    1.797486,
    -0.437971,
    0.718301,
    -1.337727,
    -1.393174,
    0.285274,
    1.248627,
    0.147655,
    0.049216,
    1.550164,
    0.123810,
    0.139319,
    0.989135,
    -0.784581,
    -0.617371,
    0.849159,
    0.335203,
    -1.389604,
    -0.187406,
    0.643531,
    -1.320009,
    1.372360,
    -0.218980,
    0.862034,
    -0.573181,
    -1.248356,
    -0.569190,
    0.709340,
    -2.133930,
    -0.741095,
    -0.861906,
    1.234770,
    1.394336,
    -1.732968,
    -0.181605,
    1.435489,
    0.300933,
    -0.918840,
    0.073973,
    1.520547,
    1.824399,
    -0.930961,
    0.216847,
    0.122708,
    0.284974,
    0.829188,
    1.199101,
    -0.243552,
    1.812681,
    1.184555,
    -1.744361,
    -0.190347,
    0.113051,
    -1.050520,
    -0.391154,
    0.164559,
    -0.408541,
    -0.441562,
    -0.605933,
    0.058757,
    -1.086590,
    -0.318149,
    -0.069343,
    1.505174,
    0.119579,
    -0.768751,
    -0.802410,
    0.116521,
    1.330941,
    0.073517,
    0.405974,
    -0.248023,
    1.618053,
    1.236388,
    -1.449522,
    -1.230683,
    -0.301821,
    1.561083,
    0.723584,
    -0.524203,
    1.126720,
    -0.971822,
    -1.010603,
    1.980807,
    -0.181624,
    -0.030124,
    -0.644594,
    0.632049,
    0.289443,
    0.445740,
    1.900777,
    1.595009,
    0.065029,
    -1.051886,
    0.406288,
    -1.649214,
    -1.414026,
    1.897336,
    2.631871,
    -1.479944,
    0.187742,
    0.030960,
    1.432228,
    0.260535,
    -0.672404,
    0.090857,
    -1.583178,
    -0.144102,
    0.910156,
    -1.645126,
    -0.372097,
    0.029647,
    2.541838,
    -0.532301,
    0.123885,
    0.172180,
    1.503491,
    -0.346974,
    1.223347,
    -0.419335,
    -0.776751,
    -0.643887,
    -1.436025,
    0.102129,
    -0.253551,
    0.677211,
    -0.256901,
    -0.323213,
    0.381277,
    1.799885,
    -1.290051,
    -0.384595,
    -0.874541,
    -0.228236,
    0.087488,
    -0.103502,
    -0.862996,
    2.315565,
    -0.141461,
    -0.065422,
    1.359389,
    0.080120,
    1.233002,
    0.595475,
    1.633277,
    0.983299,
    0.532306,
    2.248155,
    -0.754614,
    -2.224777,
    0.181970,
    0.680466,
    -0.495332,
    0.974769,
    -1.173375,
    2.456898,
    0.296030,
    1.092313,
    -0.498694,
    1.049360,
    1.693382,
    0.240061,
    -1.176164,
    0.673720,
    0.809689,
    0.563494,
    0.425434,
    0.186222,
    0.739572,
    -0.221916,
    1.429177,
    0.545596,
    1.959331,
    1.906900,
    -0.535291,
    -0.797730,
    -0.985907,
    -0.100105,
    -0.705689,
    -0.048307,
    0.142437,
    0.160159,
    -1.200264,
    -0.256079,
    -1.132728,
    -1.509506,
    0.250311,
    0.528792,
    0.879215,
    1.194830,
    3.097206,
    0.466603,
    1.572106,
    0.213031,
    -0.423402,
    -0.031733,
    -0.897340,
    -1.518769,
    0.631867,
    0.478308,
    0.765802,
    0.087748,
    -0.939080,
    1.630985,
    -0.213689,
    0.925910,
    -0.630868,
    -0.910719,
    1.633602,
    -1.344281,
    0.681445,
    -1.402969,
    -1.552804,
    0.440813,
    1.030462,
    -0.102081,
    1.075357,
    0.093642,
    0.836801,
    -0.025171,
    -0.015399,
    1.756317,
    1.632650,
    0.868264,
    0.827873,
    -0.464498,
    0.252323,
    -0.558638,
    -0.765465,
    1.364280,
    0.252639,
    -2.190752,
    0.393130,
    0.799237,
    0.393580,
    0.620857,
    -0.355467,
    -1.339103,
    -1.306515,
    -1.468052,
    -0.212733,
    -0.396488,
    0.709163,
    -1.278392,
    1.615387,
    3.239172,
    0.088875,
    -1.312160,
    1.973358,
    0.307855,
    2.154428,
    0.054714,
    -0.233881,
    1.630829,
    -2.145753,
    0.580961,
    0.768021,
    0.529850,
    1.065464,
    -1.273874,
    -0.828736,
    1.593013,
    1.769147,
    0.963704,
    -0.565567,
    -0.180542,
    0.313851,
    -1.286384,
    -0.163213,
    0.904948,
    -0.797928,
    0.673200,
    1.875861,
    0.713885,
    -0.960214,
    0.636808,
    0.269113,
    0.456400,
    0.439618,
    0.602398,
    1.972158,
    -0.123406,
    0.023016,
    -0.928186,
    0.355290,
    -0.335153,
    -1.104834,
    0.102769,
    0.103460,
    0.749297,
    -0.173168,
    0.796250,
    -0.978810,
    -0.585711,
    1.026316,
    -0.330352,
    1.410788,
    -1.727757,
    0.189311,
    1.116173,
    1.654329,
    -0.877046,
    1.298993,
    0.446705,
    -0.147292,
    0.776534,
    0.910297,
    -1.211449,
    0.910166,
    -1.052135,
    -0.469747,
    0.241505,
    -0.115467,
    -1.666878,
    -0.512228,
    -0.722235,
    -0.076220,
    1.858564,
    1.261425,
    0.470959,
    1.352266,
    -0.552737,
    1.436602,
    0.264219,
    -0.240679,
    0.734408,
    -1.063108,
    1.705334,
    -0.473049,
    0.362812,
    0.896103,
    -0.723332,
    -0.063744,
    -0.004554,
    -0.834535,
    1.519919,
    1.772857,
    0.215671,
    0.302821,
    -2.013493,
    -0.465034,
    -0.349576,
    0.551380,
    0.633956,
    -0.703583,
    1.189238,
    -0.322983,
    0.063417,
    -0.694009,
    0.812090,
    0.631625,
    0.220765,
    -0.782653,
    0.283687,
    -0.331951,
    -0.127666,
    1.076996,
    -0.446730,
    0.726979,
    0.478845,
    1.925807,
    0.693799,
    -1.001047,
    1.694567,
    1.111608,
    1.653807,
    -1.215215,
    -0.049420,
    -0.572772,
    0.688507,
    -0.948137,
    -2.245923,
    0.464885,
    0.203798,
    0.294111,
    1.843581,
    -0.952027,
    -0.974518,
    2.299993,
    0.447404,
    0.925719,
    -1.284713,
    -0.242439,
    1.422316,
    0.493267,
    0.953256,
    1.577967,
    0.927917,
    0.603253,
    -0.135029,
    -0.481747,
    0.245308,
    -0.433844,
    -0.170457,
    -0.572057,
    2.514694,
    1.644990,
    1.254578,
    1.308229,
    1.435889,
    -1.117377,
    0.665940,
    0.608606,
    -0.043657,
    0.033549,
    -1.475237,
    1.895275,
    -0.865415,
    0.455481,
    0.536457,
    -0.804267,
    0.040733,
    -1.535977,
    1.080027,
    -2.321776,
    0.287075,
    -0.652099,
    -0.191180,
    0.089822,
    -1.367772,
    0.169191,
    2.088188,
    -0.804436,
    1.032874,
    0.183518,
    -1.212820,
    -0.591292,
    -1.179154,
    -0.657449,
    0.170352,
    -1.385484,
    0.873333,
    -0.332997,
    0.062079,
    0.446900,
    0.846569,
    1.825239,
    -1.484574,
    -0.634183,
    0.618350,
    0.661128,
    -0.017897,
    -1.679533,
    1.465954,
    -2.259090,
    -0.618977,
    0.371615,
    -0.256548,
    -0.684040,
    2.997044,
    0.810404,
    -0.112049,
    1.405928,
    0.082695,
    1.040912,
    2.499665,
    -0.425912,
    0.338478,
    1.056691,
    -1.489887,
    1.295697,
    0.971778,
    0.398429,
    -0.219879,
    -1.459764,
    -0.782217,
    -0.279086,
    -0.796887,
    -0.709718,
    0.028494,
    1.132995,
    0.583226,
    -0.751650,
    -1.154708,
    -1.198519,
    -1.340096,
    -0.126589,
    -0.592043,
    1.662133,
    -0.332079,
    0.599371,
    1.016155,
    1.196200,
    1.579795,
    3.350987,
    -1.372169,
    -0.117509,
    0.550404,
    -0.056174,
    -0.766500,
    -0.698714,
    0.723878,
    -1.695607,
    -1.934839,
    0.600329,
    0.471508,
    -0.576487,
    -0.009864,
    -0.735304,
    1.910352,
    1.607445,
    1.466073,
    0.712940,
    1.236966,
    0.811580,
    -0.557107,
    0.906124,
    0.031029,
    0.443087,
    0.874967,
    0.550705,
    -0.871789,
